=== Run information ===

Scheme:weka.classifiers.trees.J48 -C 0.25 -M 2
Relation:     dengue2015_work4-weka.filters.unsupervised.attribute.NumericToNominal-R64-weka.filters.unsupervised.attribute.RemoveUseless-M99.0-weka.filters.unsupervised.attribute.Remove-R12,29,64-66-weka.filters.unsupervised.attribute.Reorder-R1,2,3,4,5,6,7,8,9,10,11,12,13,14,15,16,17,18,19,20,21,22,23,24,25,26,27,28,29,30,31,32,33,34,35,36,37,38,39,40,41,42,43,44,46,47,48,49,50,51,52,53,54,55,56,57,58,59,60,61,45-weka.filters.unsupervised.instance.RemoveRange-R15001-last
Instances:    15000
Attributes:   61
              NU_NOTIFIC
              DT_NOTIFIC
              SEM_NOT
              SG_UF_NOT
              ID_MUNICIP
              ID_REGIONA
              ID_UNIDADE
              DT_SIN_PRI
              SEM_PRI_NO
              MES_SIN_PR
              SEM_PRI
              NU_IDADE_N
              NU_IDADE_0
              FX_NU_IDAD
              CS_SEXO
              CS_GESTANT
              CS_RACA
              CS_ESCOL_N
              ID_CNS_SUS
              SG_UF
              ID_MN_RESI
              ID_RG_RESI
              ID_DISTRIT
              ID_BAIRRO
              NM_BAIRRO
              ID_GEO1
              NU_CEP
              CS_ZONA
              DT_DIGITA
              CS_FLXRET
              IDENT_MICR
              DT_INVEST
              ID_OCUPA_N
              DT_SORO
              RESUL_SORO
              DT_NS1
              RESUL_NS1
              DT_VIRAL
              RESUL_VI_N
              DT_PCR
              RESUL_PCR_
              SOROTIPO
              HISTOPA_N
              IMUNOH_N
              CRITERIO
              TPAUTOCTO
              COUFINF
              COMUNINF
              CODISINF
              CO_BAINF
              NOBAIINF
              DOENCA_TRA
              EVOLUCAO
              DT_OBITO
              DT_ENCERRA
              HOSPITALIZ
              DT_INTERNA
              UF
              MUNICIPIO
              HOSPITAL
              CLASSI_FIN
Test mode:10-fold cross-validation

=== Classifier model (full training set) ===

J48 pruned tree
------------------

SEM_NOT <= 201510
|   RESUL_SORO <= 1
|   |   CRITERIO <= 1: 10 (264.13/40.13)
|   |   CRITERIO > 1
|   |   |   CRITERIO <= 2
|   |   |   |   IDENT_MICR <= 4
|   |   |   |   |   ID_DISTRIT <= 176: 10 (6.99/1.83)
|   |   |   |   |   ID_DISTRIT > 176: 5 (6.57/1.97)
|   |   |   |   IDENT_MICR > 4: 5 (5.38/0.24)
|   |   |   CRITERIO > 2: 10 (7.44/0.05)
|   RESUL_SORO > 1
|   |   CRITERIO <= 1
|   |   |   RESUL_NS1 <= 1
|   |   |   |   ID_DISTRIT <= 179: 5 (2.72/1.46)
|   |   |   |   ID_DISTRIT > 179: 10 (5.29/2.29)
|   |   |   RESUL_NS1 > 1: 5 (360.12/5.42)
|   |   CRITERIO > 1
|   |   |   ID_UNIDADE <= 3394514
|   |   |   |   CRITERIO <= 2: 5 (687.65/183.41)
|   |   |   |   CRITERIO > 2: 10 (21.0/0.19)
|   |   |   ID_UNIDADE > 3394514: 10 (269.72/92.23)
SEM_NOT > 201510
|   CRITERIO <= 2
|   |   RESUL_SORO <= 1: 10 (914.43/115.61)
|   |   RESUL_SORO > 1
|   |   |   CRITERIO <= 1
|   |   |   |   RESUL_NS1 <= 1: 10 (21.98/4.11)
|   |   |   |   RESUL_NS1 > 1: 5 (292.7/12.0)
|   |   |   CRITERIO > 1
|   |   |   |   ID_DISTRIT <= 179
|   |   |   |   |   ID_DISTRIT <= 178: 10 (2479.6/661.7)
|   |   |   |   |   ID_DISTRIT > 178
|   |   |   |   |   |   DT_ENCERRA = 06/09/2015: 10 (11.93/2.06)
|   |   |   |   |   |   DT_ENCERRA = 2.0150529E7
|   |   |   |   |   |   |   DT_NOTIFIC = 2.0150529E7: 10 (0.21)
|   |   |   |   |   |   |   DT_NOTIFIC = 2.0150528E7: 10 (1.0)
|   |   |   |   |   |   |   DT_NOTIFIC = 06/05/2015: 5 (0.0)
|   |   |   |   |   |   |   DT_NOTIFIC = 2.0150522E7: 10 (0.11)
|   |   |   |   |   |   |   DT_NOTIFIC = 2.0150526E7: 10 (1.0)
|   |   |   |   |   |   |   DT_NOTIFIC = 2.015052E7: 5 (0.0)
|   |   |   |   |   |   |   DT_NOTIFIC = 06/08/2015: 5 (0.0)
|   |   |   |   |   |   |   DT_NOTIFIC = 06/11/2015: 5 (0.0)
|   |   |   |   |   |   |   DT_NOTIFIC = 2.0150525E7: 5 (0.0)
|   |   |   |   |   |   |   DT_NOTIFIC = 2.0150616E7: 5 (0.0)
|   |   |   |   |   |   |   DT_NOTIFIC = 2.0150615E7: 5 (0.0)
|   |   |   |   |   |   |   DT_NOTIFIC = 2.0150613E7: 5 (0.0)
|   |   |   |   |   |   |   DT_NOTIFIC = 2.0150524E7: 5 (0.0)
|   |   |   |   |   |   |   DT_NOTIFIC = 2.0150518E7: 5 (0.0)
|   |   |   |   |   |   |   DT_NOTIFIC = 05/04/2015: 5 (1.0)
|   |   |   |   |   |   |   DT_NOTIFIC = 2.0150519E7: 5 (0.0)
|   |   |   |   |   |   |   DT_NOTIFIC = 05/06/2015: 5 (0.0)
|   |   |   |   |   |   |   DT_NOTIFIC = 2.0150313E7: 5 (0.0)
|   |   |   |   |   |   |   DT_NOTIFIC = 06/10/2015: 5 (0.0)
|   |   |   |   |   |   |   DT_NOTIFIC = 2.0150515E7: 10 (1.0)
|   |   |   |   |   |   |   DT_NOTIFIC = 05/01/2015: 5 (1.23)
|   |   |   |   |   |   |   DT_NOTIFIC = 05/08/2015: 5 (0.0)
|   |   |   |   |   |   |   DT_NOTIFIC = 2.0150513E7
|   |   |   |   |   |   |   |   FX_NU_IDAD <= 7: 10 (7.0/1.0)
|   |   |   |   |   |   |   |   FX_NU_IDAD > 7: 5 (2.0)
|   |   |   |   |   |   |   DT_NOTIFIC = 06/07/2015: 5 (0.0)
|   |   |   |   |   |   |   DT_NOTIFIC = 2.0150516E7: 5 (6.0/1.0)
|   |   |   |   |   |   |   DT_NOTIFIC = 05/07/2015: 5 (11.0/1.0)
|   |   |   |   |   |   |   DT_NOTIFIC = 2.0150527E7: 5 (0.0)
|   |   |   |   |   |   |   DT_NOTIFIC = 06/01/2015: 5 (0.0)
|   |   |   |   |   |   |   DT_NOTIFIC = 05/11/2015: 10 (1.0)
|   |   |   |   |   |   |   DT_NOTIFIC = 05/09/2015: 5 (0.0)
|   |   |   |   |   |   |   DT_NOTIFIC = 2.015043E7: 5 (1.0)
|   |   |   |   |   |   |   DT_NOTIFIC = 2.0150614E7: 5 (0.0)
|   |   |   |   |   |   |   DT_NOTIFIC = 06/09/2015: 5 (0.0)
|   |   |   |   |   |   |   DT_NOTIFIC = 06/06/2015: 5 (0.0)
|   |   |   |   |   |   |   DT_NOTIFIC = 2.0150523E7: 5 (0.0)
|   |   |   |   |   |   |   DT_NOTIFIC = 2.0150618E7: 5 (0.0)
|   |   |   |   |   |   |   DT_NOTIFIC = 2.0150531E7: 5 (0.0)
|   |   |   |   |   |   |   DT_NOTIFIC = 2.0150517E7: 5 (0.0)
|   |   |   |   |   |   |   DT_NOTIFIC = 06/02/2015: 5 (0.0)
|   |   |   |   |   |   |   DT_NOTIFIC = 2.0150514E7: 10 (6.11/1.0)
|   |   |   |   |   |   |   DT_NOTIFIC = 05/12/2015: 5 (15.0/5.0)
|   |   |   |   |   |   |   DT_NOTIFIC = 03/01/2015: 5 (0.0)
|   |   |   |   |   |   |   DT_NOTIFIC = 2.0150521E7: 5 (0.0)
|   |   |   |   |   |   |   DT_NOTIFIC = 06/04/2015: 5 (0.0)
|   |   |   |   |   |   |   DT_NOTIFIC = 2.015053E7: 5 (0.0)
|   |   |   |   |   |   |   DT_NOTIFIC = 2.0150423E7: 5 (0.0)
|   |   |   |   |   |   |   DT_NOTIFIC = 2.015042E7: 5 (0.0)
|   |   |   |   |   |   |   DT_NOTIFIC = 05/05/2015: 5 (19.34/6.23)
|   |   |   |   |   |   |   DT_NOTIFIC = 03/09/2015: 5 (0.0)
|   |   |   |   |   |   |   DT_NOTIFIC = 06/03/2015: 5 (0.0)
|   |   |   |   |   |   |   DT_NOTIFIC = 05/02/2015
|   |   |   |   |   |   |   |   NU_NOTIFIC <= 26023: 5 (11.0)
|   |   |   |   |   |   |   |   NU_NOTIFIC > 26023: 10 (3.0)
|   |   |   |   |   |   |   DT_NOTIFIC = 2.0150415E7: 5 (0.0)
|   |   |   |   |   |   |   DT_NOTIFIC = 2.0150426E7: 5 (0.0)
|   |   |   |   |   |   |   DT_NOTIFIC = 2.0150617E7: 5 (0.0)
|   |   |   |   |   |   |   DT_NOTIFIC = 2.0150427E7: 5 (0.0)
|   |   |   |   |   |   |   DT_NOTIFIC = 04/06/2015: 5 (0.0)
|   |   |   |   |   |   |   DT_NOTIFIC = 06/12/2015: 5 (0.0)
|   |   |   |   |   |   |   DT_NOTIFIC = 05/03/2015: 5 (0.0)
|   |   |   |   |   |   |   DT_NOTIFIC = 2.0150429E7: 5 (0.0)
|   |   |   |   |   |   |   DT_NOTIFIC = 04/11/2015: 5 (0.0)
|   |   |   |   |   |   |   DT_NOTIFIC = 05/10/2015: 5 (1.11)
|   |   |   |   |   |   |   DT_NOTIFIC = 04/12/2015: 5 (0.0)
|   |   |   |   |   |   |   DT_NOTIFIC = 2.0150422E7: 5 (0.0)
|   |   |   |   |   |   |   DT_NOTIFIC = 2.0150329E7: 5 (0.0)
|   |   |   |   |   |   |   DT_NOTIFIC = 2.0150419E7: 5 (0.0)
|   |   |   |   |   |   |   DT_NOTIFIC = 2.0150322E7: 5 (0.0)
|   |   |   |   |   |   |   DT_NOTIFIC = 2.0150424E7: 5 (0.1)
|   |   |   |   |   |   |   DT_NOTIFIC = 2.0150428E7: 5 (0.0)
|   |   |   |   |   |   |   DT_NOTIFIC = 2.0150413E7: 5 (0.0)
|   |   |   |   |   |   |   DT_NOTIFIC = 2.0150421E7: 5 (0.0)
|   |   |   |   |   |   |   DT_NOTIFIC = 2.0150417E7: 5 (0.0)
|   |   |   |   |   |   |   DT_NOTIFIC = 2.0150226E7: 5 (0.0)
|   |   |   |   |   |   |   DT_NOTIFIC = 2.0150416E7: 5 (0.0)
|   |   |   |   |   |   |   DT_NOTIFIC = 03/05/2015: 5 (0.0)
|   |   |   |   |   |   |   DT_NOTIFIC = 2.0150323E7: 5 (0.0)
|   |   |   |   |   |   |   DT_NOTIFIC = 2.0150331E7: 5 (0.0)
|   |   |   |   |   |   |   DT_NOTIFIC = 2.0150425E7: 10 (0.87)
|   |   |   |   |   |   |   DT_NOTIFIC = 2.0150414E7: 5 (0.0)
|   |   |   |   |   |   |   DT_NOTIFIC = 2.0150321E7: 5 (0.0)
|   |   |   |   |   |   |   DT_NOTIFIC = 2.0150328E7: 5 (0.0)
|   |   |   |   |   |   |   DT_NOTIFIC = 04/10/2015: 5 (0.0)
|   |   |   |   |   |   |   DT_NOTIFIC = 04/07/2015: 5 (0.0)
|   |   |   |   |   |   |   DT_NOTIFIC = 2.015033E7: 5 (0.0)
|   |   |   |   |   |   |   DT_NOTIFIC = 04/02/2015: 5 (0.0)
|   |   |   |   |   |   |   DT_NOTIFIC = 2.0150326E7: 5 (0.0)
|   |   |   |   |   |   |   DT_NOTIFIC = 03/11/2015: 5 (0.0)
|   |   |   |   |   |   |   DT_NOTIFIC = 2.0150327E7: 5 (0.0)
|   |   |   |   |   |   |   DT_NOTIFIC = 2.0150325E7: 5 (0.0)
|   |   |   |   |   |   |   DT_NOTIFIC = 04/08/2015: 5 (0.0)
|   |   |   |   |   |   |   DT_NOTIFIC = 2.0150418E7: 5 (0.0)
|   |   |   |   |   |   |   DT_NOTIFIC = 03/12/2015: 5 (0.0)
|   |   |   |   |   |   |   DT_NOTIFIC = 2.0150317E7: 5 (0.0)
|   |   |   |   |   |   |   DT_NOTIFIC = 03/10/2015: 5 (0.0)
|   |   |   |   |   |   |   DT_NOTIFIC = 04/05/2015: 5 (0.0)
|   |   |   |   |   |   |   DT_NOTIFIC = 2.0150318E7: 5 (0.0)
|   |   |   |   |   |   |   DT_NOTIFIC = 2.0150319E7: 5 (0.0)
|   |   |   |   |   |   |   DT_NOTIFIC = 2.0150219E7: 5 (0.0)
|   |   |   |   |   |   |   DT_NOTIFIC = 03/08/2015: 5 (0.0)
|   |   |   |   |   |   |   DT_NOTIFIC = 2.0150113E7: 5 (0.0)
|   |   |   |   |   |   |   DT_NOTIFIC = 2.0150213E7: 5 (0.0)
|   |   |   |   |   |   |   DT_NOTIFIC = 04/09/2015: 5 (0.0)
|   |   |   |   |   |   |   DT_NOTIFIC = 03/03/2015: 5 (0.0)
|   |   |   |   |   |   |   DT_NOTIFIC = 2.0150315E7: 5 (0.0)
|   |   |   |   |   |   |   DT_NOTIFIC = 2.0150316E7: 5 (0.0)
|   |   |   |   |   |   |   DT_NOTIFIC = 2.0150324E7: 5 (0.0)
|   |   |   |   |   |   |   DT_NOTIFIC = 03/06/2015: 5 (0.0)
|   |   |   |   |   |   |   DT_NOTIFIC = 04/01/2015: 5 (0.0)
|   |   |   |   |   |   |   DT_NOTIFIC = 2.015032E7: 5 (0.0)
|   |   |   |   |   |   |   DT_NOTIFIC = 2.0150131E7: 5 (0.0)
|   |   |   |   |   |   |   DT_NOTIFIC = 2.0150126E7: 5 (0.0)
|   |   |   |   |   |   |   DT_NOTIFIC = 01/10/2015: 5 (0.0)
|   |   |   |   |   |   |   DT_NOTIFIC = 2.0150115E7: 5 (0.0)
|   |   |   |   |   |   |   DT_NOTIFIC = 2.0150123E7: 5 (0.0)
|   |   |   |   |   |   |   DT_NOTIFIC = 2.0150217E7: 5 (0.0)
|   |   |   |   |   |   |   DT_NOTIFIC = 03/04/2015: 5 (0.0)
|   |   |   |   |   |   |   DT_NOTIFIC = 2.0150114E7: 5 (0.0)
|   |   |   |   |   |   |   DT_NOTIFIC = 01/12/2015: 5 (0.0)
|   |   |   |   |   |   |   DT_NOTIFIC = 2.0150121E7: 5 (0.0)
|   |   |   |   |   |   |   DT_NOTIFIC = 2.0150224E7: 5 (0.0)
|   |   |   |   |   |   |   DT_NOTIFIC = 01/05/2015: 5 (0.0)
|   |   |   |   |   |   |   DT_NOTIFIC = 2.015013E7: 5 (0.0)
|   |   |   |   |   |   |   DT_NOTIFIC = 2.0150128E7: 5 (0.0)
|   |   |   |   |   |   |   DT_NOTIFIC = 02/08/2015: 5 (0.0)
|   |   |   |   |   |   |   DT_NOTIFIC = 02/03/2015: 5 (0.0)
|   |   |   |   |   |   |   DT_NOTIFIC = 2.0150222E7: 5 (0.0)
|   |   |   |   |   |   |   DT_NOTIFIC = 2.0150122E7: 5 (0.0)
|   |   |   |   |   |   |   DT_NOTIFIC = 2.0150218E7: 5 (0.0)
|   |   |   |   |   |   |   DT_NOTIFIC = 2.0150119E7: 5 (0.0)
|   |   |   |   |   |   |   DT_NOTIFIC = 2.0150118E7: 5 (0.0)
|   |   |   |   |   |   |   DT_NOTIFIC = 2.0150116E7: 5 (0.0)
|   |   |   |   |   |   |   DT_NOTIFIC = 2.015012E7: 5 (0.0)
|   |   |   |   |   |   |   DT_NOTIFIC = 2.0150124E7: 5 (0.0)
|   |   |   |   |   |   |   DT_NOTIFIC = 2.015022E7: 5 (0.0)
|   |   |   |   |   |   |   DT_NOTIFIC = 2.0150216E7: 5 (0.0)
|   |   |   |   |   |   |   DT_NOTIFIC = 2.0150221E7: 5 (0.0)
|   |   |   |   |   |   |   DT_NOTIFIC = 2.0150225E7: 5 (0.0)
|   |   |   |   |   |   |   DT_NOTIFIC = 2.0150223E7: 5 (0.0)
|   |   |   |   |   |   |   DT_NOTIFIC = 02/05/2015: 5 (0.0)
|   |   |   |   |   |   |   DT_NOTIFIC = 03/07/2015: 5 (0.0)
|   |   |   |   |   |   |   DT_NOTIFIC = 2.0150127E7: 5 (0.0)
|   |   |   |   |   |   |   DT_NOTIFIC = 02/06/2015: 5 (0.0)
|   |   |   |   |   |   |   DT_NOTIFIC = 2.0150129E7: 5 (0.0)
|   |   |   |   |   |   |   DT_NOTIFIC = 2.0150125E7: 5 (0.0)
|   |   |   |   |   |   |   DT_NOTIFIC = 01/07/2015: 5 (0.0)
|   |   |   |   |   |   |   DT_NOTIFIC = 01/04/2015: 5 (0.0)
|   |   |   |   |   |   |   DT_NOTIFIC = 01/06/2015: 5 (0.0)
|   |   |   |   |   |   |   DT_NOTIFIC = 01/08/2015: 5 (0.0)
|   |   |   |   |   |   |   DT_NOTIFIC = 01/11/2015: 5 (0.0)
|   |   |   |   |   |   |   DT_NOTIFIC = 2.0150214E7: 5 (0.0)
|   |   |   |   |   |   |   DT_NOTIFIC = 03/02/2015: 5 (0.0)
|   |   |   |   |   |   |   DT_NOTIFIC = 02/07/2015: 5 (0.0)
|   |   |   |   |   |   |   DT_NOTIFIC = 02/04/2015: 5 (0.0)
|   |   |   |   |   |   |   DT_NOTIFIC = 02/01/2015: 5 (0.0)
|   |   |   |   |   |   |   DT_NOTIFIC = 02/12/2015: 5 (0.0)
|   |   |   |   |   |   |   DT_NOTIFIC = 01/09/2015: 5 (0.0)
|   |   |   |   |   |   |   DT_NOTIFIC = 2.0150227E7: 5 (0.0)
|   |   |   |   |   |   |   DT_NOTIFIC = 02/10/2015: 5 (0.0)
|   |   |   |   |   |   |   DT_NOTIFIC = 02/09/2015: 5 (0.0)
|   |   |   |   |   |   |   DT_NOTIFIC = 02/11/2015: 5 (0.0)
|   |   |   |   |   |   |   DT_NOTIFIC = 2.0150215E7: 5 (0.0)
|   |   |   |   |   |   |   DT_NOTIFIC = 02/02/2015: 5 (0.0)
|   |   |   |   |   |   |   DT_NOTIFIC = 2.0150314E7: 5 (0.0)
|   |   |   |   |   |   |   DT_NOTIFIC = 2.0150228E7: 5 (0.0)
|   |   |   |   |   |   |   DT_NOTIFIC = 2.0150117E7: 5 (0.0)
|   |   |   |   |   |   |   DT_NOTIFIC = 04/04/2015: 5 (0.0)
|   |   |   |   |   |   |   DT_NOTIFIC = 04/03/2015: 5 (0.0)
|   |   |   |   |   |   DT_ENCERRA = 2.0150615E7: 10 (11.32/5.0)
|   |   |   |   |   |   DT_ENCERRA = 06/11/2015: 10 (71.27/23.68)
|   |   |   |   |   |   DT_ENCERRA = 06/08/2015: 10 (44.99/11.68)
|   |   |   |   |   |   DT_ENCERRA = 2.0150616E7
|   |   |   |   |   |   |   CS_RACA <= 5: 10 (18.81/3.54)
|   |   |   |   |   |   |   CS_RACA > 5: 5 (15.78/4.32)
|   |   |   |   |   |   DT_ENCERRA = 05/12/2015: 5 (0.34/0.11)
|   |   |   |   |   |   DT_ENCERRA = 2.0150618E7: 5 (9.54/2.54)
|   |   |   |   |   |   DT_ENCERRA = 2.0150526E7
|   |   |   |   |   |   |   CS_SEXO = F: 10 (13.21/1.21)
|   |   |   |   |   |   |   CS_SEXO = M: 5 (7.17/1.49)
|   |   |   |   |   |   |   CS_SEXO = I: 10 (0.0)
|   |   |   |   |   |   DT_ENCERRA = 06/04/2015: 10 (1.0)
|   |   |   |   |   |   DT_ENCERRA = 06/01/2015: 10 (3.86/0.55)
|   |   |   |   |   |   DT_ENCERRA = 06/12/2015
|   |   |   |   |   |   |   DT_DIGITA = 06/09/2015: 10 (0.0)
|   |   |   |   |   |   |   DT_DIGITA = 06/12/2015: 10 (5.71/1.24)
|   |   |   |   |   |   |   DT_DIGITA = 2.0150613E7: 10 (0.0)
|   |   |   |   |   |   |   DT_DIGITA = 2.0150615E7: 5 (0.11)
|   |   |   |   |   |   |   DT_DIGITA = 06/10/2015: 10 (0.29)
|   |   |   |   |   |   |   DT_DIGITA = 2.0150616E7: 10 (0.0)
|   |   |   |   |   |   |   DT_DIGITA = 06/08/2015: 10 (0.1)
|   |   |   |   |   |   |   DT_DIGITA = 2.0150618E7: 10 (0.0)
|   |   |   |   |   |   |   DT_DIGITA = 06/11/2015: 10 (0.0)
|   |   |   |   |   |   |   DT_DIGITA = 2.0150319E7: 10 (0.0)
|   |   |   |   |   |   |   DT_DIGITA = 06/05/2015: 10 (0.0)
|   |   |   |   |   |   |   DT_DIGITA = 2.015053E7: 10 (0.0)
|   |   |   |   |   |   |   DT_DIGITA = 2.0150526E7: 10 (0.0)
|   |   |   |   |   |   |   DT_DIGITA = 06/04/2015: 10 (0.0)
|   |   |   |   |   |   |   DT_DIGITA = 06/02/2015: 5 (0.2)
|   |   |   |   |   |   |   DT_DIGITA = 06/07/2015: 10 (0.0)
|   |   |   |   |   |   |   DT_DIGITA = 06/06/2015: 10 (0.0)
|   |   |   |   |   |   |   DT_DIGITA = 2.0150531E7: 10 (0.0)
|   |   |   |   |   |   |   DT_DIGITA = 06/03/2015: 5 (0.2/0.1)
|   |   |   |   |   |   |   DT_DIGITA = 2.0150527E7: 10 (0.87)
|   |   |   |   |   |   |   DT_DIGITA = 2.0150617E7: 10 (0.0)
|   |   |   |   |   |   |   DT_DIGITA = 06/01/2015: 10 (0.0)
|   |   |   |   |   |   |   DT_DIGITA = 2.0150528E7: 10 (0.0)
|   |   |   |   |   |   |   DT_DIGITA = 2.0150529E7: 5 (1.0)
|   |   |   |   |   |   |   DT_DIGITA = 05/07/2015: 5 (1.0)
|   |   |   |   |   |   |   DT_DIGITA = 2.0150514E7: 5 (0.11)
|   |   |   |   |   |   |   DT_DIGITA = 2.0150525E7: 10 (0.23)
|   |   |   |   |   |   |   DT_DIGITA = 2.0150522E7: 10 (0.11)
|   |   |   |   |   |   |   DT_DIGITA = 2.0150521E7: 10 (1.0)
|   |   |   |   |   |   |   DT_DIGITA = 2.0150519E7: 10 (6.0/1.0)
|   |   |   |   |   |   |   DT_DIGITA = 2.0150524E7
|   |   |   |   |   |   |   |   FX_NU_IDAD <= 5: 10 (2.0)
|   |   |   |   |   |   |   |   FX_NU_IDAD > 5: 5 (4.11)
|   |   |   |   |   |   |   DT_DIGITA = 2.015052E7: 10 (0.0)
|   |   |   |   |   |   |   DT_DIGITA = 2.0150619E7: 10 (0.0)
|   |   |   |   |   |   |   DT_DIGITA = 2.0150614E7: 10 (0.0)
|   |   |   |   |   |   |   DT_DIGITA = 05/08/2015: 10 (0.0)
|   |   |   |   |   |   |   DT_DIGITA = 05/11/2015: 10 (0.0)
|   |   |   |   |   |   |   DT_DIGITA = 05/06/2015: 10 (0.0)
|   |   |   |   |   |   |   DT_DIGITA = 05/09/2015: 10 (0.0)
|   |   |   |   |   |   |   DT_DIGITA = 2.0150517E7: 10 (0.0)
|   |   |   |   |   |   |   DT_DIGITA = 2.0150523E7: 10 (0.0)
|   |   |   |   |   |   |   DT_DIGITA = 2.0150515E7: 5 (5.11)
|   |   |   |   |   |   |   DT_DIGITA = 05/10/2015: 10 (0.0)
|   |   |   |   |   |   |   DT_DIGITA = 05/12/2015: 10 (0.0)
|   |   |   |   |   |   |   DT_DIGITA = 2.0150513E7: 10 (0.0)
|   |   |   |   |   |   |   DT_DIGITA = 2.0150516E7: 5 (0.11)
|   |   |   |   |   |   |   DT_DIGITA = 2.0150518E7: 10 (1.0)
|   |   |   |   |   |   |   DT_DIGITA = 2.015042E7: 10 (0.0)
|   |   |   |   |   |   |   DT_DIGITA = 03/12/2015: 10 (0.0)
|   |   |   |   |   |   |   DT_DIGITA = 2.0150127E7: 10 (0.0)
|   |   |   |   |   |   |   DT_DIGITA = 04/06/2015: 10 (0.0)
|   |   |   |   |   |   |   DT_DIGITA = 2.0150414E7: 10 (0.0)
|   |   |   |   |   |   |   DT_DIGITA = 01/11/2015: 10 (0.0)
|   |   |   |   |   |   |   DT_DIGITA = 2.0150119E7: 10 (0.0)
|   |   |   |   |   |   |   DT_DIGITA = 02/02/2015: 10 (0.0)
|   |   |   |   |   |   |   DT_DIGITA = 03/04/2015: 10 (0.0)
|   |   |   |   |   |   |   DT_DIGITA = 03/06/2015: 10 (0.0)
|   |   |   |   |   |   |   DT_DIGITA = 2.0150128E7: 10 (0.0)
|   |   |   |   |   |   |   DT_DIGITA = 2.0150318E7: 10 (0.0)
|   |   |   |   |   |   |   DT_DIGITA = 2.0150116E7: 10 (0.0)
|   |   |   |   |   |   |   DT_DIGITA = 2.015012E7: 10 (0.0)
|   |   |   |   |   |   |   DT_DIGITA = 2.0150123E7: 10 (0.0)
|   |   |   |   |   |   |   DT_DIGITA = 2.0150122E7: 10 (0.0)
|   |   |   |   |   |   |   DT_DIGITA = 2.0150121E7: 10 (0.0)
|   |   |   |   |   |   |   DT_DIGITA = 2.0150215E7: 10 (0.0)
|   |   |   |   |   |   |   DT_DIGITA = 2.0150223E7: 10 (0.0)
|   |   |   |   |   |   |   DT_DIGITA = 2.0150224E7: 10 (0.0)
|   |   |   |   |   |   |   DT_DIGITA = 2.015022E7: 10 (0.0)
|   |   |   |   |   |   |   DT_DIGITA = 2.0150225E7: 10 (0.0)
|   |   |   |   |   |   |   DT_DIGITA = 2.0150115E7: 10 (0.0)
|   |   |   |   |   |   |   DT_DIGITA = 2.0150126E7: 10 (0.0)
|   |   |   |   |   |   |   DT_DIGITA = 2.0150213E7: 10 (0.0)
|   |   |   |   |   |   |   DT_DIGITA = 2.0150219E7: 10 (0.0)
|   |   |   |   |   |   |   DT_DIGITA = 2.0150226E7: 10 (0.0)
|   |   |   |   |   |   |   DT_DIGITA = 03/02/2015: 10 (0.0)
|   |   |   |   |   |   |   DT_DIGITA = 2.0150228E7: 10 (0.0)
|   |   |   |   |   |   |   DT_DIGITA = 2.0150227E7: 10 (0.0)
|   |   |   |   |   |   |   DT_DIGITA = 03/09/2015: 10 (0.0)
|   |   |   |   |   |   |   DT_DIGITA = 03/05/2015: 10 (0.0)
|   |   |   |   |   |   |   DT_DIGITA = 03/07/2015: 10 (0.0)
|   |   |   |   |   |   |   DT_DIGITA = 02/05/2015: 10 (0.0)
|   |   |   |   |   |   |   DT_DIGITA = 02/06/2015: 10 (0.0)
|   |   |   |   |   |   |   DT_DIGITA = 02/01/2015: 10 (0.0)
|   |   |   |   |   |   |   DT_DIGITA = 2.015013E7: 10 (0.0)
|   |   |   |   |   |   |   DT_DIGITA = 02/04/2015: 10 (0.0)
|   |   |   |   |   |   |   DT_DIGITA = 2.0150129E7: 10 (0.0)
|   |   |   |   |   |   |   DT_DIGITA = 01/05/2015: 10 (0.0)
|   |   |   |   |   |   |   DT_DIGITA = 01/07/2015: 10 (0.0)
|   |   |   |   |   |   |   DT_DIGITA = 01/09/2015: 10 (0.0)
|   |   |   |   |   |   |   DT_DIGITA = 02/09/2015: 10 (0.0)
|   |   |   |   |   |   |   DT_DIGITA = 2.0150125E7: 10 (0.0)
|   |   |   |   |   |   |   DT_DIGITA = 2.0150117E7: 10 (0.0)
|   |   |   |   |   |   |   DT_DIGITA = 03/03/2015: 10 (0.0)
|   |   |   |   |   |   |   DT_DIGITA = 2.0150216E7: 10 (0.0)
|   |   |   |   |   |   |   DT_DIGITA = 01/08/2015: 10 (0.0)
|   |   |   |   |   |   |   DT_DIGITA = 02/10/2015: 10 (0.0)
|   |   |   |   |   |   |   DT_DIGITA = 02/03/2015: 10 (0.0)
|   |   |   |   |   |   |   DT_DIGITA = 02/12/2015: 10 (0.0)
|   |   |   |   |   |   |   DT_DIGITA = 03/11/2015: 10 (0.0)
|   |   |   |   |   |   |   DT_DIGITA = 2.0150113E7: 10 (0.0)
|   |   |   |   |   |   |   DT_DIGITA = 2.0150324E7: 10 (0.0)
|   |   |   |   |   |   |   DT_DIGITA = 02/11/2015: 10 (0.0)
|   |   |   |   |   |   |   DT_DIGITA = 2.0150317E7: 10 (0.0)
|   |   |   |   |   |   |   DT_DIGITA = 2.0150313E7: 10 (0.0)
|   |   |   |   |   |   |   DT_DIGITA = 03/01/2015: 10 (0.0)
|   |   |   |   |   |   |   DT_DIGITA = 01/12/2015: 10 (0.0)
|   |   |   |   |   |   |   DT_DIGITA = 2.0150316E7: 10 (0.0)
|   |   |   |   |   |   |   DT_DIGITA = 2.0150315E7: 10 (0.0)
|   |   |   |   |   |   |   DT_DIGITA = 03/10/2015: 10 (0.0)
|   |   |   |   |   |   |   DT_DIGITA = 2.0150218E7: 10 (0.0)
|   |   |   |   |   |   |   DT_DIGITA = 02/07/2015: 10 (0.0)
|   |   |   |   |   |   |   DT_DIGITA = 01/04/2015: 10 (0.0)
|   |   |   |   |   |   |   DT_DIGITA = 2.0150217E7: 10 (0.0)
|   |   |   |   |   |   |   DT_DIGITA = 03/08/2015: 10 (0.0)
|   |   |   |   |   |   |   DT_DIGITA = 2.0150424E7: 10 (0.0)
|   |   |   |   |   |   |   DT_DIGITA = 2.0150314E7: 10 (0.0)
|   |   |   |   |   |   |   DT_DIGITA = 04/04/2015: 10 (0.0)
|   |   |   |   |   |   |   DT_DIGITA = 04/10/2015: 10 (0.0)
|   |   |   |   |   |   |   DT_DIGITA = 2.0150415E7: 10 (0.0)
|   |   |   |   |   |   |   DT_DIGITA = 2.0150114E7: 10 (0.0)
|   |   |   |   |   |   |   DT_DIGITA = 01/06/2015: 10 (0.0)
|   |   |   |   |   |   |   DT_DIGITA = 2.0150427E7: 10 (0.0)
|   |   |   |   |   |   |   DT_DIGITA = 2.0150425E7: 10 (0.0)
|   |   |   |   |   |   |   DT_DIGITA = 2.0150428E7: 10 (0.0)
|   |   |   |   |   |   |   DT_DIGITA = 2.0150418E7: 10 (0.0)
|   |   |   |   |   |   |   DT_DIGITA = 04/01/2015: 10 (0.0)
|   |   |   |   |   |   |   DT_DIGITA = 2.0150417E7: 10 (0.0)
|   |   |   |   |   |   |   DT_DIGITA = 2.0150331E7: 10 (0.0)
|   |   |   |   |   |   |   DT_DIGITA = 2.0150419E7: 10 (0.0)
|   |   |   |   |   |   |   DT_DIGITA = 2.015033E7: 10 (0.0)
|   |   |   |   |   |   |   DT_DIGITA = 2.0150421E7: 10 (0.0)
|   |   |   |   |   |   |   DT_DIGITA = 04/08/2015: 10 (0.0)
|   |   |   |   |   |   |   DT_DIGITA = 04/02/2015: 10 (0.0)
|   |   |   |   |   |   |   DT_DIGITA = 2.0150323E7: 10 (0.0)
|   |   |   |   |   |   |   DT_DIGITA = 04/09/2015: 10 (0.0)
|   |   |   |   |   |   |   DT_DIGITA = 04/07/2015: 10 (0.0)
|   |   |   |   |   |   |   DT_DIGITA = 2.0150326E7: 10 (0.0)
|   |   |   |   |   |   |   DT_DIGITA = 2.015032E7: 10 (0.0)
|   |   |   |   |   |   |   DT_DIGITA = 2.0150322E7: 10 (0.0)
|   |   |   |   |   |   |   DT_DIGITA = 05/01/2015: 10 (0.0)
|   |   |   |   |   |   |   DT_DIGITA = 2.015043E7: 10 (0.0)
|   |   |   |   |   |   |   DT_DIGITA = 05/04/2015: 10 (0.0)
|   |   |   |   |   |   |   DT_DIGITA = 05/05/2015: 10 (0.0)
|   |   |   |   |   |   |   DT_DIGITA = 05/02/2015: 10 (0.0)
|   |   |   |   |   |   |   DT_DIGITA = 05/03/2015: 10 (0.0)
|   |   |   |   |   |   |   DT_DIGITA = 2.0150416E7: 10 (0.0)
|   |   |   |   |   |   |   DT_DIGITA = 2.0150423E7: 10 (0.0)
|   |   |   |   |   |   |   DT_DIGITA = 2.0150422E7: 10 (0.0)
|   |   |   |   |   |   |   DT_DIGITA = 04/03/2015: 10 (0.0)
|   |   |   |   |   |   |   DT_DIGITA = 04/12/2015: 10 (0.0)
|   |   |   |   |   |   |   DT_DIGITA = 04/11/2015: 10 (0.0)
|   |   |   |   |   |   |   DT_DIGITA = 2.0150429E7: 10 (0.0)
|   |   |   |   |   |   |   DT_DIGITA = 2.0150328E7: 10 (0.0)
|   |   |   |   |   |   |   DT_DIGITA = 2.0150325E7: 10 (0.0)
|   |   |   |   |   |   |   DT_DIGITA = 04/05/2015: 10 (0.0)
|   |   |   |   |   |   |   DT_DIGITA = 2.0150327E7: 10 (0.0)
|   |   |   |   |   |   |   DT_DIGITA = 2.0150329E7: 10 (0.0)
|   |   |   |   |   |   |   DT_DIGITA = 2.0150321E7: 10 (0.0)
|   |   |   |   |   |   |   DT_DIGITA = 2.0150426E7: 10 (0.0)
|   |   |   |   |   |   DT_ENCERRA = 06/06/2015: 10 (4.36/1.11)
|   |   |   |   |   |   DT_ENCERRA = 06/05/2015: 10 (2.34)
|   |   |   |   |   |   DT_ENCERRA = 2.0150617E7
|   |   |   |   |   |   |   ID_UNIDADE <= 2516691: 10 (9.11/2.0)
|   |   |   |   |   |   |   ID_UNIDADE > 2516691
|   |   |   |   |   |   |   |   NU_NOTIFIC <= 37922: 5 (46.38/0.98)
|   |   |   |   |   |   |   |   NU_NOTIFIC > 37922: 10 (2.34)
|   |   |   |   |   |   DT_ENCERRA = 06/02/2015
|   |   |   |   |   |   |   MES_SIN_PR <= 4
|   |   |   |   |   |   |   |   NU_NOTIFIC <= 26214: 10 (2.0)
|   |   |   |   |   |   |   |   NU_NOTIFIC > 26214: 5 (9.0)
|   |   |   |   |   |   |   MES_SIN_PR > 4: 10 (2.68/0.23)
|   |   |   |   |   |   DT_ENCERRA = 2.0150522E7: 10 (3.86/0.11)
|   |   |   |   |   |   DT_ENCERRA = 2.0150528E7: 5 (8.66/2.53)
|   |   |   |   |   |   DT_ENCERRA = 2.0150525E7: 10 (5.52/0.23)
|   |   |   |   |   |   DT_ENCERRA = 06/10/2015
|   |   |   |   |   |   |   DT_DIGITA = 06/09/2015: 5 (0.0)
|   |   |   |   |   |   |   DT_DIGITA = 06/12/2015: 5 (0.0)
|   |   |   |   |   |   |   DT_DIGITA = 2.0150613E7: 5 (0.0)
|   |   |   |   |   |   |   DT_DIGITA = 2.0150615E7: 5 (0.0)
|   |   |   |   |   |   |   DT_DIGITA = 06/10/2015: 10 (8.36)
|   |   |   |   |   |   |   DT_DIGITA = 2.0150616E7: 5 (0.0)
|   |   |   |   |   |   |   DT_DIGITA = 06/08/2015: 10 (0.1)
|   |   |   |   |   |   |   DT_DIGITA = 2.0150618E7: 5 (0.0)
|   |   |   |   |   |   |   DT_DIGITA = 06/11/2015: 5 (9.9/4.45)
|   |   |   |   |   |   |   DT_DIGITA = 2.0150319E7: 5 (0.0)
|   |   |   |   |   |   |   DT_DIGITA = 06/05/2015: 10 (0.1)
|   |   |   |   |   |   |   DT_DIGITA = 2.015053E7: 5 (0.0)
|   |   |   |   |   |   |   DT_DIGITA = 2.0150526E7: 5 (32.68/8.23)
|   |   |   |   |   |   |   DT_DIGITA = 06/04/2015: 5 (0.0)
|   |   |   |   |   |   |   DT_DIGITA = 06/02/2015: 5 (0.0)
|   |   |   |   |   |   |   DT_DIGITA = 06/07/2015: 5 (0.0)
|   |   |   |   |   |   |   DT_DIGITA = 06/06/2015: 5 (0.0)
|   |   |   |   |   |   |   DT_DIGITA = 2.0150531E7: 5 (0.0)
|   |   |   |   |   |   |   DT_DIGITA = 06/03/2015: 10 (0.88/0.39)
|   |   |   |   |   |   |   DT_DIGITA = 2.0150527E7: 5 (0.2/0.1)
|   |   |   |   |   |   |   DT_DIGITA = 2.0150617E7: 5 (0.0)
|   |   |   |   |   |   |   DT_DIGITA = 06/01/2015: 5 (0.0)
|   |   |   |   |   |   |   DT_DIGITA = 2.0150528E7: 5 (0.0)
|   |   |   |   |   |   |   DT_DIGITA = 2.0150529E7: 5 (0.0)
|   |   |   |   |   |   |   DT_DIGITA = 05/07/2015: 5 (0.0)
|   |   |   |   |   |   |   DT_DIGITA = 2.0150514E7: 5 (0.11)
|   |   |   |   |   |   |   DT_DIGITA = 2.0150525E7: 5 (0.0)
|   |   |   |   |   |   |   DT_DIGITA = 2.0150522E7: 5 (14.23/1.0)
|   |   |   |   |   |   |   DT_DIGITA = 2.0150521E7: 5 (5.33/1.21)
|   |   |   |   |   |   |   DT_DIGITA = 2.0150519E7: 5 (0.0)
|   |   |   |   |   |   |   DT_DIGITA = 2.0150524E7: 5 (0.0)
|   |   |   |   |   |   |   DT_DIGITA = 2.015052E7
|   |   |   |   |   |   |   |   SEM_PRI_NO <= 18
|   |   |   |   |   |   |   |   |   NU_NOTIFIC <= 37058: 5 (2.11/0.11)
|   |   |   |   |   |   |   |   |   NU_NOTIFIC > 37058: 10 (2.0)
|   |   |   |   |   |   |   |   SEM_PRI_NO > 18: 5 (7.32/0.11)
|   |   |   |   |   |   |   DT_DIGITA = 2.0150619E7: 5 (0.0)
|   |   |   |   |   |   |   DT_DIGITA = 2.0150614E7: 5 (0.0)
|   |   |   |   |   |   |   DT_DIGITA = 05/08/2015: 5 (0.0)
|   |   |   |   |   |   |   DT_DIGITA = 05/11/2015: 5 (0.0)
|   |   |   |   |   |   |   DT_DIGITA = 05/06/2015: 5 (0.0)
|   |   |   |   |   |   |   DT_DIGITA = 05/09/2015: 5 (0.0)
|   |   |   |   |   |   |   DT_DIGITA = 2.0150517E7: 5 (0.0)
|   |   |   |   |   |   |   DT_DIGITA = 2.0150523E7: 5 (0.0)
|   |   |   |   |   |   |   DT_DIGITA = 2.0150515E7: 5 (0.0)
|   |   |   |   |   |   |   DT_DIGITA = 05/10/2015: 5 (0.0)
|   |   |   |   |   |   |   DT_DIGITA = 05/12/2015: 5 (0.0)
|   |   |   |   |   |   |   DT_DIGITA = 2.0150513E7: 10 (0.1)
|   |   |   |   |   |   |   DT_DIGITA = 2.0150516E7: 5 (0.0)
|   |   |   |   |   |   |   DT_DIGITA = 2.0150518E7: 10 (0.1)
|   |   |   |   |   |   |   DT_DIGITA = 2.015042E7: 5 (0.0)
|   |   |   |   |   |   |   DT_DIGITA = 03/12/2015: 5 (0.0)
|   |   |   |   |   |   |   DT_DIGITA = 2.0150127E7: 5 (0.0)
|   |   |   |   |   |   |   DT_DIGITA = 04/06/2015: 5 (0.0)
|   |   |   |   |   |   |   DT_DIGITA = 2.0150414E7: 5 (0.0)
|   |   |   |   |   |   |   DT_DIGITA = 01/11/2015: 5 (0.0)
|   |   |   |   |   |   |   DT_DIGITA = 2.0150119E7: 5 (0.0)
|   |   |   |   |   |   |   DT_DIGITA = 02/02/2015: 5 (0.0)
|   |   |   |   |   |   |   DT_DIGITA = 03/04/2015: 5 (0.0)
|   |   |   |   |   |   |   DT_DIGITA = 03/06/2015: 5 (0.0)
|   |   |   |   |   |   |   DT_DIGITA = 2.0150128E7: 5 (0.0)
|   |   |   |   |   |   |   DT_DIGITA = 2.0150318E7: 5 (0.0)
|   |   |   |   |   |   |   DT_DIGITA = 2.0150116E7: 5 (0.0)
|   |   |   |   |   |   |   DT_DIGITA = 2.015012E7: 5 (0.0)
|   |   |   |   |   |   |   DT_DIGITA = 2.0150123E7: 5 (0.0)
|   |   |   |   |   |   |   DT_DIGITA = 2.0150122E7: 5 (0.0)
|   |   |   |   |   |   |   DT_DIGITA = 2.0150121E7: 5 (0.0)
|   |   |   |   |   |   |   DT_DIGITA = 2.0150215E7: 5 (0.0)
|   |   |   |   |   |   |   DT_DIGITA = 2.0150223E7: 5 (0.0)
|   |   |   |   |   |   |   DT_DIGITA = 2.0150224E7: 5 (0.0)
|   |   |   |   |   |   |   DT_DIGITA = 2.015022E7: 5 (0.0)
|   |   |   |   |   |   |   DT_DIGITA = 2.0150225E7: 5 (0.0)
|   |   |   |   |   |   |   DT_DIGITA = 2.0150115E7: 5 (0.0)
|   |   |   |   |   |   |   DT_DIGITA = 2.0150126E7: 5 (0.0)
|   |   |   |   |   |   |   DT_DIGITA = 2.0150213E7: 5 (0.0)
|   |   |   |   |   |   |   DT_DIGITA = 2.0150219E7: 5 (0.0)
|   |   |   |   |   |   |   DT_DIGITA = 2.0150226E7: 5 (0.0)
|   |   |   |   |   |   |   DT_DIGITA = 03/02/2015: 5 (0.0)
|   |   |   |   |   |   |   DT_DIGITA = 2.0150228E7: 5 (0.0)
|   |   |   |   |   |   |   DT_DIGITA = 2.0150227E7: 5 (0.0)
|   |   |   |   |   |   |   DT_DIGITA = 03/09/2015: 5 (0.0)
|   |   |   |   |   |   |   DT_DIGITA = 03/05/2015: 5 (0.0)
|   |   |   |   |   |   |   DT_DIGITA = 03/07/2015: 5 (0.0)
|   |   |   |   |   |   |   DT_DIGITA = 02/05/2015: 5 (0.0)
|   |   |   |   |   |   |   DT_DIGITA = 02/06/2015: 5 (0.0)
|   |   |   |   |   |   |   DT_DIGITA = 02/01/2015: 5 (0.0)
|   |   |   |   |   |   |   DT_DIGITA = 2.015013E7: 5 (0.0)
|   |   |   |   |   |   |   DT_DIGITA = 02/04/2015: 5 (0.0)
|   |   |   |   |   |   |   DT_DIGITA = 2.0150129E7: 5 (0.0)
|   |   |   |   |   |   |   DT_DIGITA = 01/05/2015: 5 (0.0)
|   |   |   |   |   |   |   DT_DIGITA = 01/07/2015: 5 (0.0)
|   |   |   |   |   |   |   DT_DIGITA = 01/09/2015: 5 (0.0)
|   |   |   |   |   |   |   DT_DIGITA = 02/09/2015: 5 (0.0)
|   |   |   |   |   |   |   DT_DIGITA = 2.0150125E7: 5 (0.0)
|   |   |   |   |   |   |   DT_DIGITA = 2.0150117E7: 5 (0.0)
|   |   |   |   |   |   |   DT_DIGITA = 03/03/2015: 5 (0.0)
|   |   |   |   |   |   |   DT_DIGITA = 2.0150216E7: 5 (0.0)
|   |   |   |   |   |   |   DT_DIGITA = 01/08/2015: 5 (0.0)
|   |   |   |   |   |   |   DT_DIGITA = 02/10/2015: 5 (0.0)
|   |   |   |   |   |   |   DT_DIGITA = 02/03/2015: 5 (0.0)
|   |   |   |   |   |   |   DT_DIGITA = 02/12/2015: 5 (0.0)
|   |   |   |   |   |   |   DT_DIGITA = 03/11/2015: 5 (0.0)
|   |   |   |   |   |   |   DT_DIGITA = 2.0150113E7: 5 (0.0)
|   |   |   |   |   |   |   DT_DIGITA = 2.0150324E7: 5 (0.0)
|   |   |   |   |   |   |   DT_DIGITA = 02/11/2015: 5 (0.0)
|   |   |   |   |   |   |   DT_DIGITA = 2.0150317E7: 5 (0.0)
|   |   |   |   |   |   |   DT_DIGITA = 2.0150313E7: 5 (0.0)
|   |   |   |   |   |   |   DT_DIGITA = 03/01/2015: 5 (0.0)
|   |   |   |   |   |   |   DT_DIGITA = 01/12/2015: 5 (0.0)
|   |   |   |   |   |   |   DT_DIGITA = 2.0150316E7: 5 (0.0)
|   |   |   |   |   |   |   DT_DIGITA = 2.0150315E7: 5 (0.0)
|   |   |   |   |   |   |   DT_DIGITA = 03/10/2015: 5 (0.0)
|   |   |   |   |   |   |   DT_DIGITA = 2.0150218E7: 5 (0.0)
|   |   |   |   |   |   |   DT_DIGITA = 02/07/2015: 5 (0.0)
|   |   |   |   |   |   |   DT_DIGITA = 01/04/2015: 5 (0.0)
|   |   |   |   |   |   |   DT_DIGITA = 2.0150217E7: 5 (0.0)
|   |   |   |   |   |   |   DT_DIGITA = 03/08/2015: 5 (0.0)
|   |   |   |   |   |   |   DT_DIGITA = 2.0150424E7: 5 (0.0)
|   |   |   |   |   |   |   DT_DIGITA = 2.0150314E7: 5 (0.0)
|   |   |   |   |   |   |   DT_DIGITA = 04/04/2015: 5 (0.0)
|   |   |   |   |   |   |   DT_DIGITA = 04/10/2015: 5 (0.0)
|   |   |   |   |   |   |   DT_DIGITA = 2.0150415E7: 5 (0.0)
|   |   |   |   |   |   |   DT_DIGITA = 2.0150114E7: 5 (0.0)
|   |   |   |   |   |   |   DT_DIGITA = 01/06/2015: 5 (0.0)
|   |   |   |   |   |   |   DT_DIGITA = 2.0150427E7: 5 (0.0)
|   |   |   |   |   |   |   DT_DIGITA = 2.0150425E7: 5 (0.0)
|   |   |   |   |   |   |   DT_DIGITA = 2.0150428E7: 5 (0.0)
|   |   |   |   |   |   |   DT_DIGITA = 2.0150418E7: 5 (0.0)
|   |   |   |   |   |   |   DT_DIGITA = 04/01/2015: 5 (0.0)
|   |   |   |   |   |   |   DT_DIGITA = 2.0150417E7: 5 (0.0)
|   |   |   |   |   |   |   DT_DIGITA = 2.0150331E7: 5 (0.0)
|   |   |   |   |   |   |   DT_DIGITA = 2.0150419E7: 5 (0.0)
|   |   |   |   |   |   |   DT_DIGITA = 2.015033E7: 5 (0.0)
|   |   |   |   |   |   |   DT_DIGITA = 2.0150421E7: 5 (0.0)
|   |   |   |   |   |   |   DT_DIGITA = 04/08/2015: 5 (0.0)
|   |   |   |   |   |   |   DT_DIGITA = 04/02/2015: 5 (0.0)
|   |   |   |   |   |   |   DT_DIGITA = 2.0150323E7: 5 (0.0)
|   |   |   |   |   |   |   DT_DIGITA = 04/09/2015: 5 (0.0)
|   |   |   |   |   |   |   DT_DIGITA = 04/07/2015: 5 (0.0)
|   |   |   |   |   |   |   DT_DIGITA = 2.0150326E7: 5 (0.0)
|   |   |   |   |   |   |   DT_DIGITA = 2.015032E7: 5 (0.0)
|   |   |   |   |   |   |   DT_DIGITA = 2.0150322E7: 5 (0.0)
|   |   |   |   |   |   |   DT_DIGITA = 05/01/2015: 5 (0.0)
|   |   |   |   |   |   |   DT_DIGITA = 2.015043E7: 5 (0.0)
|   |   |   |   |   |   |   DT_DIGITA = 05/04/2015: 5 (0.0)
|   |   |   |   |   |   |   DT_DIGITA = 05/05/2015: 5 (0.0)
|   |   |   |   |   |   |   DT_DIGITA = 05/02/2015: 5 (0.0)
|   |   |   |   |   |   |   DT_DIGITA = 05/03/2015: 5 (0.0)
|   |   |   |   |   |   |   DT_DIGITA = 2.0150416E7: 5 (0.0)
|   |   |   |   |   |   |   DT_DIGITA = 2.0150423E7: 5 (0.0)
|   |   |   |   |   |   |   DT_DIGITA = 2.0150422E7: 5 (0.0)
|   |   |   |   |   |   |   DT_DIGITA = 04/03/2015: 5 (0.0)
|   |   |   |   |   |   |   DT_DIGITA = 04/12/2015: 5 (0.0)
|   |   |   |   |   |   |   DT_DIGITA = 04/11/2015: 5 (0.0)
|   |   |   |   |   |   |   DT_DIGITA = 2.0150429E7: 5 (0.0)
|   |   |   |   |   |   |   DT_DIGITA = 2.0150328E7: 5 (0.0)
|   |   |   |   |   |   |   DT_DIGITA = 2.0150325E7: 5 (0.0)
|   |   |   |   |   |   |   DT_DIGITA = 04/05/2015: 5 (0.0)
|   |   |   |   |   |   |   DT_DIGITA = 2.0150327E7: 5 (0.0)
|   |   |   |   |   |   |   DT_DIGITA = 2.0150329E7: 5 (0.0)
|   |   |   |   |   |   |   DT_DIGITA = 2.0150321E7: 5 (0.0)
|   |   |   |   |   |   |   DT_DIGITA = 2.0150426E7: 5 (0.0)
|   |   |   |   |   |   DT_ENCERRA = 2.015053E7: 5 (7.34/1.23)
|   |   |   |   |   |   DT_ENCERRA = 2.0150527E7: 5 (20.58/6.57)
|   |   |   |   |   |   DT_ENCERRA = 06/03/2015: 10 (4.32)
|   |   |   |   |   |   DT_ENCERRA = 2.0150521E7: 10 (5.32)
|   |   |   |   |   |   DT_ENCERRA = 06/07/2015: 10 (2.34)
|   |   |   |   |   |   DT_ENCERRA = 2.0150424E7: 5 (0.0)
|   |   |   |   |   |   DT_ENCERRA = 2.0150613E7
|   |   |   |   |   |   |   ID_UNIDADE <= 7103255
|   |   |   |   |   |   |   |   SEM_PRI_NO <= 18: 10 (11.23/3.23)
|   |   |   |   |   |   |   |   SEM_PRI_NO > 18: 5 (4.11)
|   |   |   |   |   |   |   ID_UNIDADE > 7103255: 5 (11.0)
|   |   |   |   |   |   DT_ENCERRA = 2.0150614E7
|   |   |   |   |   |   |   DT_DIGITA = 06/09/2015: 10 (0.0)
|   |   |   |   |   |   |   DT_DIGITA = 06/12/2015: 10 (0.0)
|   |   |   |   |   |   |   DT_DIGITA = 2.0150613E7: 10 (0.0)
|   |   |   |   |   |   |   DT_DIGITA = 2.0150615E7: 10 (0.0)
|   |   |   |   |   |   |   DT_DIGITA = 06/10/2015: 10 (0.0)
|   |   |   |   |   |   |   DT_DIGITA = 2.0150616E7: 10 (0.0)
|   |   |   |   |   |   |   DT_DIGITA = 06/08/2015: 10 (0.0)
|   |   |   |   |   |   |   DT_DIGITA = 2.0150618E7: 10 (0.0)
|   |   |   |   |   |   |   DT_DIGITA = 06/11/2015: 10 (0.0)
|   |   |   |   |   |   |   DT_DIGITA = 2.0150319E7: 10 (0.0)
|   |   |   |   |   |   |   DT_DIGITA = 06/05/2015: 10 (0.0)
|   |   |   |   |   |   |   DT_DIGITA = 2.015053E7: 10 (0.0)
|   |   |   |   |   |   |   DT_DIGITA = 2.0150526E7: 8 (0.06)
|   |   |   |   |   |   |   DT_DIGITA = 06/04/2015: 10 (0.0)
|   |   |   |   |   |   |   DT_DIGITA = 06/02/2015: 10 (0.0)
|   |   |   |   |   |   |   DT_DIGITA = 06/07/2015: 10 (0.0)
|   |   |   |   |   |   |   DT_DIGITA = 06/06/2015: 10 (0.0)
|   |   |   |   |   |   |   DT_DIGITA = 2.0150531E7: 10 (0.0)
|   |   |   |   |   |   |   DT_DIGITA = 06/03/2015: 10 (0.0)
|   |   |   |   |   |   |   DT_DIGITA = 2.0150527E7: 10 (0.0)
|   |   |   |   |   |   |   DT_DIGITA = 2.0150617E7: 10 (0.0)
|   |   |   |   |   |   |   DT_DIGITA = 06/01/2015: 10 (0.0)
|   |   |   |   |   |   |   DT_DIGITA = 2.0150528E7: 10 (0.0)
|   |   |   |   |   |   |   DT_DIGITA = 2.0150529E7: 10 (0.0)
|   |   |   |   |   |   |   DT_DIGITA = 05/07/2015: 10 (0.0)
|   |   |   |   |   |   |   DT_DIGITA = 2.0150514E7: 10 (0.0)
|   |   |   |   |   |   |   DT_DIGITA = 2.0150525E7: 10 (0.0)
|   |   |   |   |   |   |   DT_DIGITA = 2.0150522E7: 10 (0.0)
|   |   |   |   |   |   |   DT_DIGITA = 2.0150521E7: 10 (0.0)
|   |   |   |   |   |   |   DT_DIGITA = 2.0150519E7: 10 (2.0)
|   |   |   |   |   |   |   DT_DIGITA = 2.0150524E7: 10 (0.0)
|   |   |   |   |   |   |   DT_DIGITA = 2.015052E7: 10 (0.0)
|   |   |   |   |   |   |   DT_DIGITA = 2.0150619E7: 10 (0.0)
|   |   |   |   |   |   |   DT_DIGITA = 2.0150614E7: 10 (0.0)
|   |   |   |   |   |   |   DT_DIGITA = 05/08/2015: 10 (0.0)
|   |   |   |   |   |   |   DT_DIGITA = 05/11/2015: 10 (0.0)
|   |   |   |   |   |   |   DT_DIGITA = 05/06/2015: 10 (0.0)
|   |   |   |   |   |   |   DT_DIGITA = 05/09/2015: 10 (0.0)
|   |   |   |   |   |   |   DT_DIGITA = 2.0150517E7: 10 (0.0)
|   |   |   |   |   |   |   DT_DIGITA = 2.0150523E7: 10 (0.0)
|   |   |   |   |   |   |   DT_DIGITA = 2.0150515E7: 10 (0.0)
|   |   |   |   |   |   |   DT_DIGITA = 05/10/2015: 10 (0.0)
|   |   |   |   |   |   |   DT_DIGITA = 05/12/2015: 10 (0.0)
|   |   |   |   |   |   |   DT_DIGITA = 2.0150513E7: 10 (0.0)
|   |   |   |   |   |   |   DT_DIGITA = 2.0150516E7: 10 (0.0)
|   |   |   |   |   |   |   DT_DIGITA = 2.0150518E7: 5 (2.11/0.11)
|   |   |   |   |   |   |   DT_DIGITA = 2.015042E7: 10 (0.0)
|   |   |   |   |   |   |   DT_DIGITA = 03/12/2015: 10 (0.0)
|   |   |   |   |   |   |   DT_DIGITA = 2.0150127E7: 10 (0.0)
|   |   |   |   |   |   |   DT_DIGITA = 04/06/2015: 10 (0.0)
|   |   |   |   |   |   |   DT_DIGITA = 2.0150414E7: 10 (0.0)
|   |   |   |   |   |   |   DT_DIGITA = 01/11/2015: 10 (0.0)
|   |   |   |   |   |   |   DT_DIGITA = 2.0150119E7: 10 (0.0)
|   |   |   |   |   |   |   DT_DIGITA = 02/02/2015: 10 (0.0)
|   |   |   |   |   |   |   DT_DIGITA = 03/04/2015: 10 (0.0)
|   |   |   |   |   |   |   DT_DIGITA = 03/06/2015: 10 (0.0)
|   |   |   |   |   |   |   DT_DIGITA = 2.0150128E7: 10 (0.0)
|   |   |   |   |   |   |   DT_DIGITA = 2.0150318E7: 10 (0.0)
|   |   |   |   |   |   |   DT_DIGITA = 2.0150116E7: 10 (0.0)
|   |   |   |   |   |   |   DT_DIGITA = 2.015012E7: 10 (0.0)
|   |   |   |   |   |   |   DT_DIGITA = 2.0150123E7: 10 (0.0)
|   |   |   |   |   |   |   DT_DIGITA = 2.0150122E7: 10 (0.0)
|   |   |   |   |   |   |   DT_DIGITA = 2.0150121E7: 10 (0.0)
|   |   |   |   |   |   |   DT_DIGITA = 2.0150215E7: 10 (0.0)
|   |   |   |   |   |   |   DT_DIGITA = 2.0150223E7: 10 (0.0)
|   |   |   |   |   |   |   DT_DIGITA = 2.0150224E7: 10 (0.0)
|   |   |   |   |   |   |   DT_DIGITA = 2.015022E7: 10 (0.0)
|   |   |   |   |   |   |   DT_DIGITA = 2.0150225E7: 10 (0.0)
|   |   |   |   |   |   |   DT_DIGITA = 2.0150115E7: 10 (0.0)
|   |   |   |   |   |   |   DT_DIGITA = 2.0150126E7: 10 (0.0)
|   |   |   |   |   |   |   DT_DIGITA = 2.0150213E7: 10 (0.0)
|   |   |   |   |   |   |   DT_DIGITA = 2.0150219E7: 10 (0.0)
|   |   |   |   |   |   |   DT_DIGITA = 2.0150226E7: 10 (0.0)
|   |   |   |   |   |   |   DT_DIGITA = 03/02/2015: 10 (0.0)
|   |   |   |   |   |   |   DT_DIGITA = 2.0150228E7: 10 (0.0)
|   |   |   |   |   |   |   DT_DIGITA = 2.0150227E7: 10 (0.0)
|   |   |   |   |   |   |   DT_DIGITA = 03/09/2015: 10 (0.0)
|   |   |   |   |   |   |   DT_DIGITA = 03/05/2015: 10 (0.0)
|   |   |   |   |   |   |   DT_DIGITA = 03/07/2015: 10 (0.0)
|   |   |   |   |   |   |   DT_DIGITA = 02/05/2015: 10 (0.0)
|   |   |   |   |   |   |   DT_DIGITA = 02/06/2015: 10 (0.0)
|   |   |   |   |   |   |   DT_DIGITA = 02/01/2015: 10 (0.0)
|   |   |   |   |   |   |   DT_DIGITA = 2.015013E7: 10 (0.0)
|   |   |   |   |   |   |   DT_DIGITA = 02/04/2015: 10 (0.0)
|   |   |   |   |   |   |   DT_DIGITA = 2.0150129E7: 10 (0.0)
|   |   |   |   |   |   |   DT_DIGITA = 01/05/2015: 10 (0.0)
|   |   |   |   |   |   |   DT_DIGITA = 01/07/2015: 10 (0.0)
|   |   |   |   |   |   |   DT_DIGITA = 01/09/2015: 10 (0.0)
|   |   |   |   |   |   |   DT_DIGITA = 02/09/2015: 10 (0.0)
|   |   |   |   |   |   |   DT_DIGITA = 2.0150125E7: 10 (0.0)
|   |   |   |   |   |   |   DT_DIGITA = 2.0150117E7: 10 (0.0)
|   |   |   |   |   |   |   DT_DIGITA = 03/03/2015: 10 (0.0)
|   |   |   |   |   |   |   DT_DIGITA = 2.0150216E7: 10 (0.0)
|   |   |   |   |   |   |   DT_DIGITA = 01/08/2015: 10 (0.0)
|   |   |   |   |   |   |   DT_DIGITA = 02/10/2015: 10 (0.0)
|   |   |   |   |   |   |   DT_DIGITA = 02/03/2015: 10 (0.0)
|   |   |   |   |   |   |   DT_DIGITA = 02/12/2015: 10 (0.0)
|   |   |   |   |   |   |   DT_DIGITA = 03/11/2015: 10 (0.0)
|   |   |   |   |   |   |   DT_DIGITA = 2.0150113E7: 10 (0.0)
|   |   |   |   |   |   |   DT_DIGITA = 2.0150324E7: 10 (0.0)
|   |   |   |   |   |   |   DT_DIGITA = 02/11/2015: 10 (0.0)
|   |   |   |   |   |   |   DT_DIGITA = 2.0150317E7: 10 (0.0)
|   |   |   |   |   |   |   DT_DIGITA = 2.0150313E7: 10 (0.0)
|   |   |   |   |   |   |   DT_DIGITA = 03/01/2015: 10 (0.0)
|   |   |   |   |   |   |   DT_DIGITA = 01/12/2015: 10 (0.0)
|   |   |   |   |   |   |   DT_DIGITA = 2.0150316E7: 10 (0.0)
|   |   |   |   |   |   |   DT_DIGITA = 2.0150315E7: 10 (0.0)
|   |   |   |   |   |   |   DT_DIGITA = 03/10/2015: 10 (0.0)
|   |   |   |   |   |   |   DT_DIGITA = 2.0150218E7: 10 (0.0)
|   |   |   |   |   |   |   DT_DIGITA = 02/07/2015: 10 (0.0)
|   |   |   |   |   |   |   DT_DIGITA = 01/04/2015: 10 (0.0)
|   |   |   |   |   |   |   DT_DIGITA = 2.0150217E7: 10 (0.0)
|   |   |   |   |   |   |   DT_DIGITA = 03/08/2015: 10 (0.0)
|   |   |   |   |   |   |   DT_DIGITA = 2.0150424E7: 10 (0.0)
|   |   |   |   |   |   |   DT_DIGITA = 2.0150314E7: 10 (0.0)
|   |   |   |   |   |   |   DT_DIGITA = 04/04/2015: 10 (0.0)
|   |   |   |   |   |   |   DT_DIGITA = 04/10/2015: 10 (0.0)
|   |   |   |   |   |   |   DT_DIGITA = 2.0150415E7: 10 (0.0)
|   |   |   |   |   |   |   DT_DIGITA = 2.0150114E7: 10 (0.0)
|   |   |   |   |   |   |   DT_DIGITA = 01/06/2015: 10 (0.0)
|   |   |   |   |   |   |   DT_DIGITA = 2.0150427E7: 10 (0.0)
|   |   |   |   |   |   |   DT_DIGITA = 2.0150425E7: 10 (0.0)
|   |   |   |   |   |   |   DT_DIGITA = 2.0150428E7: 10 (0.0)
|   |   |   |   |   |   |   DT_DIGITA = 2.0150418E7: 10 (0.0)
|   |   |   |   |   |   |   DT_DIGITA = 04/01/2015: 10 (0.0)
|   |   |   |   |   |   |   DT_DIGITA = 2.0150417E7: 10 (0.0)
|   |   |   |   |   |   |   DT_DIGITA = 2.0150331E7: 10 (0.0)
|   |   |   |   |   |   |   DT_DIGITA = 2.0150419E7: 10 (0.0)
|   |   |   |   |   |   |   DT_DIGITA = 2.015033E7: 10 (0.0)
|   |   |   |   |   |   |   DT_DIGITA = 2.0150421E7: 10 (0.0)
|   |   |   |   |   |   |   DT_DIGITA = 04/08/2015: 10 (0.0)
|   |   |   |   |   |   |   DT_DIGITA = 04/02/2015: 10 (0.0)
|   |   |   |   |   |   |   DT_DIGITA = 2.0150323E7: 10 (0.0)
|   |   |   |   |   |   |   DT_DIGITA = 04/09/2015: 10 (0.0)
|   |   |   |   |   |   |   DT_DIGITA = 04/07/2015: 10 (0.0)
|   |   |   |   |   |   |   DT_DIGITA = 2.0150326E7: 10 (0.0)
|   |   |   |   |   |   |   DT_DIGITA = 2.015032E7: 10 (0.0)
|   |   |   |   |   |   |   DT_DIGITA = 2.0150322E7: 10 (0.0)
|   |   |   |   |   |   |   DT_DIGITA = 05/01/2015: 10 (0.0)
|   |   |   |   |   |   |   DT_DIGITA = 2.015043E7: 10 (0.0)
|   |   |   |   |   |   |   DT_DIGITA = 05/04/2015: 10 (0.0)
|   |   |   |   |   |   |   DT_DIGITA = 05/05/2015: 10 (0.0)
|   |   |   |   |   |   |   DT_DIGITA = 05/02/2015: 10 (0.0)
|   |   |   |   |   |   |   DT_DIGITA = 05/03/2015: 10 (0.0)
|   |   |   |   |   |   |   DT_DIGITA = 2.0150416E7: 10 (0.0)
|   |   |   |   |   |   |   DT_DIGITA = 2.0150423E7: 10 (0.0)
|   |   |   |   |   |   |   DT_DIGITA = 2.0150422E7: 10 (0.0)
|   |   |   |   |   |   |   DT_DIGITA = 04/03/2015: 10 (0.0)
|   |   |   |   |   |   |   DT_DIGITA = 04/12/2015: 10 (0.0)
|   |   |   |   |   |   |   DT_DIGITA = 04/11/2015: 10 (0.0)
|   |   |   |   |   |   |   DT_DIGITA = 2.0150429E7: 10 (0.0)
|   |   |   |   |   |   |   DT_DIGITA = 2.0150328E7: 10 (0.0)
|   |   |   |   |   |   |   DT_DIGITA = 2.0150325E7: 10 (0.0)
|   |   |   |   |   |   |   DT_DIGITA = 04/05/2015: 10 (0.0)
|   |   |   |   |   |   |   DT_DIGITA = 2.0150327E7: 10 (0.0)
|   |   |   |   |   |   |   DT_DIGITA = 2.0150329E7: 10 (0.0)
|   |   |   |   |   |   |   DT_DIGITA = 2.0150321E7: 10 (0.0)
|   |   |   |   |   |   |   DT_DIGITA = 2.0150426E7: 10 (0.0)
|   |   |   |   |   |   DT_ENCERRA = 05/08/2015: 10 (0.23)
|   |   |   |   |   |   DT_ENCERRA = 2.0150519E7
|   |   |   |   |   |   |   NU_IDADE_N <= 4034: 5 (7.23)
|   |   |   |   |   |   |   NU_IDADE_N > 4034: 10 (4.0)
|   |   |   |   |   |   DT_ENCERRA = 2.0150531E7: 10 (1.57)
|   |   |   |   |   |   DT_ENCERRA = 2.0150524E7: 10 (1.32)
|   |   |   |   |   |   DT_ENCERRA = 2.015052E7: 5 (3.23/1.11)
|   |   |   |   |   |   DT_ENCERRA = 2.0150429E7: 5 (0.0)
|   |   |   |   |   |   DT_ENCERRA = 2.0150422E7: 5 (0.11)
|   |   |   |   |   |   DT_ENCERRA = 05/11/2015: 5 (15.34/0.23)
|   |   |   |   |   |   DT_ENCERRA = 05/09/2015: 10 (1.11)
|   |   |   |   |   |   DT_ENCERRA = 05/06/2015
|   |   |   |   |   |   |   NU_IDADE_N <= 4042: 10 (5.0)
|   |   |   |   |   |   |   NU_IDADE_N > 4042: 5 (2.0)
|   |   |   |   |   |   DT_ENCERRA = 05/07/2015: 10 (3.0)
|   |   |   |   |   |   DT_ENCERRA = 2.0150416E7: 5 (0.0)
|   |   |   |   |   |   DT_ENCERRA = 05/05/2015: 5 (0.0)
|   |   |   |   |   |   DT_ENCERRA = 2.0150523E7: 10 (3.93/1.06)
|   |   |   |   |   |   DT_ENCERRA = 2.0150517E7: 10 (1.11)
|   |   |   |   |   |   DT_ENCERRA = 05/10/2015: 10 (0.34)
|   |   |   |   |   |   DT_ENCERRA = 2.0150514E7: 10 (4.34)
|   |   |   |   |   |   DT_ENCERRA = 2.0150513E7: 5 (2.11/0.11)
|   |   |   |   |   |   DT_ENCERRA = 2.0150415E7: 5 (0.0)
|   |   |   |   |   |   DT_ENCERRA = 2.0150323E7: 5 (0.0)
|   |   |   |   |   |   DT_ENCERRA = 2.0150428E7: 5 (0.23)
|   |   |   |   |   |   DT_ENCERRA = 2.015033E7: 5 (0.0)
|   |   |   |   |   |   DT_ENCERRA = 2.0150515E7: 10 (3.34/1.11)
|   |   |   |   |   |   DT_ENCERRA = 2.0150518E7: 10 (1.0)
|   |   |   |   |   |   DT_ENCERRA = 2.0150427E7: 5 (0.0)
|   |   |   |   |   |   DT_ENCERRA = 2.0150318E7: 5 (0.0)
|   |   |   |   |   |   DT_ENCERRA = 2.0150516E7: 5 (2.0)
|   |   |   |   |   |   DT_ENCERRA = 02/09/2015: 5 (0.0)
|   |   |   |   |   |   DT_ENCERRA = 2.0150326E7: 5 (0.0)
|   |   |   |   |   |   DT_ENCERRA = 05/02/2015: 5 (0.0)
|   |   |   |   |   |   DT_ENCERRA = 04/07/2015: 5 (0.0)
|   |   |   |   |   |   DT_ENCERRA = 04/08/2015: 5 (0.0)
|   |   |   |   |   |   DT_ENCERRA = 2.015043E7: 5 (0.0)
|   |   |   |   |   |   DT_ENCERRA = 01/11/2015: 5 (0.0)
|   |   |   |   |   |   DT_ENCERRA = 02/05/2015: 5 (0.0)
|   |   |   |   |   |   DT_ENCERRA = 2.0150225E7: 5 (0.0)
|   |   |   |   |   |   DT_ENCERRA = 2.0150224E7: 5 (0.0)
|   |   |   |   |   |   DT_ENCERRA = 2.0150325E7: 5 (0.0)
|   |   |   |   |   |   DT_ENCERRA = 2.0150128E7: 5 (0.0)
|   |   |   |   |   |   DT_ENCERRA = 03/09/2015: 5 (0.0)
|   |   |   |   |   |   DT_ENCERRA = 2.0150124E7: 5 (0.0)
|   |   |   |   |   |   DT_ENCERRA = 03/04/2015: 5 (0.0)
|   |   |   |   |   |   DT_ENCERRA = 03/05/2015: 5 (0.0)
|   |   |   |   |   |   DT_ENCERRA = 2.0150215E7: 5 (0.0)
|   |   |   |   |   |   DT_ENCERRA = 2.0150223E7: 5 (0.0)
|   |   |   |   |   |   DT_ENCERRA = 2.0150426E7: 5 (0.0)
|   |   |   |   |   |   DT_ENCERRA = 01/07/2015: 5 (0.0)
|   |   |   |   |   |   DT_ENCERRA = 03/06/2015: 5 (0.0)
|   |   |   |   |   |   DT_ENCERRA = 2.0150129E7: 5 (0.0)
|   |   |   |   |   |   DT_ENCERRA = 2.0150316E7: 5 (0.0)
|   |   |   |   |   |   DT_ENCERRA = 2.0150122E7: 5 (0.0)
|   |   |   |   |   |   DT_ENCERRA = 2.0150219E7: 5 (0.0)
|   |   |   |   |   |   DT_ENCERRA = 2.015012E7: 5 (0.0)
|   |   |   |   |   |   DT_ENCERRA = 2.0150119E7: 5 (0.0)
|   |   |   |   |   |   DT_ENCERRA = 2.0150126E7: 5 (0.0)
|   |   |   |   |   |   DT_ENCERRA = 2.0150317E7: 5 (0.0)
|   |   |   |   |   |   DT_ENCERRA = 02/02/2015: 5 (0.0)
|   |   |   |   |   |   DT_ENCERRA = 02/11/2015: 5 (0.0)
|   |   |   |   |   |   DT_ENCERRA = 2.0150423E7: 5 (0.0)
|   |   |   |   |   |   DT_ENCERRA = 2.015032E7: 5 (0.0)
|   |   |   |   |   |   DT_ENCERRA = 2.0150228E7: 5 (0.0)
|   |   |   |   |   |   DT_ENCERRA = 03/02/2015: 5 (0.0)
|   |   |   |   |   |   DT_ENCERRA = 2.0150313E7: 5 (0.0)
|   |   |   |   |   |   DT_ENCERRA = 2.0150227E7: 5 (0.0)
|   |   |   |   |   |   DT_ENCERRA = 02/04/2015: 5 (0.0)
|   |   |   |   |   |   DT_ENCERRA = 2.015013E7: 5 (0.0)
|   |   |   |   |   |   DT_ENCERRA = 01/12/2015: 5 (0.0)
|   |   |   |   |   |   DT_ENCERRA = 2.0150121E7: 5 (0.0)
|   |   |   |   |   |   DT_ENCERRA = 2.0150114E7: 5 (0.0)
|   |   |   |   |   |   DT_ENCERRA = 02/03/2015: 5 (0.0)
|   |   |   |   |   |   DT_ENCERRA = 2.015022E7: 5 (0.0)
|   |   |   |   |   |   DT_ENCERRA = 2.0150117E7: 5 (0.0)
|   |   |   |   |   |   DT_ENCERRA = 04/01/2015: 5 (0.0)
|   |   |   |   |   |   DT_ENCERRA = 2.0150213E7: 5 (0.0)
|   |   |   |   |   |   DT_ENCERRA = 03/01/2015: 5 (0.0)
|   |   |   |   |   |   DT_ENCERRA = 02/10/2015: 5 (0.0)
|   |   |   |   |   |   DT_ENCERRA = 02/06/2015: 5 (0.0)
|   |   |   |   |   |   DT_ENCERRA = 2.0150226E7: 5 (0.0)
|   |   |   |   |   |   DT_ENCERRA = 2.0150314E7: 5 (0.0)
|   |   |   |   |   |   DT_ENCERRA = 2.0150329E7: 5 (0.0)
|   |   |   |   |   |   DT_ENCERRA = 2.0150414E7: 5 (0.0)
|   |   |   |   |   |   DT_ENCERRA = 2.0150319E7: 5 (0.0)
|   |   |   |   |   |   DT_ENCERRA = 03/03/2015: 5 (0.0)
|   |   |   |   |   |   DT_ENCERRA = 04/09/2015: 5 (0.0)
|   |   |   |   |   |   DT_ENCERRA = 2.015042E7: 5 (0.0)
|   |   |   |   |   |   DT_ENCERRA = 03/12/2015: 5 (0.0)
|   |   |   |   |   |   DT_ENCERRA = 02/12/2015: 5 (0.0)
|   |   |   |   |   |   DT_ENCERRA = 04/02/2015: 5 (0.0)
|   |   |   |   |   |   DT_ENCERRA = 04/06/2015: 5 (0.0)
|   |   |   |   |   |   DT_ENCERRA = 01/09/2015: 5 (0.0)
|   |   |   |   |   |   DT_ENCERRA = 04/11/2015: 5 (1.0)
|   |   |   |   |   |   DT_ENCERRA = 2.0150331E7: 5 (0.0)
|   |   |   |   |   |   DT_ENCERRA = 2.0150327E7: 5 (0.0)
|   |   |   |   |   |   DT_ENCERRA = 2.0150418E7: 5 (0.0)
|   |   |   |   |   |   DT_ENCERRA = 03/11/2015: 5 (0.0)
|   |   |   |   |   |   DT_ENCERRA = 2.0150324E7: 5 (0.0)
|   |   |   |   |   |   DT_ENCERRA = 2.0150315E7: 5 (0.0)
|   |   |   |   |   |   DT_ENCERRA = 2.0150417E7: 5 (0.0)
|   |   |   |   |   |   DT_ENCERRA = 05/04/2015: 5 (0.0)
|   |   |   |   |   |   DT_ENCERRA = 03/10/2015: 5 (0.0)
|   |   |   |   |   |   DT_ENCERRA = 2.0150425E7: 5 (0.0)
|   |   |   |   |   |   DT_ENCERRA = 03/07/2015: 5 (0.0)
|   |   |   |   |   |   DT_ENCERRA = 2.0150116E7: 5 (0.0)
|   |   |   |   |   |   DT_ENCERRA = 2.0150115E7: 5 (0.0)
|   |   |   |   |   |   DT_ENCERRA = 2.0150322E7: 5 (0.0)
|   |   |   |   |   |   DT_ENCERRA = 2.0150328E7: 5 (0.0)
|   |   |   |   |   |   DT_ENCERRA = 2.0150123E7: 5 (0.0)
|   |   |   |   |   |   DT_ENCERRA = 01/08/2015: 5 (0.0)
|   |   |   |   |   |   DT_ENCERRA = 2.0150221E7: 5 (0.0)
|   |   |   |   |   |   DT_ENCERRA = 04/10/2015: 5 (0.0)
|   |   |   |   |   |   DT_ENCERRA = 2.0150321E7: 5 (0.0)
|   |   |   |   |   |   DT_ENCERRA = 01/06/2015: 5 (0.0)
|   |   |   |   |   |   DT_ENCERRA = 03/08/2015: 5 (0.0)
|   |   |   |   |   |   DT_ENCERRA = 2.0150413E7: 5 (0.0)
|   |   |   |   |   |   DT_ENCERRA = 2.0150216E7: 5 (0.0)
|   |   |   |   |   |   DT_ENCERRA = 04/03/2015: 5 (0.0)
|   |   |   |   |   |   DT_ENCERRA = 2.0150125E7: 5 (0.0)
|   |   |   |   |   |   DT_ENCERRA = 2.0150222E7: 5 (0.0)
|   |   |   |   |   |   DT_ENCERRA = 02/07/2015: 5 (0.0)
|   |   |   |   |   |   DT_ENCERRA = 05/01/2015: 5 (0.0)
|   |   |   |   |   |   DT_ENCERRA = 2.0150217E7: 5 (0.0)
|   |   |   |   |   |   DT_ENCERRA = 2.0150127E7: 5 (0.0)
|   |   |   |   |   |   DT_ENCERRA = 2.0150218E7: 5 (0.0)
|   |   |   |   |   |   DT_ENCERRA = 2.0150113E7: 5 (0.0)
|   |   |   |   |   |   DT_ENCERRA = 05/03/2015: 5 (0.0)
|   |   |   |   |   |   DT_ENCERRA = 2.0150419E7: 5 (0.0)
|   |   |   |   |   |   DT_ENCERRA = 2.0150421E7: 5 (0.0)
|   |   |   |   |   |   DT_ENCERRA = 04/12/2015: 5 (0.0)
|   |   |   |   |   |   DT_ENCERRA = 2.015062E7: 5 (0.0)
|   |   |   |   |   |   DT_ENCERRA = 2.0150619E7: 5 (0.0)
|   |   |   |   |   |   DT_ENCERRA = 04/04/2015: 5 (0.0)
|   |   |   |   |   |   DT_ENCERRA = 04/05/2015: 5 (0.0)
|   |   |   |   ID_DISTRIT > 179
|   |   |   |   |   ID_UNIDADE <= 7381158
|   |   |   |   |   |   ID_UNIDADE <= 7006810: 10 (1414.41/159.78)
|   |   |   |   |   |   ID_UNIDADE > 7006810
|   |   |   |   |   |   |   DT_ENCERRA = 06/09/2015: 5 (0.0)
|   |   |   |   |   |   |   DT_ENCERRA = 2.0150529E7: 5 (2.7/1.35)
|   |   |   |   |   |   |   DT_ENCERRA = 2.0150615E7: 5 (28.0/10.0)
|   |   |   |   |   |   |   DT_ENCERRA = 06/11/2015: 5 (45.36/19.96)
|   |   |   |   |   |   |   DT_ENCERRA = 06/08/2015: 5 (0.0)
|   |   |   |   |   |   |   DT_ENCERRA = 2.0150616E7: 10 (27.45/10.0)
|   |   |   |   |   |   |   DT_ENCERRA = 05/12/2015: 5 (0.9)
|   |   |   |   |   |   |   DT_ENCERRA = 2.0150618E7
|   |   |   |   |   |   |   |   NM_BAIRRO = FARIAS BRITO: 10 (0.0)
|   |   |   |   |   |   |   |   NM_BAIRRO = MESSEJANA: 10 (0.0)
|   |   |   |   |   |   |   |   NM_BAIRRO = CANINDEZINHO: 10 (0.0)
|   |   |   |   |   |   |   |   NM_BAIRRO = PRESIDENTE KENNEDY: 10 (0.0)
|   |   |   |   |   |   |   |   NM_BAIRRO = BARROSO: 10 (1.0)
|   |   |   |   |   |   |   |   NM_BAIRRO = CIDADE 2000: 10 (0.0)
|   |   |   |   |   |   |   |   NM_BAIRRO = PRAIA DO FUTURO I: 10 (0.0)
|   |   |   |   |   |   |   |   NM_BAIRRO = PASSARE
|   |   |   |   |   |   |   |   |   FX_NU_IDAD <= 6: 5 (3.0/1.0)
|   |   |   |   |   |   |   |   |   FX_NU_IDAD > 6: 10 (2.0)
|   |   |   |   |   |   |   |   NM_BAIRRO = MONTESE: 10 (0.0)
|   |   |   |   |   |   |   |   NM_BAIRRO = HENRIQUE JORGE: 10 (0.0)
|   |   |   |   |   |   |   |   NM_BAIRRO = CONJUNTO CEARA I: 10 (0.0)
|   |   |   |   |   |   |   |   NM_BAIRRO = BOM JARDIM: 10 (0.0)
|   |   |   |   |   |   |   |   NM_BAIRRO = JANGURUSSU: 5 (1.0)
|   |   |   |   |   |   |   |   NM_BAIRRO = BENFICA: 10 (0.0)
|   |   |   |   |   |   |   |   NM_BAIRRO = JARDIM IRACEMA: 10 (0.0)
|   |   |   |   |   |   |   |   NM_BAIRRO = LAGOA REDONDA: 10 (0.0)
|   |   |   |   |   |   |   |   NM_BAIRRO = CONJUNTO PALMEIRAS: 10 (0.0)
|   |   |   |   |   |   |   |   NM_BAIRRO = BOA VISTA: 10 (3.0)
|   |   |   |   |   |   |   |   NM_BAIRRO = PREFEITO JOSE WALTER: 10 (0.0)
|   |   |   |   |   |   |   |   NM_BAIRRO = PARQUE ARAXA: 10 (0.0)
|   |   |   |   |   |   |   |   NM_BAIRRO = PIRAMBU: 10 (0.0)
|   |   |   |   |   |   |   |   NM_BAIRRO = JOCKEY CLUBE: 10 (0.0)
|   |   |   |   |   |   |   |   NM_BAIRRO = AEROLANDIA: 10 (0.0)
|   |   |   |   |   |   |   |   NM_BAIRRO = JACARECANGA: 10 (0.0)
|   |   |   |   |   |   |   |   NM_BAIRRO = EDSON QUEIROZ: 10 (0.0)
|   |   |   |   |   |   |   |   NM_BAIRRO = BELA VISTA: 10 (0.0)
|   |   |   |   |   |   |   |   NM_BAIRRO = SERRINHA: 10 (0.0)
|   |   |   |   |   |   |   |   NM_BAIRRO = RODOLFO TEOFILO: 10 (0.0)
|   |   |   |   |   |   |   |   NM_BAIRRO = CAJAZEIRAS: 5 (2.0)
|   |   |   |   |   |   |   |   NM_BAIRRO = BOM SUCESSO: 10 (0.0)
|   |   |   |   |   |   |   |   NM_BAIRRO = PARANGABA: 10 (0.0)
|   |   |   |   |   |   |   |   NM_BAIRRO = CAIS DO PORTO: 10 (0.0)
|   |   |   |   |   |   |   |   NM_BAIRRO = ITAOCA: 10 (0.0)
|   |   |   |   |   |   |   |   NM_BAIRRO = ALDEOTA: 10 (0.0)
|   |   |   |   |   |   |   |   NM_BAIRRO = PARQUE SANTA ROSA: 10 (0.0)
|   |   |   |   |   |   |   |   NM_BAIRRO = VILA UNIAO: 10 (0.0)
|   |   |   |   |   |   |   |   NM_BAIRRO = ALTO DA BALANCA: 10 (0.0)
|   |   |   |   |   |   |   |   NM_BAIRRO = CENTRO: 10 (0.0)
|   |   |   |   |   |   |   |   NM_BAIRRO = PAPICU: 10 (0.0)
|   |   |   |   |   |   |   |   NM_BAIRRO = BARRA DO CEARA: 10 (0.0)
|   |   |   |   |   |   |   |   NM_BAIRRO = ANTONIO BEZERRA: 10 (0.0)
|   |   |   |   |   |   |   |   NM_BAIRRO = SAO JOAO DO TAUAPE: 10 (0.0)
|   |   |   |   |   |   |   |   NM_BAIRRO = JOAQUIM TAVORA: 10 (0.0)
|   |   |   |   |   |   |   |   NM_BAIRRO = OLAVO OLIVEIRA: 10 (0.0)
|   |   |   |   |   |   |   |   NM_BAIRRO = PRAIA DO MEIRELES: 10 (0.0)
|   |   |   |   |   |   |   |   NM_BAIRRO = MARAPONGA: 10 (0.0)
|   |   |   |   |   |   |   |   NM_BAIRRO = PLANALTO AYRTON SENNA: 10 (0.0)
|   |   |   |   |   |   |   |   NM_BAIRRO = FATIMA: 10 (0.0)
|   |   |   |   |   |   |   |   NM_BAIRRO = MONDUBIM: 10 (0.0)
|   |   |   |   |   |   |   |   NM_BAIRRO = VILA PERY: 10 (0.0)
|   |   |   |   |   |   |   |   NM_BAIRRO = JARDIM DAS OLIVEIRAS: 10 (0.0)
|   |   |   |   |   |   |   |   NM_BAIRRO = CIDADE NOVA: 10 (0.0)
|   |   |   |   |   |   |   |   NM_BAIRRO = QUINTINO CUNHA: 10 (0.0)
|   |   |   |   |   |   |   |   NM_BAIRRO = DIAS MACEDO: 10 (0.0)
|   |   |   |   |   |   |   |   NM_BAIRRO = GENIBAU: 10 (0.0)
|   |   |   |   |   |   |   |   NM_BAIRRO = PICI: 10 (0.0)
|   |   |   |   |   |   |   |   NM_BAIRRO = PARQUE SAO JOSE: 10 (0.0)
|   |   |   |   |   |   |   |   NM_BAIRRO = PAUPINA: 10 (0.0)
|   |   |   |   |   |   |   |   NM_BAIRRO = GRANJA LISBOA: 10 (0.0)
|   |   |   |   |   |   |   |   NM_BAIRRO = DAMAS: 10 (0.0)
|   |   |   |   |   |   |   |   NM_BAIRRO = SIQUEIRA: 10 (0.0)
|   |   |   |   |   |   |   |   NM_BAIRRO = VILA NOVA: 10 (0.0)
|   |   |   |   |   |   |   |   NM_BAIRRO = ITAPERY: 10 (0.0)
|   |   |   |   |   |   |   |   NM_BAIRRO = JOAO XXIII: 10 (0.0)
|   |   |   |   |   |   |   |   NM_BAIRRO = JARDIM AMERICA: 10 (0.0)
|   |   |   |   |   |   |   |   NM_BAIRRO = GRANJA PORTUGAL: 10 (0.0)
|   |   |   |   |   |   |   |   NM_BAIRRO = VICENTE PINZON: 10 (0.0)
|   |   |   |   |   |   |   |   NM_BAIRRO = CARLITO PAMPLONA: 10 (0.0)
|   |   |   |   |   |   |   |   NM_BAIRRO = VILA VELHA: 10 (0.0)
|   |   |   |   |   |   |   |   NM_BAIRRO = VILA MANOEL SATIRO: 10 (0.0)
|   |   |   |   |   |   |   |   NM_BAIRRO = MOURA BRASIL: 10 (0.0)
|   |   |   |   |   |   |   |   NM_BAIRRO = JOSE DE ALENCAR: 10 (0.0)
|   |   |   |   |   |   |   |   NM_BAIRRO = PARQUE PRESIDENTE VARGAS: 10 (0.0)
|   |   |   |   |   |   |   |   NM_BAIRRO = AMADEU FURTADO: 10 (0.0)
|   |   |   |   |   |   |   |   NM_BAIRRO = PARQUE SANTA MARIA: 5 (1.0)
|   |   |   |   |   |   |   |   NM_BAIRRO = MONTE CASTELO: 10 (0.0)
|   |   |   |   |   |   |   |   NM_BAIRRO = LUCIANO CAVALCANTE: 10 (0.0)
|   |   |   |   |   |   |   |   NM_BAIRRO = VARZEA ALEGRE: 10 (0.0)
|   |   |   |   |   |   |   |   NM_BAIRRO = CONJUNTO ESPERANCA: 10 (0.0)
|   |   |   |   |   |   |   |   NM_BAIRRO = SAPIRANGA COITE: 10 (0.0)
|   |   |   |   |   |   |   |   NM_BAIRRO = PARQUE DOIS IRMAOS: 10 (0.0)
|   |   |   |   |   |   |   |   NM_BAIRRO = BOM FUTURO: 10 (0.0)
|   |   |   |   |   |   |   |   NM_BAIRRO = NOVO MONDUBIM: 10 (0.0)
|   |   |   |   |   |   |   |   NM_BAIRRO = MUCURIPE: 10 (0.0)
|   |   |   |   |   |   |   |   NM_BAIRRO = DIONISIO TORRES: 10 (0.0)
|   |   |   |   |   |   |   |   NM_BAIRRO = CRISTO REDENTOR: 10 (0.0)
|   |   |   |   |   |   |   |   NM_BAIRRO = CIDADE DOS FUNCIONARIOS: 10 (0.0)
|   |   |   |   |   |   |   |   NM_BAIRRO = SAO VICENTE: 10 (0.0)
|   |   |   |   |   |   |   |   NM_BAIRRO = PAJUCARA: 10 (0.0)
|   |   |   |   |   |   |   |   NM_BAIRRO = FLORESTA: 10 (0.0)
|   |   |   |   |   |   |   |   NM_BAIRRO = BARROCAO: 10 (0.0)
|   |   |   |   |   |   |   |   NM_BAIRRO = PARQUELANDIA: 10 (0.0)
|   |   |   |   |   |   |   |   NM_BAIRRO = SIQUEIRA 2: 10 (0.0)
|   |   |   |   |   |   |   |   NM_BAIRRO = PARQUE POTIRA I: 10 (0.0)
|   |   |   |   |   |   |   |   NM_BAIRRO = SIQUEIRA 2 - BAIRRO: 10 (0.0)
|   |   |   |   |   |   |   |   NM_BAIRRO = CURIO: 10 (0.0)
|   |   |   |   |   |   |   |   NM_BAIRRO = VARJOTA: 10 (0.0)
|   |   |   |   |   |   |   |   NM_BAIRRO = SABIAGUABA: 10 (0.0)
|   |   |   |   |   |   |   |   NM_BAIRRO = JARDIM GUANABARA: 10 (0.0)
|   |   |   |   |   |   |   |   NM_BAIRRO = VILA ELLERY: 10 (0.0)
|   |   |   |   |   |   |   |   NM_BAIRRO = PARQUE SANTA FE: 10 (0.0)
|   |   |   |   |   |   |   |   NM_BAIRRO = PAN AMERICANO: 10 (0.0)
|   |   |   |   |   |   |   |   NM_BAIRRO = GUAGIRU: 10 (0.0)
|   |   |   |   |   |   |   |   NM_BAIRRO = ANCURI: 10 (0.0)
|   |   |   |   |   |   |   |   NM_BAIRRO = JATOB: 10 (0.0)
|   |   |   |   |   |   |   |   NM_BAIRRO = PAQUE JERUSALEM: 10 (0.0)
|   |   |   |   |   |   |   |   NM_BAIRRO = PEDRAS: 10 (0.0)
|   |   |   |   |   |   |   |   NM_BAIRRO = ALVARO WEINE: 10 (0.0)
|   |   |   |   |   |   |   |   NM_BAIRRO = CAMBEBA: 10 (0.0)
|   |   |   |   |   |   |   |   NM_BAIRRO = PORTO DAS DUNAS: 10 (0.0)
|   |   |   |   |   |   |   |   NM_BAIRRO = PRAINHA: 10 (0.0)
|   |   |   |   |   |   |   |   NM_BAIRRO = ALTO ALEGRE 1: 10 (0.0)
|   |   |   |   |   |   |   |   NM_BAIRRO = DEMOCRITO ROCHA: 10 (0.0)
|   |   |   |   |   |   |   |   NM_BAIRRO = TABUBA: 10 (0.0)
|   |   |   |   |   |   |   |   NM_BAIRRO = CONJUNTO JEREISSATI: 10 (0.0)
|   |   |   |   |   |   |   |   NM_BAIRRO = NOVO MONDOBIM: 10 (0.0)
|   |   |   |   |   |   |   |   NM_BAIRRO = JARDIM FLUMINESE: 10 (0.0)
|   |   |   |   |   |   |   |   NM_BAIRRO = TABAPUAZINHO: 10 (0.0)
|   |   |   |   |   |   |   |   NM_BAIRRO = COCO: 10 (0.0)
|   |   |   |   |   |   |   |   NM_BAIRRO = CATUANA: 10 (0.0)
|   |   |   |   |   |   |   |   NM_BAIRRO = CONJUNTO CEARA II: 10 (0.0)
|   |   |   |   |   |   |   |   NM_BAIRRO = JOSE BONIFACIO: 10 (0.0)
|   |   |   |   |   |   |   |   NM_BAIRRO = OTAVIO BOMFIM: 10 (0.0)
|   |   |   |   |   |   |   |   NM_BAIRRO = ALAGADICO SAO GERARDO: 10 (0.0)
|   |   |   |   |   |   |   |   NM_BAIRRO = ALVARO WEYNE: 10 (0.0)
|   |   |   |   |   |   |   |   NM_BAIRRO = ALTO ALEGRE II: 10 (0.0)
|   |   |   |   |   |   |   |   NM_BAIRRO = COACU: 10 (0.0)
|   |   |   |   |   |   |   |   NM_BAIRRO = AUTRAN NUNES: 10 (0.0)
|   |   |   |   |   |   |   |   NM_BAIRRO = ITAMBE: 10 (0.0)
|   |   |   |   |   |   |   |   NM_BAIRRO = CONJUNTO JEREISSATI II: 10 (0.0)
|   |   |   |   |   |   |   |   NM_BAIRRO = CONJUNTO HABITACIONAL NOVA METROPOLE: 10 (0.0)
|   |   |   |   |   |   |   |   NM_BAIRRO = FORTALEZA: 10 (0.0)
|   |   |   |   |   |   |   |   NM_BAIRRO = SERENO: 10 (0.0)
|   |   |   |   |   |   |   |   NM_BAIRRO = SAO MIGUEL: 10 (0.0)
|   |   |   |   |   |   |   |   NM_BAIRRO = PADRE ANDRADE: 10 (0.0)
|   |   |   |   |   |   |   |   NM_BAIRRO = MACHUCA: 10 (0.0)
|   |   |   |   |   |   |   |   NM_BAIRRO = MANUEL DIAS BRANCO: 10 (0.0)
|   |   |   |   |   |   |   |   NM_BAIRRO = PARQUE IRACEMA: 10 (0.0)
|   |   |   |   |   |   |   |   NM_BAIRRO = ALTO ALEGRE 2: 10 (0.0)
|   |   |   |   |   |   |   |   NM_BAIRRO = CONJUNTO HABITACIONAL ARATURI: 10 (0.0)
|   |   |   |   |   |   |   |   NM_BAIRRO = ARIANOPOLIS: 10 (0.0)
|   |   |   |   |   |   |   |   NM_BAIRRO = CONJUNTO VICENTE ARRUDA: 10 (0.0)
|   |   |   |   |   |   |   |   NM_BAIRRO = CONJUNTO ACARACUZINHO: 10 (0.0)
|   |   |   |   |   |   |   |   NM_BAIRRO = SALINAS: 10 (0.0)
|   |   |   |   |   |   |   |   NM_BAIRRO = PARQUE LE: 10 (0.0)
|   |   |   |   |   |   |   |   NM_BAIRRO = JARDIM UNIO: 10 (0.0)
|   |   |   |   |   |   |   |   NM_BAIRRO = ESPLANADA DO NOVO MONDUBIM: 10 (0.0)
|   |   |   |   |   |   |   |   NM_BAIRRO = MELANCIA: 10 (0.0)
|   |   |   |   |   |   |   |   NM_BAIRRO = ALTO ALEGRE I: 10 (0.0)
|   |   |   |   |   |   |   |   NM_BAIRRO = JANDAIGUABA GRANDE: 10 (0.0)
|   |   |   |   |   |   |   |   NM_BAIRRO = HAVAI: 10 (0.0)
|   |   |   |   |   |   |   |   NM_BAIRRO = JATOBA: 10 (0.0)
|   |   |   |   |   |   |   |   NM_BAIRRO = PEGA AVOANTE: 10 (0.0)
|   |   |   |   |   |   |   |   NM_BAIRRO = PARQUE SOLEDADE: 10 (0.0)
|   |   |   |   |   |   |   |   NM_BAIRRO = COUTO FERNANDES: 10 (0.0)
|   |   |   |   |   |   |   |   NM_BAIRRO = PAVUNA: 10 (0.0)
|   |   |   |   |   |   |   |   NM_BAIRRO = NOVO MARANGUAPE I: 10 (0.0)
|   |   |   |   |   |   |   |   NM_BAIRRO = CAPUAN: 10 (0.0)
|   |   |   |   |   |   |   |   NM_BAIRRO = CONJUNTO RESIDENCIAL METROPOLITANO: 10 (0.0)
|   |   |   |   |   |   |   |   NM_BAIRRO = PARQUE MANIBURA: 10 (0.0)
|   |   |   |   |   |   |   |   NM_BAIRRO = JARDIM FLUMINENCE 1: 10 (0.0)
|   |   |   |   |   |   |   |   NM_BAIRRO = PARQUE JARY: 10 (0.0)
|   |   |   |   |   |   |   |   NM_BAIRRO = NOVO MONDUMBIM: 10 (0.0)
|   |   |   |   |   |   |   |   NM_BAIRRO = PARQUE SANTO ANTONIO: 10 (0.0)
|   |   |   |   |   |   |   |   NM_BAIRRO = PORQUE SAO JOSE: 10 (0.0)
|   |   |   |   |   |   |   |   NM_BAIRRO = ARATURI: 10 (0.0)
|   |   |   |   |   |   |   |   NM_BAIRRO = CONJUNTO ESPERANCA 3 - BAIRRO: 10 (0.0)
|   |   |   |   |   |   |   |   NM_BAIRRO = PADRE JULIO MARIA: 10 (0.0)
|   |   |   |   |   |   |   |   NM_BAIRRO = CONJUNTO ESPERANA: 10 (0.0)
|   |   |   |   |   |   |   |   NM_BAIRRO = PIO XXII: 10 (0.0)
|   |   |   |   |   |   |   |   NM_BAIRRO = DOM LUSTOSA: 10 (0.0)
|   |   |   |   |   |   |   |   NM_BAIRRO = CONJUNTO ESPERANCA III - BAIRRO: 10 (0.0)
|   |   |   |   |   |   |   |   NM_BAIRRO = AEROPORTO: 10 (0.0)
|   |   |   |   |   |   |   |   NM_BAIRRO = PLANALTO VITIRIA: 10 (0.0)
|   |   |   |   |   |   |   |   NM_BAIRRO = JEREISSATI II: 10 (0.0)
|   |   |   |   |   |   |   |   NM_BAIRRO = TAPERA: 10 (0.0)
|   |   |   |   |   |   |   |   NM_BAIRRO = PRAIA DE IRACEMA: 10 (0.0)
|   |   |   |   |   |   |   |   NM_BAIRRO = SAO BENTO: 10 (0.0)
|   |   |   |   |   |   |   |   NM_BAIRRO = MARABA: 10 (0.0)
|   |   |   |   |   |   |   |   NM_BAIRRO = JARDIM CEARENSE: 10 (0.0)
|   |   |   |   |   |   |   |   NM_BAIRRO = AUTO ALEGRE 1: 10 (0.0)
|   |   |   |   |   |   |   |   NM_BAIRRO = GUARIBAS: 10 (0.0)
|   |   |   |   |   |   |   |   NM_BAIRRO = ACARACUZINHO: 10 (0.0)
|   |   |   |   |   |   |   |   NM_BAIRRO = PQ JERUSALEM: 10 (0.0)
|   |   |   |   |   |   |   |   NM_BAIRRO = PLANALTO CAUCAIA: 10 (0.0)
|   |   |   |   |   |   |   |   NM_BAIRRO = PRAIA DO FUTURO II: 10 (0.0)
|   |   |   |   |   |   |   |   NM_BAIRRO = NOVO MUNDUBIM: 10 (0.0)
|   |   |   |   |   |   |   |   NM_BAIRRO = NOVO MUNDUNBIM: 10 (0.0)
|   |   |   |   |   |   |   |   NM_BAIRRO = STO AMARO: 10 (0.0)
|   |   |   |   |   |   |   |   NM_BAIRRO = CONJ JOSE WALTER: 10 (0.0)
|   |   |   |   |   |   |   |   NM_BAIRRO = ACARACUSINHO: 10 (0.0)
|   |   |   |   |   |   |   |   NM_BAIRRO = CSBZ 01: 10 (0.0)
|   |   |   |   |   |   |   |   NM_BAIRRO = PARQUE JERUSALM: 10 (0.0)
|   |   |   |   |   |   |   |   NM_BAIRRO = GUARARAPES: 10 (0.0)
|   |   |   |   |   |   |   |   NM_BAIRRO = JOAO XIII: 10 (0.0)
|   |   |   |   |   |   |   |   NM_BAIRRO = CAUCAIA: 10 (0.0)
|   |   |   |   |   |   |   |   NM_BAIRRO = MARAVILHA: 10 (0.0)
|   |   |   |   |   |   |   |   NM_BAIRRO = GRILO: 10 (0.0)
|   |   |   |   |   |   |   |   NM_BAIRRO = AGUA FRIA: 10 (0.0)
|   |   |   |   |   |   |   |   NM_BAIRRO = CA: 10 (0.0)
|   |   |   |   |   |   |   |   NM_BAIRRO = SAO BENEDITO: 10 (0.0)
|   |   |   |   |   |   |   |   NM_BAIRRO = PRA: 10 (0.0)
|   |   |   |   |   |   |   |   NM_BAIRRO = ITAITINGA: 10 (0.0)
|   |   |   |   |   |   |   |   NM_BAIRRO = MAGABEIRA: 10 (0.0)
|   |   |   |   |   |   |   |   NM_BAIRRO = SANTO AMARO I: 10 (0.0)
|   |   |   |   |   |   |   |   NM_BAIRRO = PQ BOA VISTA: 10 (0.0)
|   |   |   |   |   |   |   |   NM_BAIRRO = PLANALTO PICI: 10 (0.0)
|   |   |   |   |   |   |   |   NM_BAIRRO = CONJUNTO INDUSTRIAL: 10 (0.0)
|   |   |   |   |   |   |   |   NM_BAIRRO = 8.587006891E9: 10 (0.0)
|   |   |   |   |   |   |   |   NM_BAIRRO = DIADEMA I: 10 (0.0)
|   |   |   |   |   |   |   |   NM_BAIRRO = OLHO DAGUA: 10 (0.0)
|   |   |   |   |   |   |   |   NM_BAIRRO = JOAO PAULO II: 10 (0.0)
|   |   |   |   |   |   |   |   NM_BAIRRO = PARQUE SO VICENTE: 10 (0.0)
|   |   |   |   |   |   |   |   NM_BAIRRO = SAO JOSE: 10 (0.0)
|   |   |   |   |   |   |   |   NM_BAIRRO = ICARAI: 10 (0.0)
|   |   |   |   |   |   |   |   NM_BAIRRO = GERERAU: 10 (0.0)
|   |   |   |   |   |   |   |   NM_BAIRRO = PANTANAL: 10 (0.0)
|   |   |   |   |   |   |   |   NM_BAIRRO = CONJUNTO SAO MIGUEL: 10 (0.0)
|   |   |   |   |   |   |   |   NM_BAIRRO = PARQUE DOIS IRMOS: 10 (0.0)
|   |   |   |   |   |   |   |   NM_BAIRRO = OITICICA: 10 (0.0)
|   |   |   |   |   |   |   |   NM_BAIRRO = MARECHAL RONDON: 10 (0.0)
|   |   |   |   |   |   |   |   NM_BAIRRO = PRAIA: 10 (0.0)
|   |   |   |   |   |   |   |   NM_BAIRRO = SALGADO: 10 (0.0)
|   |   |   |   |   |   |   |   NM_BAIRRO = PARQUE JERUZALEM: 10 (0.0)
|   |   |   |   |   |   |   |   NM_BAIRRO = ACARAPE: 10 (0.0)
|   |   |   |   |   |   |   |   NM_BAIRRO = PLANALTO DO PICI: 10 (0.0)
|   |   |   |   |   |   |   |   NM_BAIRRO = SANTA LUZIA: 10 (0.0)
|   |   |   |   |   |   |   |   NM_BAIRRO = RUA DAS CEREJEIRAS: 10 (0.0)
|   |   |   |   |   |   |   |   NM_BAIRRO = SERRARIA: 10 (0.0)
|   |   |   |   |   |   |   |   NM_BAIRRO = P: 10 (0.0)
|   |   |   |   |   |   |   |   NM_BAIRRO = LAGOA DO GENIPABU: 10 (0.0)
|   |   |   |   |   |   |   |   NM_BAIRRO = SANTA LUZIA - SITIO: 10 (0.0)
|   |   |   |   |   |   |   |   NM_BAIRRO = DENDE: 10 (0.0)
|   |   |   |   |   |   |   |   NM_BAIRRO = ASSENTAMENTO CHICO MENDES: 10 (0.0)
|   |   |   |   |   |   |   |   NM_BAIRRO = MARANGUAPE: 10 (0.0)
|   |   |   |   |   |   |   |   NM_BAIRRO = CONJUNTO TIMBO: 10 (0.0)
|   |   |   |   |   |   |   |   NM_BAIRRO = EUZEBIO: 10 (0.0)
|   |   |   |   |   |   |   |   NM_BAIRRO = PARQUE GUADALAJARA: 10 (0.0)
|   |   |   |   |   |   |   |   NM_BAIRRO = GIQUI (ACAMPAMENTO): 10 (0.0)
|   |   |   |   |   |   |   |   NM_BAIRRO = YCARAI: 10 (0.0)
|   |   |   |   |   |   |   |   NM_BAIRRO = PARQUE D. PEDRO: 10 (0.0)
|   |   |   |   |   |   |   |   NM_BAIRRO = DAS FLORES: 10 (0.0)
|   |   |   |   |   |   |   |   NM_BAIRRO = CONJUNTO NOVO ORIENTE: 10 (0.0)
|   |   |   |   |   |   |   |   NM_BAIRRO = CROATA I: 10 (0.0)
|   |   |   |   |   |   |   |   NM_BAIRRO = RECREACAO: 10 (0.0)
|   |   |   |   |   |   |   |   NM_BAIRRO = 180.0: 10 (0.0)
|   |   |   |   |   |   |   |   NM_BAIRRO = SITIO QUEIMADAS: 10 (0.0)
|   |   |   |   |   |   |   |   NM_BAIRRO = HORTO: 10 (0.0)
|   |   |   |   |   |   |   |   NM_BAIRRO = PORTEIRAS: 10 (0.0)
|   |   |   |   |   |   |   |   NM_BAIRRO = CAMARA: 10 (0.0)
|   |   |   |   |   |   |   |   NM_BAIRRO = URUBU DO ZE MARIA: 10 (0.0)
|   |   |   |   |   |   |   |   NM_BAIRRO = JARDIM BANDEIRANTE: 10 (0.0)
|   |   |   |   |   |   |   |   NM_BAIRRO = PENTECOSTE: 10 (0.0)
|   |   |   |   |   |   |   |   NM_BAIRRO = TAPUIO: 10 (0.0)
|   |   |   |   |   |   |   |   NM_BAIRRO = ZONA RURAL: 10 (0.0)
|   |   |   |   |   |   |   |   NM_BAIRRO = PARQUE LEBLON: 10 (0.0)
|   |   |   |   |   |   |   |   NM_BAIRRO = DUQUE DE CAXIAS: 10 (0.0)
|   |   |   |   |   |   |   |   NM_BAIRRO = INDETERMINADO: 10 (0.0)
|   |   |   |   |   |   |   |   NM_BAIRRO = IPARANA: 10 (0.0)
|   |   |   |   |   |   |   |   NM_BAIRRO = UMBURANAS: 10 (0.0)
|   |   |   |   |   |   |   |   NM_BAIRRO = PASSO MANSO: 10 (0.0)
|   |   |   |   |   |   |   |   NM_BAIRRO = BOM NOME: 10 (0.0)
|   |   |   |   |   |   |   |   NM_BAIRRO = COAU: 10 (0.0)
|   |   |   |   |   |   |   |   NM_BAIRRO = TIMBU: 10 (0.0)
|   |   |   |   |   |   |   |   NM_BAIRRO = PQ ALBANO: 10 (0.0)
|   |   |   |   |   |   |   |   NM_BAIRRO = SITIO BOM SUCESSO: 10 (0.0)
|   |   |   |   |   |   |   |   NM_BAIRRO = JABOTI: 10 (0.0)
|   |   |   |   |   |   |   |   NM_BAIRRO = LAGOA DO PABUSSU: 10 (0.0)
|   |   |   |   |   |   |   |   NM_BAIRRO = RAFAEL ARRUDA: 10 (0.0)
|   |   |   |   |   |   |   |   NM_BAIRRO = CACIMBA FUNDA: 10 (0.0)
|   |   |   |   |   |   |   |   NM_BAIRRO = MORRO BRANCO: 10 (0.0)
|   |   |   |   |   |   |   |   NM_BAIRRO = GOIABEIRAS: 10 (0.0)
|   |   |   |   |   |   |   |   NM_BAIRRO = PARQUE GENEZARE: 10 (0.0)
|   |   |   |   |   |   |   |   NM_BAIRRO = QUADRAS: 10 (0.0)
|   |   |   |   |   |   |   |   NM_BAIRRO = ESTRADA NOVA: 10 (0.0)
|   |   |   |   |   |   |   |   NM_BAIRRO = HORIZONTE: 10 (0.0)
|   |   |   |   |   |   |   |   NM_BAIRRO = PQ SANTA ROSA: 10 (0.0)
|   |   |   |   |   |   |   |   NM_BAIRRO = URUCUNEMA: 10 (0.0)
|   |   |   |   |   |   |   |   NM_BAIRRO = CANAVIEIRA: 10 (0.0)
|   |   |   |   |   |   |   |   NM_BAIRRO = OCUPACAO: 10 (0.0)
|   |   |   |   |   |   |   |   NM_BAIRRO = MESTRE ANTONIO: 10 (0.0)
|   |   |   |   |   |   |   |   NM_BAIRRO = CROATA II: 10 (0.0)
|   |   |   |   |   |   |   |   NM_BAIRRO = SAO COSMO: 10 (0.0)
|   |   |   |   |   |   |   |   NM_BAIRRO = NOVO PARQUE IRACEMA: 10 (0.0)
|   |   |   |   |   |   |   |   NM_BAIRRO = JARDIM DAS FLORES: 10 (0.0)
|   |   |   |   |   |   |   |   NM_BAIRRO = PATACAS: 10 (0.0)
|   |   |   |   |   |   |   |   NM_BAIRRO = PAJUSSARA: 10 (0.0)
|   |   |   |   |   |   |   |   NM_BAIRRO = SABIA DO DR PEDRO: 10 (0.0)
|   |   |   |   |   |   |   |   NM_BAIRRO = ENCANTADA: 10 (0.0)
|   |   |   |   |   |   |   |   NM_BAIRRO = PECEM: 10 (0.0)
|   |   |   |   |   |   |   |   NM_BAIRRO = JARDIM DO AMOR: 10 (0.0)
|   |   |   |   |   |   |   |   NM_BAIRRO = ALTAO ALEGRE 2: 10 (0.0)
|   |   |   |   |   |   |   |   NM_BAIRRO = PLANALTO  VITORIA: 10 (0.0)
|   |   |   |   |   |   |   |   NM_BAIRRO = LAGOA DO SAO JOAO: 10 (0.0)
|   |   |   |   |   |   |   |   NM_BAIRRO = CONJUNTO FLUMINENSE 2: 10 (0.0)
|   |   |   |   |   |   |   |   NM_BAIRRO = SO JOSE: 10 (0.0)
|   |   |   |   |   |   |   |   NM_BAIRRO = PICAPAU: 10 (0.0)
|   |   |   |   |   |   |   |   NM_BAIRRO = AQUIRAZ: 10 (0.0)
|   |   |   |   |   |   |   |   NM_BAIRRO = DUNAS: 10 (0.0)
|   |   |   |   |   |   |   |   NM_BAIRRO = GUADALAJARA: 10 (0.0)
|   |   |   |   |   |   |   |   NM_BAIRRO = CUMBUCO: 10 (0.0)
|   |   |   |   |   |   |   |   NM_BAIRRO = PRAI: 10 (0.0)
|   |   |   |   |   |   |   |   NM_BAIRRO = PARQUE SAO GERARDO: 10 (0.0)
|   |   |   |   |   |   |   |   NM_BAIRRO = NOVO MODUBIM: 10 (0.0)
|   |   |   |   |   |   |   |   NM_BAIRRO = VILA MANUEL SATIRO: 10 (0.0)
|   |   |   |   |   |   |   |   NM_BAIRRO = PARQUE SO JOSE: 10 (0.0)
|   |   |   |   |   |   |   |   NM_BAIRRO = CONJUNTO  ESPERANA: 10 (0.0)
|   |   |   |   |   |   |   |   NM_BAIRRO = BARRACAO: 10 (0.0)
|   |   |   |   |   |   |   |   NM_BAIRRO = JARDIM MONTE AZUL: 10 (0.0)
|   |   |   |   |   |   |   |   NM_BAIRRO = RURAL: 10 (0.0)
|   |   |   |   |   |   |   |   NM_BAIRRO = JERI: 10 (0.0)
|   |   |   |   |   |   |   |   NM_BAIRRO = RUA JOAO  MARIA: 10 (0.0)
|   |   |   |   |   |   |   |   NM_BAIRRO = R TABELIA LAFAYETE: 10 (0.0)
|   |   |   |   |   |   |   |   NM_BAIRRO = PARQUE SANTANA: 10 (0.0)
|   |   |   |   |   |   |   |   NM_BAIRRO = PADRE PAULO: 10 (0.0)
|   |   |   |   |   |   |   |   NM_BAIRRO = NOVA METROPOLE: 10 (0.0)
|   |   |   |   |   |   |   |   NM_BAIRRO = VILA SAO JOSE: 10 (0.0)
|   |   |   |   |   |   |   |   NM_BAIRRO = PE. JOSE MARIA: 10 (0.0)
|   |   |   |   |   |   |   |   NM_BAIRRO = ALAGADIO NOVO: 10 (0.0)
|   |   |   |   |   |   |   |   NM_BAIRRO = SAPIRANGA: 10 (0.0)
|   |   |   |   |   |   |   |   NM_BAIRRO = PRAQUE SANTA ROSA: 10 (0.0)
|   |   |   |   |   |   |   |   NM_BAIRRO = CANIDEZINHHO: 10 (0.0)
|   |   |   |   |   |   |   |   NM_BAIRRO = CONJ. RENASCER: 10 (0.0)
|   |   |   |   |   |   |   |   NM_BAIRRO = MUCUNA: 10 (0.0)
|   |   |   |   |   |   |   |   NM_BAIRRO = JARDIN FLUMINENSE: 10 (0.0)
|   |   |   |   |   |   |   |   NM_BAIRRO = JANGUR: 10 (0.0)
|   |   |   |   |   |   |   |   NM_BAIRRO = TANC: 10 (0.0)
|   |   |   |   |   |   |   |   NM_BAIRRO = CORREGO DA AREIA: 10 (0.0)
|   |   |   |   |   |   |   |   NM_BAIRRO = BONSUCESSO: 10 (0.0)
|   |   |   |   |   |   |   |   NM_BAIRRO = PARREAO: 10 (0.0)
|   |   |   |   |   |   |   |   NM_BAIRRO = DAMA: 10 (0.0)
|   |   |   |   |   |   |   |   NM_BAIRRO = CIDADE OESTE: 10 (0.0)
|   |   |   |   |   |   |   |   NM_BAIRRO = COABI: 10 (0.0)
|   |   |   |   |   |   |   |   NM_BAIRRO = VILA UNIO: 10 (0.0)
|   |   |   |   |   |   |   |   NM_BAIRRO = JARDIM FLUMINENSE 2: 10 (0.0)
|   |   |   |   |   |   |   |   NM_BAIRRO = BO: 10 (0.0)
|   |   |   |   |   |   |   |   NM_BAIRRO = LEBLON: 10 (0.0)
|   |   |   |   |   |   |   |   NM_BAIRRO = SITIO CORREGO: 10 (0.0)
|   |   |   |   |   |   |   |   NM_BAIRRO = SIQUEIRO: 10 (0.0)
|   |   |   |   |   |   |   |   NM_BAIRRO = MATA QUIRI: 10 (0.0)
|   |   |   |   |   |   |   |   NM_BAIRRO = PAEQUE RII BRANCO: 10 (0.0)
|   |   |   |   |   |   |   |   NM_BAIRRO = CONJUNTO FLUMINENCE II: 10 (0.0)
|   |   |   |   |   |   |   |   NM_BAIRRO = ALTO DA BALANA: 10 (0.0)
|   |   |   |   |   |   |   |   NM_BAIRRO = JOAO ARRUDA: 10 (0.0)
|   |   |   |   |   |   |   |   NM_BAIRRO = 312.0: 10 (0.0)
|   |   |   |   |   |   |   |   NM_BAIRRO = JARDIMFLUMINENCE: 10 (0.0)
|   |   |   |   |   |   |   |   NM_BAIRRO = MANOEL SATIRO: 10 (0.0)
|   |   |   |   |   |   |   |   NM_BAIRRO = R PE ASUNCIO GOGA: 10 (0.0)
|   |   |   |   |   |   |   |   NM_BAIRRO = JEREISSATE B: 10 (0.0)
|   |   |   |   |   |   |   |   NM_BAIRRO = PLANALTO COAU: 10 (0.0)
|   |   |   |   |   |   |   |   NM_BAIRRO = PARQUE HAVAI: 10 (0.0)
|   |   |   |   |   |   |   |   NM_BAIRRO = SITIO BOI MORTO: 10 (0.0)
|   |   |   |   |   |   |   |   NM_BAIRRO = CONJUNTO ARACAPE: 10 (0.0)
|   |   |   |   |   |   |   |   NM_BAIRRO = 139.0: 10 (0.0)
|   |   |   |   |   |   |   |   NM_BAIRRO = NOVA MADALENA: 10 (0.0)
|   |   |   |   |   |   |   |   NM_BAIRRO = IP: 10 (0.0)
|   |   |   |   |   |   |   |   NM_BAIRRO = LAGOA SECA: 10 (0.0)
|   |   |   |   |   |   |   |   NM_BAIRRO = PAU BRANCO I: 10 (0.0)
|   |   |   |   |   |   |   |   NM_BAIRRO = CONJUNTO COHAB: 10 (0.0)
|   |   |   |   |   |   |   |   NM_BAIRRO = CONJUNTO JEREISSATI I: 10 (0.0)
|   |   |   |   |   |   |   |   NM_BAIRRO = PARQUE POTIRA II: 10 (0.0)
|   |   |   |   |   |   |   |   NM_BAIRRO = PQ AILBANO: 10 (0.0)
|   |   |   |   |   |   |   |   NM_BAIRRO = COELCE: 10 (0.0)
|   |   |   |   |   |   |   |   NM_BAIRRO = TABULEIRO DO ALTO SAO JOAO: 10 (0.0)
|   |   |   |   |   |   |   |   NM_BAIRRO = CARNAUBA: 10 (0.0)
|   |   |   |   |   |   |   |   NM_BAIRRO = JARDIM FLUMINESCE: 10 (0.0)
|   |   |   |   |   |   |   |   NM_BAIRRO = SERROTAO: 10 (0.0)
|   |   |   |   |   |   |   |   NM_BAIRRO = BURITI: 10 (0.0)
|   |   |   |   |   |   |   |   NM_BAIRRO = JARDIM PRIMAVERA: 10 (0.0)
|   |   |   |   |   |   |   |   NM_BAIRRO = PALMIRIM: 10 (0.0)
|   |   |   |   |   |   |   |   NM_BAIRRO = RUA SAO BARBOSA: 10 (0.0)
|   |   |   |   |   |   |   |   NM_BAIRRO = BURACAO: 10 (0.0)
|   |   |   |   |   |   |   |   NM_BAIRRO = COACU DE CIMA: 10 (0.0)
|   |   |   |   |   |   |   |   NM_BAIRRO = PARQUE LEBLOM: 10 (0.0)
|   |   |   |   |   |   |   |   NM_BAIRRO = VICENTE PIZON: 10 (0.0)
|   |   |   |   |   |   |   |   NM_BAIRRO = PRECABURA: 10 (0.0)
|   |   |   |   |   |   |   |   NM_BAIRRO = EMBRATEL: 10 (0.0)
|   |   |   |   |   |   |   |   NM_BAIRRO = PACHECO: 10 (0.0)
|   |   |   |   |   |   |   |   NM_BAIRRO = CAPONGA: 10 (0.0)
|   |   |   |   |   |   |   |   NM_BAIRRO = PAR: 10 (0.0)
|   |   |   |   |   |   |   |   NM_BAIRRO = MATA FRESCA: 10 (0.0)
|   |   |   |   |   |   |   |   NM_BAIRRO = CORREGO DOS MATOES: 10 (0.0)
|   |   |   |   |   |   |   |   NM_BAIRRO = CONJ SAO CRISTOVAO: 10 (0.0)
|   |   |   |   |   |   |   |   NM_BAIRRO = SITIO NOVOS DE CIMA: 10 (0.0)
|   |   |   |   |   |   |   |   NM_BAIRRO = 178.0: 10 (0.0)
|   |   |   |   |   |   |   |   NM_BAIRRO = TIMBAUBA DO SEBASTIAO SALES: 10 (0.0)
|   |   |   |   |   |   |   |   NM_BAIRRO = RUCEGA: 10 (0.0)
|   |   |   |   |   |   |   |   NM_BAIRRO = RUA MARIO DE ANDRADE: 10 (0.0)
|   |   |   |   |   |   |   |   NM_BAIRRO = PICA PAU: 10 (0.0)
|   |   |   |   |   |   |   |   NM_BAIRRO = GENIPABUZINHO: 10 (0.0)
|   |   |   |   |   |   |   |   NM_BAIRRO = CAPISTRANO: 10 (0.0)
|   |   |   |   |   |   |   |   NM_BAIRRO = CROATA: 10 (0.0)
|   |   |   |   |   |   |   |   NM_BAIRRO = PLANALTO VOTORIA: 10 (0.0)
|   |   |   |   |   |   |   |   NM_BAIRRO = BOQUEIRAO: 10 (0.0)
|   |   |   |   |   |   |   |   NM_BAIRRO = PARQUE PORTIRA: 10 (0.0)
|   |   |   |   |   |   |   |   NM_BAIRRO = NOVO METROPOLE: 10 (0.0)
|   |   |   |   |   |   |   |   NM_BAIRRO = JUSSAVA: 10 (0.0)
|   |   |   |   |   |   |   |   NM_BAIRRO = AVENIDA F: 10 (0.0)
|   |   |   |   |   |   |   |   NM_BAIRRO = SANTO ANTONIO: 10 (0.0)
|   |   |   |   |   |   |   |   NM_BAIRRO = ARACAP: 10 (0.0)
|   |   |   |   |   |   |   |   NM_BAIRRO = ESPLANADA MONDUBIM: 10 (0.0)
|   |   |   |   |   |   |   |   NM_BAIRRO = CON: 10 (0.0)
|   |   |   |   |   |   |   |   NM_BAIRRO = ALTO: 10 (0.0)
|   |   |   |   |   |   |   |   NM_BAIRRO = PARQUE DAS NAES: 10 (0.0)
|   |   |   |   |   |   |   |   NM_BAIRRO = SITIO SERRA VERDE: 10 (0.0)
|   |   |   |   |   |   |   |   NM_BAIRRO = DR JOSE AIRTON MACHADO: 10 (0.0)
|   |   |   |   |   |   |   |   NM_BAIRRO = UMBAUBA: 10 (0.0)
|   |   |   |   |   |   |   |   NM_BAIRRO = CURICACAS: 10 (0.0)
|   |   |   |   |   |   |   |   NM_BAIRRO = MALEIROS: 10 (0.0)
|   |   |   |   |   |   |   |   NM_BAIRRO = ITAMARATI: 10 (0.0)
|   |   |   |   |   |   |   |   NM_BAIRRO = BOM JESUS: 10 (0.0)
|   |   |   |   |   |   |   |   NM_BAIRRO = PEDREGAL: 10 (0.0)
|   |   |   |   |   |   |   |   NM_BAIRRO = ZONA RUARAL: 10 (0.0)
|   |   |   |   |   |   |   |   NM_BAIRRO = LAGOA DO EXU: 10 (0.0)
|   |   |   |   |   |   |   |   NM_BAIRRO = AGRESTE - SITIO: 10 (0.0)
|   |   |   |   |   |   |   |   NM_BAIRRO = CARRAPICHO: 10 (0.0)
|   |   |   |   |   |   |   |   NM_BAIRRO = CAMERA: 10 (0.0)
|   |   |   |   |   |   |   |   NM_BAIRRO = CONJ ESPERANCA: 10 (0.0)
|   |   |   |   |   |   |   |   NM_BAIRRO = EUSEBIO: 10 (0.0)
|   |   |   |   |   |   |   |   NM_BAIRRO = IRATINGA: 10 (0.0)
|   |   |   |   |   |   |   |   NM_BAIRRO = NOVO HORIZONTE: 10 (0.0)
|   |   |   |   |   |   |   |   NM_BAIRRO = CONJ: 10 (0.0)
|   |   |   |   |   |   |   |   NM_BAIRRO = VILA CENTENARIA: 10 (0.0)
|   |   |   |   |   |   |   |   NM_BAIRRO = TAIBA DE BAIXO: 10 (0.0)
|   |   |   |   |   |   |   |   NM_BAIRRO = JACOBINA: 10 (0.0)
|   |   |   |   |   |   |   |   NM_BAIRRO = CORREGO SANTA TERESA: 10 (0.0)
|   |   |   |   |   |   |   |   NM_BAIRRO = TABUBA DA PRAIA: 10 (0.0)
|   |   |   |   |   |   |   |   NM_BAIRRO = PENEDO: 10 (0.0)
|   |   |   |   |   |   |   |   NM_BAIRRO = CASCAVEL CENTRO: 10 (0.0)
|   |   |   |   |   |   |   |   NM_BAIRRO = QUEIMADAS: 10 (0.0)
|   |   |   |   |   |   |   |   NM_BAIRRO = ESPLANADA DO MONDUBIM: 10 (0.0)
|   |   |   |   |   |   |   |   NM_BAIRRO = MONGUBA: 10 (0.0)
|   |   |   |   |   |   |   |   NM_BAIRRO = MONDEGO: 10 (0.0)
|   |   |   |   |   |   |   |   NM_BAIRRO = COITE PEDREIRAS: 10 (0.0)
|   |   |   |   |   |   |   |   NM_BAIRRO = TIMBAUBA DOS MARINHEIROS: 10 (0.0)
|   |   |   |   |   |   |   |   NM_BAIRRO = OUTRA BANDA: 10 (0.0)
|   |   |   |   |   |   |   |   NM_BAIRRO = R DR JOSE DIAS: 10 (0.0)
|   |   |   |   |   |   |   |   NM_BAIRRO = PADRE LIMA: 10 (0.0)
|   |   |   |   |   |   |   |   NM_BAIRRO = CACIMBA DO POO: 10 (0.0)
|   |   |   |   |   |   |   |   NM_BAIRRO = JUBAIA: 10 (0.0)
|   |   |   |   |   |   |   |   NM_BAIRRO = SANTA CARNAUBINHA: 10 (0.0)
|   |   |   |   |   |   |   |   NM_BAIRRO = TANQUES: 10 (0.0)
|   |   |   |   |   |   |   |   NM_BAIRRO = TANQUE SALGADO: 10 (0.0)
|   |   |   |   |   |   |   |   NM_BAIRRO = ENCOSTA DE CIMA: 10 (0.0)
|   |   |   |   |   |   |   |   NM_BAIRRO = PARQUE URUPE: 10 (0.0)
|   |   |   |   |   |   |   |   NM_BAIRRO = BREJO SANTO: 10 (0.0)
|   |   |   |   |   |   |   |   NM_BAIRRO = GARAPA I: 10 (0.0)
|   |   |   |   |   |   |   |   NM_BAIRRO = CAMBOAS: 10 (0.0)
|   |   |   |   |   |   |   |   NM_BAIRRO = JIBOIA: 10 (0.0)
|   |   |   |   |   |   |   |   NM_BAIRRO = SITIO CONTENDA: 10 (0.0)
|   |   |   |   |   |   |   |   NM_BAIRRO = CASCATINHA: 10 (0.0)
|   |   |   |   |   |   |   |   NM_BAIRRO = PREAOCA: 10 (0.0)
|   |   |   |   |   |   |   |   NM_BAIRRO = PARQUE PRESIDENTE: 10 (0.0)
|   |   |   |   |   |   |   |   NM_BAIRRO = BOM FIM: 10 (0.0)
|   |   |   |   |   |   |   |   NM_BAIRRO = PARQUE BOA VISTA: 10 (0.0)
|   |   |   |   |   |   |   |   NM_BAIRRO = RECANTO: 10 (0.0)
|   |   |   |   |   |   |   |   NM_BAIRRO = RUA CONDOMINIO CECILIA MEIRELES: 10 (0.0)
|   |   |   |   |   |   |   DT_ENCERRA = 2.0150526E7: 5 (3.06/0.87)
|   |   |   |   |   |   |   DT_ENCERRA = 06/04/2015: 5 (0.0)
|   |   |   |   |   |   |   DT_ENCERRA = 06/01/2015: 5 (0.0)
|   |   |   |   |   |   |   DT_ENCERRA = 06/12/2015: 5 (47.81/12.6)
|   |   |   |   |   |   |   DT_ENCERRA = 06/06/2015: 10 (1.0)
|   |   |   |   |   |   |   DT_ENCERRA = 06/05/2015: 5 (0.0)
|   |   |   |   |   |   |   DT_ENCERRA = 2.0150617E7: 5 (1.45)
|   |   |   |   |   |   |   DT_ENCERRA = 06/02/2015: 5 (0.0)
|   |   |   |   |   |   |   DT_ENCERRA = 2.0150522E7: 5 (0.0)
|   |   |   |   |   |   |   DT_ENCERRA = 2.0150528E7: 5 (0.45)
|   |   |   |   |   |   |   DT_ENCERRA = 2.0150525E7: 5 (0.0)
|   |   |   |   |   |   |   DT_ENCERRA = 06/10/2015
|   |   |   |   |   |   |   |   DT_DIGITA = 06/09/2015: 10 (0.0)
|   |   |   |   |   |   |   |   DT_DIGITA = 06/12/2015: 10 (0.0)
|   |   |   |   |   |   |   |   DT_DIGITA = 2.0150613E7: 10 (0.0)
|   |   |   |   |   |   |   |   DT_DIGITA = 2.0150615E7: 10 (0.0)
|   |   |   |   |   |   |   |   DT_DIGITA = 06/10/2015: 10 (0.0)
|   |   |   |   |   |   |   |   DT_DIGITA = 2.0150616E7: 10 (0.0)
|   |   |   |   |   |   |   |   DT_DIGITA = 06/08/2015: 10 (0.0)
|   |   |   |   |   |   |   |   DT_DIGITA = 2.0150618E7: 10 (0.0)
|   |   |   |   |   |   |   |   DT_DIGITA = 06/11/2015
|   |   |   |   |   |   |   |   |   FX_NU_IDAD <= 3: 5 (4.0)
|   |   |   |   |   |   |   |   |   FX_NU_IDAD > 3: 10 (23.6/5.8)
|   |   |   |   |   |   |   |   DT_DIGITA = 2.0150319E7: 10 (0.0)
|   |   |   |   |   |   |   |   DT_DIGITA = 06/05/2015: 10 (0.0)
|   |   |   |   |   |   |   |   DT_DIGITA = 2.015053E7: 10 (0.0)
|   |   |   |   |   |   |   |   DT_DIGITA = 2.0150526E7: 5 (2.7/0.9)
|   |   |   |   |   |   |   |   DT_DIGITA = 06/04/2015: 10 (0.0)
|   |   |   |   |   |   |   |   DT_DIGITA = 06/02/2015: 10 (0.0)
|   |   |   |   |   |   |   |   DT_DIGITA = 06/07/2015: 10 (0.0)
|   |   |   |   |   |   |   |   DT_DIGITA = 06/06/2015: 10 (0.0)
|   |   |   |   |   |   |   |   DT_DIGITA = 2.0150531E7: 10 (0.0)
|   |   |   |   |   |   |   |   DT_DIGITA = 06/03/2015: 10 (0.0)
|   |   |   |   |   |   |   |   DT_DIGITA = 2.0150527E7: 10 (0.0)
|   |   |   |   |   |   |   |   DT_DIGITA = 2.0150617E7: 10 (0.0)
|   |   |   |   |   |   |   |   DT_DIGITA = 06/01/2015: 10 (0.0)
|   |   |   |   |   |   |   |   DT_DIGITA = 2.0150528E7: 10 (0.0)
|   |   |   |   |   |   |   |   DT_DIGITA = 2.0150529E7: 10 (0.0)
|   |   |   |   |   |   |   |   DT_DIGITA = 05/07/2015: 10 (0.0)
|   |   |   |   |   |   |   |   DT_DIGITA = 2.0150514E7: 10 (0.0)
|   |   |   |   |   |   |   |   DT_DIGITA = 2.0150525E7: 10 (0.0)
|   |   |   |   |   |   |   |   DT_DIGITA = 2.0150522E7: 5 (1.9)
|   |   |   |   |   |   |   |   DT_DIGITA = 2.0150521E7: 5 (4.51/0.45)
|   |   |   |   |   |   |   |   DT_DIGITA = 2.0150519E7: 10 (0.0)
|   |   |   |   |   |   |   |   DT_DIGITA = 2.0150524E7: 10 (0.0)
|   |   |   |   |   |   |   |   DT_DIGITA = 2.015052E7: 5 (1.35/0.9)
|   |   |   |   |   |   |   |   DT_DIGITA = 2.0150619E7: 10 (0.0)
|   |   |   |   |   |   |   |   DT_DIGITA = 2.0150614E7: 10 (0.0)
|   |   |   |   |   |   |   |   DT_DIGITA = 05/08/2015: 10 (0.0)
|   |   |   |   |   |   |   |   DT_DIGITA = 05/11/2015: 10 (0.0)
|   |   |   |   |   |   |   |   DT_DIGITA = 05/06/2015: 10 (0.0)
|   |   |   |   |   |   |   |   DT_DIGITA = 05/09/2015: 10 (0.0)
|   |   |   |   |   |   |   |   DT_DIGITA = 2.0150517E7: 10 (0.0)
|   |   |   |   |   |   |   |   DT_DIGITA = 2.0150523E7: 10 (0.0)
|   |   |   |   |   |   |   |   DT_DIGITA = 2.0150515E7: 10 (0.0)
|   |   |   |   |   |   |   |   DT_DIGITA = 05/10/2015: 10 (0.0)
|   |   |   |   |   |   |   |   DT_DIGITA = 05/12/2015: 10 (0.0)
|   |   |   |   |   |   |   |   DT_DIGITA = 2.0150513E7: 10 (0.0)
|   |   |   |   |   |   |   |   DT_DIGITA = 2.0150516E7: 10 (0.0)
|   |   |   |   |   |   |   |   DT_DIGITA = 2.0150518E7: 10 (0.0)
|   |   |   |   |   |   |   |   DT_DIGITA = 2.015042E7: 10 (0.0)
|   |   |   |   |   |   |   |   DT_DIGITA = 03/12/2015: 10 (0.0)
|   |   |   |   |   |   |   |   DT_DIGITA = 2.0150127E7: 10 (0.0)
|   |   |   |   |   |   |   |   DT_DIGITA = 04/06/2015: 10 (0.0)
|   |   |   |   |   |   |   |   DT_DIGITA = 2.0150414E7: 10 (0.0)
|   |   |   |   |   |   |   |   DT_DIGITA = 01/11/2015: 10 (0.0)
|   |   |   |   |   |   |   |   DT_DIGITA = 2.0150119E7: 10 (0.0)
|   |   |   |   |   |   |   |   DT_DIGITA = 02/02/2015: 10 (0.0)
|   |   |   |   |   |   |   |   DT_DIGITA = 03/04/2015: 10 (0.0)
|   |   |   |   |   |   |   |   DT_DIGITA = 03/06/2015: 10 (0.0)
|   |   |   |   |   |   |   |   DT_DIGITA = 2.0150128E7: 10 (0.0)
|   |   |   |   |   |   |   |   DT_DIGITA = 2.0150318E7: 10 (0.0)
|   |   |   |   |   |   |   |   DT_DIGITA = 2.0150116E7: 10 (0.0)
|   |   |   |   |   |   |   |   DT_DIGITA = 2.015012E7: 10 (0.0)
|   |   |   |   |   |   |   |   DT_DIGITA = 2.0150123E7: 10 (0.0)
|   |   |   |   |   |   |   |   DT_DIGITA = 2.0150122E7: 10 (0.0)
|   |   |   |   |   |   |   |   DT_DIGITA = 2.0150121E7: 10 (0.0)
|   |   |   |   |   |   |   |   DT_DIGITA = 2.0150215E7: 10 (0.0)
|   |   |   |   |   |   |   |   DT_DIGITA = 2.0150223E7: 10 (0.0)
|   |   |   |   |   |   |   |   DT_DIGITA = 2.0150224E7: 10 (0.0)
|   |   |   |   |   |   |   |   DT_DIGITA = 2.015022E7: 10 (0.0)
|   |   |   |   |   |   |   |   DT_DIGITA = 2.0150225E7: 10 (0.0)
|   |   |   |   |   |   |   |   DT_DIGITA = 2.0150115E7: 10 (0.0)
|   |   |   |   |   |   |   |   DT_DIGITA = 2.0150126E7: 10 (0.0)
|   |   |   |   |   |   |   |   DT_DIGITA = 2.0150213E7: 10 (0.0)
|   |   |   |   |   |   |   |   DT_DIGITA = 2.0150219E7: 10 (0.0)
|   |   |   |   |   |   |   |   DT_DIGITA = 2.0150226E7: 10 (0.0)
|   |   |   |   |   |   |   |   DT_DIGITA = 03/02/2015: 10 (0.0)
|   |   |   |   |   |   |   |   DT_DIGITA = 2.0150228E7: 10 (0.0)
|   |   |   |   |   |   |   |   DT_DIGITA = 2.0150227E7: 10 (0.0)
|   |   |   |   |   |   |   |   DT_DIGITA = 03/09/2015: 10 (0.0)
|   |   |   |   |   |   |   |   DT_DIGITA = 03/05/2015: 10 (0.0)
|   |   |   |   |   |   |   |   DT_DIGITA = 03/07/2015: 10 (0.0)
|   |   |   |   |   |   |   |   DT_DIGITA = 02/05/2015: 10 (0.0)
|   |   |   |   |   |   |   |   DT_DIGITA = 02/06/2015: 10 (0.0)
|   |   |   |   |   |   |   |   DT_DIGITA = 02/01/2015: 10 (0.0)
|   |   |   |   |   |   |   |   DT_DIGITA = 2.015013E7: 10 (0.0)
|   |   |   |   |   |   |   |   DT_DIGITA = 02/04/2015: 10 (0.0)
|   |   |   |   |   |   |   |   DT_DIGITA = 2.0150129E7: 10 (0.0)
|   |   |   |   |   |   |   |   DT_DIGITA = 01/05/2015: 10 (0.0)
|   |   |   |   |   |   |   |   DT_DIGITA = 01/07/2015: 10 (0.0)
|   |   |   |   |   |   |   |   DT_DIGITA = 01/09/2015: 10 (0.0)
|   |   |   |   |   |   |   |   DT_DIGITA = 02/09/2015: 10 (0.0)
|   |   |   |   |   |   |   |   DT_DIGITA = 2.0150125E7: 10 (0.0)
|   |   |   |   |   |   |   |   DT_DIGITA = 2.0150117E7: 10 (0.0)
|   |   |   |   |   |   |   |   DT_DIGITA = 03/03/2015: 10 (0.0)
|   |   |   |   |   |   |   |   DT_DIGITA = 2.0150216E7: 10 (0.0)
|   |   |   |   |   |   |   |   DT_DIGITA = 01/08/2015: 10 (0.0)
|   |   |   |   |   |   |   |   DT_DIGITA = 02/10/2015: 10 (0.0)
|   |   |   |   |   |   |   |   DT_DIGITA = 02/03/2015: 10 (0.0)
|   |   |   |   |   |   |   |   DT_DIGITA = 02/12/2015: 10 (0.0)
|   |   |   |   |   |   |   |   DT_DIGITA = 03/11/2015: 10 (0.0)
|   |   |   |   |   |   |   |   DT_DIGITA = 2.0150113E7: 10 (0.0)
|   |   |   |   |   |   |   |   DT_DIGITA = 2.0150324E7: 10 (0.0)
|   |   |   |   |   |   |   |   DT_DIGITA = 02/11/2015: 10 (0.0)
|   |   |   |   |   |   |   |   DT_DIGITA = 2.0150317E7: 10 (0.0)
|   |   |   |   |   |   |   |   DT_DIGITA = 2.0150313E7: 10 (0.0)
|   |   |   |   |   |   |   |   DT_DIGITA = 03/01/2015: 10 (0.0)
|   |   |   |   |   |   |   |   DT_DIGITA = 01/12/2015: 10 (0.0)
|   |   |   |   |   |   |   |   DT_DIGITA = 2.0150316E7: 10 (0.0)
|   |   |   |   |   |   |   |   DT_DIGITA = 2.0150315E7: 10 (0.0)
|   |   |   |   |   |   |   |   DT_DIGITA = 03/10/2015: 10 (0.0)
|   |   |   |   |   |   |   |   DT_DIGITA = 2.0150218E7: 10 (0.0)
|   |   |   |   |   |   |   |   DT_DIGITA = 02/07/2015: 10 (0.0)
|   |   |   |   |   |   |   |   DT_DIGITA = 01/04/2015: 10 (0.0)
|   |   |   |   |   |   |   |   DT_DIGITA = 2.0150217E7: 10 (0.0)
|   |   |   |   |   |   |   |   DT_DIGITA = 03/08/2015: 10 (0.0)
|   |   |   |   |   |   |   |   DT_DIGITA = 2.0150424E7: 10 (0.0)
|   |   |   |   |   |   |   |   DT_DIGITA = 2.0150314E7: 10 (0.0)
|   |   |   |   |   |   |   |   DT_DIGITA = 04/04/2015: 10 (0.0)
|   |   |   |   |   |   |   |   DT_DIGITA = 04/10/2015: 10 (0.0)
|   |   |   |   |   |   |   |   DT_DIGITA = 2.0150415E7: 10 (0.0)
|   |   |   |   |   |   |   |   DT_DIGITA = 2.0150114E7: 10 (0.0)
|   |   |   |   |   |   |   |   DT_DIGITA = 01/06/2015: 10 (0.0)
|   |   |   |   |   |   |   |   DT_DIGITA = 2.0150427E7: 10 (0.0)
|   |   |   |   |   |   |   |   DT_DIGITA = 2.0150425E7: 10 (0.0)
|   |   |   |   |   |   |   |   DT_DIGITA = 2.0150428E7: 10 (0.0)
|   |   |   |   |   |   |   |   DT_DIGITA = 2.0150418E7: 10 (0.0)
|   |   |   |   |   |   |   |   DT_DIGITA = 04/01/2015: 10 (0.0)
|   |   |   |   |   |   |   |   DT_DIGITA = 2.0150417E7: 10 (0.0)
|   |   |   |   |   |   |   |   DT_DIGITA = 2.0150331E7: 10 (0.0)
|   |   |   |   |   |   |   |   DT_DIGITA = 2.0150419E7: 10 (0.0)
|   |   |   |   |   |   |   |   DT_DIGITA = 2.015033E7: 10 (0.0)
|   |   |   |   |   |   |   |   DT_DIGITA = 2.0150421E7: 10 (0.0)
|   |   |   |   |   |   |   |   DT_DIGITA = 04/08/2015: 10 (0.0)
|   |   |   |   |   |   |   |   DT_DIGITA = 04/02/2015: 10 (0.0)
|   |   |   |   |   |   |   |   DT_DIGITA = 2.0150323E7: 10 (0.0)
|   |   |   |   |   |   |   |   DT_DIGITA = 04/09/2015: 10 (0.0)
|   |   |   |   |   |   |   |   DT_DIGITA = 04/07/2015: 10 (0.0)
|   |   |   |   |   |   |   |   DT_DIGITA = 2.0150326E7: 10 (0.0)
|   |   |   |   |   |   |   |   DT_DIGITA = 2.015032E7: 10 (0.0)
|   |   |   |   |   |   |   |   DT_DIGITA = 2.0150322E7: 10 (0.0)
|   |   |   |   |   |   |   |   DT_DIGITA = 05/01/2015: 10 (0.0)
|   |   |   |   |   |   |   |   DT_DIGITA = 2.015043E7: 10 (0.0)
|   |   |   |   |   |   |   |   DT_DIGITA = 05/04/2015: 10 (0.0)
|   |   |   |   |   |   |   |   DT_DIGITA = 05/05/2015: 10 (0.0)
|   |   |   |   |   |   |   |   DT_DIGITA = 05/02/2015: 10 (0.0)
|   |   |   |   |   |   |   |   DT_DIGITA = 05/03/2015: 10 (0.0)
|   |   |   |   |   |   |   |   DT_DIGITA = 2.0150416E7: 10 (0.0)
|   |   |   |   |   |   |   |   DT_DIGITA = 2.0150423E7: 10 (0.0)
|   |   |   |   |   |   |   |   DT_DIGITA = 2.0150422E7: 10 (0.0)
|   |   |   |   |   |   |   |   DT_DIGITA = 04/03/2015: 10 (0.0)
|   |   |   |   |   |   |   |   DT_DIGITA = 04/12/2015: 10 (0.0)
|   |   |   |   |   |   |   |   DT_DIGITA = 04/11/2015: 10 (0.0)
|   |   |   |   |   |   |   |   DT_DIGITA = 2.0150429E7: 10 (0.0)
|   |   |   |   |   |   |   |   DT_DIGITA = 2.0150328E7: 10 (0.0)
|   |   |   |   |   |   |   |   DT_DIGITA = 2.0150325E7: 10 (0.0)
|   |   |   |   |   |   |   |   DT_DIGITA = 04/05/2015: 10 (0.0)
|   |   |   |   |   |   |   |   DT_DIGITA = 2.0150327E7: 10 (0.0)
|   |   |   |   |   |   |   |   DT_DIGITA = 2.0150329E7: 10 (0.0)
|   |   |   |   |   |   |   |   DT_DIGITA = 2.0150321E7: 10 (0.0)
|   |   |   |   |   |   |   |   DT_DIGITA = 2.0150426E7: 10 (0.0)
|   |   |   |   |   |   |   DT_ENCERRA = 2.015053E7: 5 (0.0)
|   |   |   |   |   |   |   DT_ENCERRA = 2.0150527E7: 5 (4.05/0.9)
|   |   |   |   |   |   |   DT_ENCERRA = 06/03/2015: 5 (0.0)
|   |   |   |   |   |   |   DT_ENCERRA = 2.0150521E7: 5 (0.0)
|   |   |   |   |   |   |   DT_ENCERRA = 06/07/2015: 5 (0.0)
|   |   |   |   |   |   |   DT_ENCERRA = 2.0150424E7: 5 (0.0)
|   |   |   |   |   |   |   DT_ENCERRA = 2.0150613E7: 5 (14.9)
|   |   |   |   |   |   |   DT_ENCERRA = 2.0150614E7: 10 (0.45)
|   |   |   |   |   |   |   DT_ENCERRA = 05/08/2015: 10 (0.87)
|   |   |   |   |   |   |   DT_ENCERRA = 2.0150519E7: 5 (0.0)
|   |   |   |   |   |   |   DT_ENCERRA = 2.0150531E7: 5 (0.0)
|   |   |   |   |   |   |   DT_ENCERRA = 2.0150524E7: 5 (0.0)
|   |   |   |   |   |   |   DT_ENCERRA = 2.015052E7: 5 (0.0)
|   |   |   |   |   |   |   DT_ENCERRA = 2.0150429E7: 5 (0.0)
|   |   |   |   |   |   |   DT_ENCERRA = 2.0150422E7: 5 (0.0)
|   |   |   |   |   |   |   DT_ENCERRA = 05/11/2015: 5 (0.0)
|   |   |   |   |   |   |   DT_ENCERRA = 05/09/2015: 5 (0.0)
|   |   |   |   |   |   |   DT_ENCERRA = 05/06/2015: 5 (0.0)
|   |   |   |   |   |   |   DT_ENCERRA = 05/07/2015: 11 (0.87)
|   |   |   |   |   |   |   DT_ENCERRA = 2.0150416E7: 5 (0.0)
|   |   |   |   |   |   |   DT_ENCERRA = 05/05/2015: 5 (0.0)
|   |   |   |   |   |   |   DT_ENCERRA = 2.0150523E7: 5 (0.0)
|   |   |   |   |   |   |   DT_ENCERRA = 2.0150517E7: 5 (0.0)
|   |   |   |   |   |   |   DT_ENCERRA = 05/10/2015: 5 (0.0)
|   |   |   |   |   |   |   DT_ENCERRA = 2.0150514E7: 5 (0.0)
|   |   |   |   |   |   |   DT_ENCERRA = 2.0150513E7: 10 (0.45)
|   |   |   |   |   |   |   DT_ENCERRA = 2.0150415E7: 5 (0.0)
|   |   |   |   |   |   |   DT_ENCERRA = 2.0150323E7: 5 (0.0)
|   |   |   |   |   |   |   DT_ENCERRA = 2.0150428E7: 5 (0.0)
|   |   |   |   |   |   |   DT_ENCERRA = 2.015033E7: 5 (0.0)
|   |   |   |   |   |   |   DT_ENCERRA = 2.0150515E7: 5 (0.0)
|   |   |   |   |   |   |   DT_ENCERRA = 2.0150518E7: 5 (0.0)
|   |   |   |   |   |   |   DT_ENCERRA = 2.0150427E7: 5 (0.0)
|   |   |   |   |   |   |   DT_ENCERRA = 2.0150318E7: 5 (0.0)
|   |   |   |   |   |   |   DT_ENCERRA = 2.0150516E7: 5 (0.0)
|   |   |   |   |   |   |   DT_ENCERRA = 02/09/2015: 5 (0.0)
|   |   |   |   |   |   |   DT_ENCERRA = 2.0150326E7: 5 (0.0)
|   |   |   |   |   |   |   DT_ENCERRA = 05/02/2015: 5 (0.0)
|   |   |   |   |   |   |   DT_ENCERRA = 04/07/2015: 5 (0.0)
|   |   |   |   |   |   |   DT_ENCERRA = 04/08/2015: 5 (0.0)
|   |   |   |   |   |   |   DT_ENCERRA = 2.015043E7: 5 (0.0)
|   |   |   |   |   |   |   DT_ENCERRA = 01/11/2015: 5 (0.0)
|   |   |   |   |   |   |   DT_ENCERRA = 02/05/2015: 5 (0.0)
|   |   |   |   |   |   |   DT_ENCERRA = 2.0150225E7: 5 (0.0)
|   |   |   |   |   |   |   DT_ENCERRA = 2.0150224E7: 5 (0.0)
|   |   |   |   |   |   |   DT_ENCERRA = 2.0150325E7: 5 (0.0)
|   |   |   |   |   |   |   DT_ENCERRA = 2.0150128E7: 5 (0.0)
|   |   |   |   |   |   |   DT_ENCERRA = 03/09/2015: 5 (0.0)
|   |   |   |   |   |   |   DT_ENCERRA = 2.0150124E7: 5 (0.0)
|   |   |   |   |   |   |   DT_ENCERRA = 03/04/2015: 5 (0.0)
|   |   |   |   |   |   |   DT_ENCERRA = 03/05/2015: 5 (0.0)
|   |   |   |   |   |   |   DT_ENCERRA = 2.0150215E7: 5 (0.0)
|   |   |   |   |   |   |   DT_ENCERRA = 2.0150223E7: 5 (0.0)
|   |   |   |   |   |   |   DT_ENCERRA = 2.0150426E7: 5 (0.0)
|   |   |   |   |   |   |   DT_ENCERRA = 01/07/2015: 5 (0.0)
|   |   |   |   |   |   |   DT_ENCERRA = 03/06/2015: 5 (0.0)
|   |   |   |   |   |   |   DT_ENCERRA = 2.0150129E7: 5 (0.0)
|   |   |   |   |   |   |   DT_ENCERRA = 2.0150316E7: 5 (0.0)
|   |   |   |   |   |   |   DT_ENCERRA = 2.0150122E7: 5 (0.0)
|   |   |   |   |   |   |   DT_ENCERRA = 2.0150219E7: 5 (0.0)
