=== Run information ===

Scheme:weka.classifiers.trees.J48 -C 0.25 -M 2
Relation:     dengue2015_work4-weka.filters.unsupervised.attribute.NumericToNominal-R64-weka.filters.unsupervised.attribute.RemoveUseless-M99.0-weka.filters.unsupervised.attribute.Remove-R12,29,64-66-weka.filters.unsupervised.attribute.Reorder-R1,2,3,4,5,6,7,8,9,10,11,12,13,14,15,16,17,18,19,20,21,22,23,24,25,26,27,28,29,30,31,32,33,34,35,36,37,38,39,40,41,42,43,44,46,47,48,49,50,51,52,53,54,55,56,57,58,59,60,61,45-weka.filters.unsupervised.instance.RemoveRange-R25001-last
Instances:    25000
Attributes:   61
              NU_NOTIFIC
              DT_NOTIFIC
              SEM_NOT
              SG_UF_NOT
              ID_MUNICIP
              ID_REGIONA
              ID_UNIDADE
              DT_SIN_PRI
              SEM_PRI_NO
              MES_SIN_PR
              SEM_PRI
              NU_IDADE_N
              NU_IDADE_0
              FX_NU_IDAD
              CS_SEXO
              CS_GESTANT
              CS_RACA
              CS_ESCOL_N
              ID_CNS_SUS
              SG_UF
              ID_MN_RESI
              ID_RG_RESI
              ID_DISTRIT
              ID_BAIRRO
              NM_BAIRRO
              ID_GEO1
              NU_CEP
              CS_ZONA
              DT_DIGITA
              CS_FLXRET
              IDENT_MICR
              DT_INVEST
              ID_OCUPA_N
              DT_SORO
              RESUL_SORO
              DT_NS1
              RESUL_NS1
              DT_VIRAL
              RESUL_VI_N
              DT_PCR
              RESUL_PCR_
              SOROTIPO
              HISTOPA_N
              IMUNOH_N
              CRITERIO
              TPAUTOCTO
              COUFINF
              COMUNINF
              CODISINF
              CO_BAINF
              NOBAIINF
              DOENCA_TRA
              EVOLUCAO
              DT_OBITO
              DT_ENCERRA
              HOSPITALIZ
              DT_INTERNA
              UF
              MUNICIPIO
              HOSPITAL
              CLASSI_FIN
Test mode:10-fold cross-validation

=== Classifier model (full training set) ===

J48 pruned tree
------------------

CRITERIO <= 2
|   RESUL_SORO <= 1: 10 (2258.52/383.7)
|   RESUL_SORO > 1
|   |   CRITERIO <= 1
|   |   |   RESUL_NS1 <= 1: 10 (75.26/15.34)
|   |   |   RESUL_NS1 > 1: 5 (1300.23/49.56)
|   |   CRITERIO > 1
|   |   |   SEM_NOT <= 201515
|   |   |   |   ID_BAIRRO <= 121
|   |   |   |   |   ID_UNIDADE <= 2516640: 5 (555.94/78.04)
|   |   |   |   |   ID_UNIDADE > 2516640
|   |   |   |   |   |   ID_DISTRIT <= 178
|   |   |   |   |   |   |   DT_ENCERRA = 06/09/2015: 10 (3.78/1.07)
|   |   |   |   |   |   |   DT_ENCERRA = 2.0150529E7: 10 (1.07/0.21)
|   |   |   |   |   |   |   DT_ENCERRA = 2.0150615E7: 8 (3.53/1.0)
|   |   |   |   |   |   |   DT_ENCERRA = 06/11/2015: 10 (1.3/0.3)
|   |   |   |   |   |   |   DT_ENCERRA = 06/08/2015: 5 (10.49/3.19)
|   |   |   |   |   |   |   DT_ENCERRA = 2.0150616E7: 8 (2.16)
|   |   |   |   |   |   |   DT_ENCERRA = 05/12/2015: 5 (16.43/6.21)
|   |   |   |   |   |   |   DT_ENCERRA = 2.0150618E7: 10 (1.97/0.97)
|   |   |   |   |   |   |   DT_ENCERRA = 2.0150526E7
|   |   |   |   |   |   |   |   ID_UNIDADE <= 4009622: 10 (4.16/0.24)
|   |   |   |   |   |   |   |   ID_UNIDADE > 4009622: 5 (12.03/2.93)
|   |   |   |   |   |   |   DT_ENCERRA = 06/04/2015: 10 (5.45)
|   |   |   |   |   |   |   DT_ENCERRA = 06/01/2015
|   |   |   |   |   |   |   |   CS_GESTANT <= 5: 10 (4.59)
|   |   |   |   |   |   |   |   CS_GESTANT > 5: 5 (9.3/1.86)
|   |   |   |   |   |   |   DT_ENCERRA = 06/12/2015: 10 (0.86)
|   |   |   |   |   |   |   DT_ENCERRA = 06/06/2015: 8 (1.19)
|   |   |   |   |   |   |   DT_ENCERRA = 06/05/2015: 10 (4.6/1.6)
|   |   |   |   |   |   |   DT_ENCERRA = 2.0150617E7
|   |   |   |   |   |   |   |   CS_GESTANT <= 5: 10 (5.0)
|   |   |   |   |   |   |   |   CS_GESTANT > 5
|   |   |   |   |   |   |   |   |   ID_UNIDADE <= 7103255: 8 (3.52/0.35)
|   |   |   |   |   |   |   |   |   ID_UNIDADE > 7103255: 5 (2.35)
|   |   |   |   |   |   |   DT_ENCERRA = 06/02/2015: 10 (7.87/0.86)
|   |   |   |   |   |   |   DT_ENCERRA = 2.0150522E7: 10 (19.22/1.0)
|   |   |   |   |   |   |   DT_ENCERRA = 2.0150528E7
|   |   |   |   |   |   |   |   NU_NOTIFIC <= 23228: 5 (2.35)
|   |   |   |   |   |   |   |   NU_NOTIFIC > 23228: 10 (2.35/0.35)
|   |   |   |   |   |   |   DT_ENCERRA = 2.0150525E7: 10 (26.54/3.31)
|   |   |   |   |   |   |   DT_ENCERRA = 06/10/2015
|   |   |   |   |   |   |   |   MES_SIN_PR <= 3: 5 (6.91)
|   |   |   |   |   |   |   |   MES_SIN_PR > 3: 8 (3.06/0.86)
|   |   |   |   |   |   |   DT_ENCERRA = 2.015053E7: 5 (2.88)
|   |   |   |   |   |   |   DT_ENCERRA = 2.0150527E7: 5 (8.67/2.29)
|   |   |   |   |   |   |   DT_ENCERRA = 06/03/2015: 10 (5.16/0.86)
|   |   |   |   |   |   |   DT_ENCERRA = 2.0150521E7: 5 (3.27/1.55)
|   |   |   |   |   |   |   DT_ENCERRA = 06/07/2015: 8 (1.4)
|   |   |   |   |   |   |   DT_ENCERRA = 2.0150424E7: 10 (3.02/1.16)
|   |   |   |   |   |   |   DT_ENCERRA = 2.0150613E7: 8 (2.0)
|   |   |   |   |   |   |   DT_ENCERRA = 2.0150614E7: 8 (1.19)
|   |   |   |   |   |   |   DT_ENCERRA = 05/08/2015: 10 (13.35)
|   |   |   |   |   |   |   DT_ENCERRA = 2.0150519E7: 5 (5.0/1.0)
|   |   |   |   |   |   |   DT_ENCERRA = 2.0150531E7: 5 (2.0/1.0)
|   |   |   |   |   |   |   DT_ENCERRA = 2.0150524E7: 5 (7.26/1.8)
|   |   |   |   |   |   |   DT_ENCERRA = 2.015052E7: 5 (2.85/0.78)
|   |   |   |   |   |   |   DT_ENCERRA = 2.0150429E7
|   |   |   |   |   |   |   |   ID_MN_RESI <= 230530: 10 (15.38/1.21)
|   |   |   |   |   |   |   |   ID_MN_RESI > 230530: 5 (2.24)
|   |   |   |   |   |   |   DT_ENCERRA = 2.0150422E7: 10 (38.03/11.78)
|   |   |   |   |   |   |   DT_ENCERRA = 05/11/2015
|   |   |   |   |   |   |   |   NU_NOTIFIC <= 16635: 10 (11.0)
|   |   |   |   |   |   |   |   NU_NOTIFIC > 16635: 5 (2.86)
|   |   |   |   |   |   |   DT_ENCERRA = 05/09/2015: 5 (21.69/10.69)
|   |   |   |   |   |   |   DT_ENCERRA = 05/06/2015
|   |   |   |   |   |   |   |   IDENT_MICR <= 4: 5 (35.0)
|   |   |   |   |   |   |   |   IDENT_MICR > 4: 10 (7.35/2.0)
|   |   |   |   |   |   |   DT_ENCERRA = 05/07/2015: 10 (26.62/9.0)
|   |   |   |   |   |   |   DT_ENCERRA = 2.0150416E7: 10 (28.72/13.48)
|   |   |   |   |   |   |   DT_ENCERRA = 05/05/2015
|   |   |   |   |   |   |   |   ID_UNIDADE <= 2562545: 10 (9.78/0.21)
|   |   |   |   |   |   |   |   ID_UNIDADE > 2562545: 5 (8.0/1.0)
|   |   |   |   |   |   |   DT_ENCERRA = 2.0150523E7: 5 (1.16)
|   |   |   |   |   |   |   DT_ENCERRA = 2.0150517E7: 5 (1.78/0.78)
|   |   |   |   |   |   |   DT_ENCERRA = 05/10/2015: 10 (0.0)
|   |   |   |   |   |   |   DT_ENCERRA = 2.0150514E7: 10 (7.07/1.72)
|   |   |   |   |   |   |   DT_ENCERRA = 2.0150513E7
|   |   |   |   |   |   |   |   ID_UNIDADE <= 2562545: 10 (2.86)
|   |   |   |   |   |   |   |   ID_UNIDADE > 2562545: 5 (17.21/4.35)
|   |   |   |   |   |   |   DT_ENCERRA = 2.0150415E7
|   |   |   |   |   |   |   |   NU_NOTIFIC <= 16991: 5 (11.0/3.0)
|   |   |   |   |   |   |   |   NU_NOTIFIC > 16991: 10 (38.41/10.86)
|   |   |   |   |   |   |   DT_ENCERRA = 2.0150323E7
|   |   |   |   |   |   |   |   CS_SEXO = F: 5 (3.0)
|   |   |   |   |   |   |   |   CS_SEXO = M: 10 (3.0/1.0)
|   |   |   |   |   |   |   |   CS_SEXO = I: 5 (0.0)
|   |   |   |   |   |   |   DT_ENCERRA = 2.0150428E7: 10 (11.94/3.59)
|   |   |   |   |   |   |   DT_ENCERRA = 2.015033E7: 10 (9.55/2.0)
|   |   |   |   |   |   |   DT_ENCERRA = 2.0150515E7: 10 (3.0)
|   |   |   |   |   |   |   DT_ENCERRA = 2.0150518E7: 10 (6.55/1.35)
|   |   |   |   |   |   |   DT_ENCERRA = 2.0150427E7
|   |   |   |   |   |   |   |   FX_NU_IDAD <= 5: 10 (3.93/0.21)
|   |   |   |   |   |   |   |   FX_NU_IDAD > 5
|   |   |   |   |   |   |   |   |   NU_IDADE_N <= 4022: 5 (3.0)
|   |   |   |   |   |   |   |   |   NU_IDADE_N > 4022: 10 (3.72/0.86)
|   |   |   |   |   |   |   DT_ENCERRA = 2.0150318E7: 5 (3.93/1.21)
|   |   |   |   |   |   |   DT_ENCERRA = 2.0150516E7: 5 (2.16/1.0)
|   |   |   |   |   |   |   DT_ENCERRA = 02/09/2015: 5 (6.35/1.35)
|   |   |   |   |   |   |   DT_ENCERRA = 2.0150326E7: 5 (5.07/1.72)
|   |   |   |   |   |   |   DT_ENCERRA = 05/02/2015: 10 (3.53/1.53)
|   |   |   |   |   |   |   DT_ENCERRA = 04/07/2015: 10 (18.04/2.0)
|   |   |   |   |   |   |   DT_ENCERRA = 04/08/2015: 10 (17.86/4.86)
|   |   |   |   |   |   |   DT_ENCERRA = 2.015043E7
|   |   |   |   |   |   |   |   FX_NU_IDAD <= 5: 5 (2.3/0.3)
|   |   |   |   |   |   |   |   FX_NU_IDAD > 5: 10 (5.69/1.0)
|   |   |   |   |   |   |   DT_ENCERRA = 01/11/2015: 10 (0.35)
|   |   |   |   |   |   |   DT_ENCERRA = 02/05/2015: 10 (10.86/2.0)
|   |   |   |   |   |   |   DT_ENCERRA = 2.0150225E7: 5 (1.86)
|   |   |   |   |   |   |   DT_ENCERRA = 2.0150224E7: 10 (20.0/4.0)
|   |   |   |   |   |   |   DT_ENCERRA = 2.0150325E7: 5 (4.0/1.0)
|   |   |   |   |   |   |   DT_ENCERRA = 2.0150128E7: 5 (2.97/1.0)
|   |   |   |   |   |   |   DT_ENCERRA = 03/09/2015: 5 (0.86)
|   |   |   |   |   |   |   DT_ENCERRA = 2.0150124E7: 10 (0.0)
|   |   |   |   |   |   |   DT_ENCERRA = 03/04/2015: 5 (15.0/3.0)
|   |   |   |   |   |   |   DT_ENCERRA = 03/05/2015: 5 (4.0/2.0)
|   |   |   |   |   |   |   DT_ENCERRA = 2.0150215E7: 10 (4.72/2.0)
|   |   |   |   |   |   |   DT_ENCERRA = 2.0150223E7: 10 (1.0)
|   |   |   |   |   |   |   DT_ENCERRA = 2.0150426E7: 5 (5.44)
|   |   |   |   |   |   |   DT_ENCERRA = 01/07/2015: 10 (0.0)
|   |   |   |   |   |   |   DT_ENCERRA = 03/06/2015: 10 (0.0)
|   |   |   |   |   |   |   DT_ENCERRA = 2.0150129E7
|   |   |   |   |   |   |   |   DT_DIGITA = 06/09/2015: 10 (0.0)
|   |   |   |   |   |   |   |   DT_DIGITA = 06/12/2015: 10 (0.0)
|   |   |   |   |   |   |   |   DT_DIGITA = 2.0150613E7: 10 (0.0)
|   |   |   |   |   |   |   |   DT_DIGITA = 2.0150615E7: 10 (0.0)
|   |   |   |   |   |   |   |   DT_DIGITA = 06/10/2015: 10 (0.0)
|   |   |   |   |   |   |   |   DT_DIGITA = 2.0150616E7: 10 (0.0)
|   |   |   |   |   |   |   |   DT_DIGITA = 06/08/2015: 10 (0.0)
|   |   |   |   |   |   |   |   DT_DIGITA = 2.0150618E7: 10 (0.0)
|   |   |   |   |   |   |   |   DT_DIGITA = 06/11/2015: 10 (0.0)
|   |   |   |   |   |   |   |   DT_DIGITA = 2.0150319E7: 10 (0.0)
|   |   |   |   |   |   |   |   DT_DIGITA = 06/05/2015: 10 (0.0)
|   |   |   |   |   |   |   |   DT_DIGITA = 2.015053E7: 10 (0.0)
|   |   |   |   |   |   |   |   DT_DIGITA = 2.0150526E7: 10 (0.0)
|   |   |   |   |   |   |   |   DT_DIGITA = 06/04/2015: 10 (0.0)
|   |   |   |   |   |   |   |   DT_DIGITA = 06/02/2015: 10 (0.0)
|   |   |   |   |   |   |   |   DT_DIGITA = 06/07/2015: 10 (0.0)
|   |   |   |   |   |   |   |   DT_DIGITA = 06/06/2015: 10 (0.0)
|   |   |   |   |   |   |   |   DT_DIGITA = 2.0150531E7: 10 (0.0)
|   |   |   |   |   |   |   |   DT_DIGITA = 06/03/2015: 10 (0.0)
|   |   |   |   |   |   |   |   DT_DIGITA = 2.0150527E7: 10 (0.0)
|   |   |   |   |   |   |   |   DT_DIGITA = 2.0150617E7: 10 (0.0)
|   |   |   |   |   |   |   |   DT_DIGITA = 06/01/2015: 10 (0.0)
|   |   |   |   |   |   |   |   DT_DIGITA = 2.0150528E7: 10 (0.0)
|   |   |   |   |   |   |   |   DT_DIGITA = 2.0150529E7: 10 (0.0)
|   |   |   |   |   |   |   |   DT_DIGITA = 05/07/2015: 10 (0.0)
|   |   |   |   |   |   |   |   DT_DIGITA = 2.0150514E7: 10 (0.0)
|   |   |   |   |   |   |   |   DT_DIGITA = 2.0150525E7: 10 (0.0)
|   |   |   |   |   |   |   |   DT_DIGITA = 2.0150522E7: 10 (0.0)
|   |   |   |   |   |   |   |   DT_DIGITA = 2.0150521E7: 10 (0.0)
|   |   |   |   |   |   |   |   DT_DIGITA = 2.0150519E7: 10 (0.0)
|   |   |   |   |   |   |   |   DT_DIGITA = 2.0150524E7: 10 (0.0)
|   |   |   |   |   |   |   |   DT_DIGITA = 2.015052E7: 10 (0.0)
|   |   |   |   |   |   |   |   DT_DIGITA = 2.0150619E7: 10 (0.0)
|   |   |   |   |   |   |   |   DT_DIGITA = 2.0150614E7: 10 (0.0)
|   |   |   |   |   |   |   |   DT_DIGITA = 05/08/2015: 10 (0.0)
|   |   |   |   |   |   |   |   DT_DIGITA = 05/11/2015: 10 (0.0)
|   |   |   |   |   |   |   |   DT_DIGITA = 05/06/2015: 10 (0.0)
|   |   |   |   |   |   |   |   DT_DIGITA = 05/09/2015: 10 (0.0)
|   |   |   |   |   |   |   |   DT_DIGITA = 2.0150517E7: 10 (0.0)
|   |   |   |   |   |   |   |   DT_DIGITA = 2.0150523E7: 10 (0.0)
|   |   |   |   |   |   |   |   DT_DIGITA = 2.0150515E7: 10 (0.0)
|   |   |   |   |   |   |   |   DT_DIGITA = 05/10/2015: 10 (0.0)
|   |   |   |   |   |   |   |   DT_DIGITA = 05/12/2015: 10 (0.0)
|   |   |   |   |   |   |   |   DT_DIGITA = 2.0150513E7: 10 (0.0)
|   |   |   |   |   |   |   |   DT_DIGITA = 2.0150516E7: 10 (0.0)
|   |   |   |   |   |   |   |   DT_DIGITA = 2.0150518E7: 10 (0.0)
|   |   |   |   |   |   |   |   DT_DIGITA = 2.015042E7: 10 (0.0)
|   |   |   |   |   |   |   |   DT_DIGITA = 03/12/2015: 10 (0.0)
|   |   |   |   |   |   |   |   DT_DIGITA = 2.0150127E7: 10 (0.0)
|   |   |   |   |   |   |   |   DT_DIGITA = 04/06/2015: 10 (0.0)
|   |   |   |   |   |   |   |   DT_DIGITA = 2.0150414E7: 10 (0.0)
|   |   |   |   |   |   |   |   DT_DIGITA = 01/11/2015: 10 (0.0)
|   |   |   |   |   |   |   |   DT_DIGITA = 2.0150119E7: 10 (0.0)
|   |   |   |   |   |   |   |   DT_DIGITA = 02/02/2015: 10 (4.0)
|   |   |   |   |   |   |   |   DT_DIGITA = 03/04/2015: 10 (0.0)
|   |   |   |   |   |   |   |   DT_DIGITA = 03/06/2015: 10 (0.0)
|   |   |   |   |   |   |   |   DT_DIGITA = 2.0150128E7: 10 (0.0)
|   |   |   |   |   |   |   |   DT_DIGITA = 2.0150318E7: 10 (0.0)
|   |   |   |   |   |   |   |   DT_DIGITA = 2.0150116E7: 10 (0.0)
|   |   |   |   |   |   |   |   DT_DIGITA = 2.015012E7: 10 (0.0)
|   |   |   |   |   |   |   |   DT_DIGITA = 2.0150123E7: 10 (0.0)
|   |   |   |   |   |   |   |   DT_DIGITA = 2.0150122E7: 10 (0.0)
|   |   |   |   |   |   |   |   DT_DIGITA = 2.0150121E7: 10 (0.0)
|   |   |   |   |   |   |   |   DT_DIGITA = 2.0150215E7: 10 (0.0)
|   |   |   |   |   |   |   |   DT_DIGITA = 2.0150223E7: 10 (0.0)
|   |   |   |   |   |   |   |   DT_DIGITA = 2.0150224E7: 10 (0.0)
|   |   |   |   |   |   |   |   DT_DIGITA = 2.015022E7: 10 (0.0)
|   |   |   |   |   |   |   |   DT_DIGITA = 2.0150225E7: 10 (0.0)
|   |   |   |   |   |   |   |   DT_DIGITA = 2.0150115E7: 10 (0.0)
|   |   |   |   |   |   |   |   DT_DIGITA = 2.0150126E7: 10 (0.0)
|   |   |   |   |   |   |   |   DT_DIGITA = 2.0150213E7: 10 (0.0)
|   |   |   |   |   |   |   |   DT_DIGITA = 2.0150219E7: 10 (0.0)
|   |   |   |   |   |   |   |   DT_DIGITA = 2.0150226E7: 10 (0.0)
|   |   |   |   |   |   |   |   DT_DIGITA = 03/02/2015: 10 (0.0)
|   |   |   |   |   |   |   |   DT_DIGITA = 2.0150228E7: 10 (0.0)
|   |   |   |   |   |   |   |   DT_DIGITA = 2.0150227E7: 10 (0.0)
|   |   |   |   |   |   |   |   DT_DIGITA = 03/09/2015: 10 (0.0)
|   |   |   |   |   |   |   |   DT_DIGITA = 03/05/2015: 10 (0.0)
|   |   |   |   |   |   |   |   DT_DIGITA = 03/07/2015: 10 (0.0)
|   |   |   |   |   |   |   |   DT_DIGITA = 02/05/2015: 10 (0.0)
|   |   |   |   |   |   |   |   DT_DIGITA = 02/06/2015: 10 (0.0)
|   |   |   |   |   |   |   |   DT_DIGITA = 02/01/2015: 10 (0.0)
|   |   |   |   |   |   |   |   DT_DIGITA = 2.015013E7: 10 (0.0)
|   |   |   |   |   |   |   |   DT_DIGITA = 02/04/2015: 5 (2.69/0.35)
|   |   |   |   |   |   |   |   DT_DIGITA = 2.0150129E7: 10 (0.0)
|   |   |   |   |   |   |   |   DT_DIGITA = 01/05/2015: 10 (0.0)
|   |   |   |   |   |   |   |   DT_DIGITA = 01/07/2015: 10 (0.0)
|   |   |   |   |   |   |   |   DT_DIGITA = 01/09/2015: 10 (0.0)
|   |   |   |   |   |   |   |   DT_DIGITA = 02/09/2015: 10 (0.0)
|   |   |   |   |   |   |   |   DT_DIGITA = 2.0150125E7: 10 (0.0)
|   |   |   |   |   |   |   |   DT_DIGITA = 2.0150117E7: 10 (0.0)
|   |   |   |   |   |   |   |   DT_DIGITA = 03/03/2015: 10 (0.0)
|   |   |   |   |   |   |   |   DT_DIGITA = 2.0150216E7: 10 (0.0)
|   |   |   |   |   |   |   |   DT_DIGITA = 01/08/2015: 10 (0.0)
|   |   |   |   |   |   |   |   DT_DIGITA = 02/10/2015: 10 (0.0)
|   |   |   |   |   |   |   |   DT_DIGITA = 02/03/2015: 10 (1.0)
|   |   |   |   |   |   |   |   DT_DIGITA = 02/12/2015: 10 (0.0)
|   |   |   |   |   |   |   |   DT_DIGITA = 03/11/2015: 10 (0.0)
|   |   |   |   |   |   |   |   DT_DIGITA = 2.0150113E7: 10 (0.0)
|   |   |   |   |   |   |   |   DT_DIGITA = 2.0150324E7: 10 (0.0)
|   |   |   |   |   |   |   |   DT_DIGITA = 02/11/2015: 10 (0.0)
|   |   |   |   |   |   |   |   DT_DIGITA = 2.0150317E7: 10 (0.0)
|   |   |   |   |   |   |   |   DT_DIGITA = 2.0150313E7: 10 (0.0)
|   |   |   |   |   |   |   |   DT_DIGITA = 03/01/2015: 10 (0.0)
|   |   |   |   |   |   |   |   DT_DIGITA = 01/12/2015: 10 (0.0)
|   |   |   |   |   |   |   |   DT_DIGITA = 2.0150316E7: 10 (0.0)
|   |   |   |   |   |   |   |   DT_DIGITA = 2.0150315E7: 10 (0.0)
|   |   |   |   |   |   |   |   DT_DIGITA = 03/10/2015: 10 (0.0)
|   |   |   |   |   |   |   |   DT_DIGITA = 2.0150218E7: 10 (0.0)
|   |   |   |   |   |   |   |   DT_DIGITA = 02/07/2015: 10 (0.0)
|   |   |   |   |   |   |   |   DT_DIGITA = 01/04/2015: 10 (0.0)
|   |   |   |   |   |   |   |   DT_DIGITA = 2.0150217E7: 10 (0.0)
|   |   |   |   |   |   |   |   DT_DIGITA = 03/08/2015: 10 (0.0)
|   |   |   |   |   |   |   |   DT_DIGITA = 2.0150424E7: 10 (0.0)
|   |   |   |   |   |   |   |   DT_DIGITA = 2.0150314E7: 10 (0.0)
|   |   |   |   |   |   |   |   DT_DIGITA = 04/04/2015: 10 (0.0)
|   |   |   |   |   |   |   |   DT_DIGITA = 04/10/2015: 10 (0.0)
|   |   |   |   |   |   |   |   DT_DIGITA = 2.0150415E7: 10 (0.0)
|   |   |   |   |   |   |   |   DT_DIGITA = 2.0150114E7: 10 (0.0)
|   |   |   |   |   |   |   |   DT_DIGITA = 01/06/2015: 10 (0.0)
|   |   |   |   |   |   |   |   DT_DIGITA = 2.0150427E7: 10 (0.0)
|   |   |   |   |   |   |   |   DT_DIGITA = 2.0150425E7: 10 (0.0)
|   |   |   |   |   |   |   |   DT_DIGITA = 2.0150428E7: 10 (0.0)
|   |   |   |   |   |   |   |   DT_DIGITA = 2.0150418E7: 10 (0.0)
|   |   |   |   |   |   |   |   DT_DIGITA = 04/01/2015: 10 (0.0)
|   |   |   |   |   |   |   |   DT_DIGITA = 2.0150417E7: 10 (0.0)
|   |   |   |   |   |   |   |   DT_DIGITA = 2.0150331E7: 10 (0.0)
|   |   |   |   |   |   |   |   DT_DIGITA = 2.0150419E7: 10 (0.0)
|   |   |   |   |   |   |   |   DT_DIGITA = 2.015033E7: 10 (0.0)
|   |   |   |   |   |   |   |   DT_DIGITA = 2.0150421E7: 10 (0.0)
|   |   |   |   |   |   |   |   DT_DIGITA = 04/08/2015: 10 (0.0)
|   |   |   |   |   |   |   |   DT_DIGITA = 04/02/2015: 10 (0.0)
|   |   |   |   |   |   |   |   DT_DIGITA = 2.0150323E7: 10 (0.0)
|   |   |   |   |   |   |   |   DT_DIGITA = 04/09/2015: 10 (0.0)
|   |   |   |   |   |   |   |   DT_DIGITA = 04/07/2015: 10 (0.0)
|   |   |   |   |   |   |   |   DT_DIGITA = 2.0150326E7: 10 (0.0)
|   |   |   |   |   |   |   |   DT_DIGITA = 2.015032E7: 10 (0.0)
|   |   |   |   |   |   |   |   DT_DIGITA = 2.0150322E7: 10 (0.0)
|   |   |   |   |   |   |   |   DT_DIGITA = 05/01/2015: 10 (0.0)
|   |   |   |   |   |   |   |   DT_DIGITA = 2.015043E7: 10 (0.0)
|   |   |   |   |   |   |   |   DT_DIGITA = 05/04/2015: 10 (0.0)
|   |   |   |   |   |   |   |   DT_DIGITA = 05/05/2015: 10 (0.0)
|   |   |   |   |   |   |   |   DT_DIGITA = 05/02/2015: 10 (0.0)
|   |   |   |   |   |   |   |   DT_DIGITA = 05/03/2015: 10 (0.0)
|   |   |   |   |   |   |   |   DT_DIGITA = 2.0150416E7: 10 (0.0)
|   |   |   |   |   |   |   |   DT_DIGITA = 2.0150423E7: 10 (0.0)
|   |   |   |   |   |   |   |   DT_DIGITA = 2.0150422E7: 10 (0.0)
|   |   |   |   |   |   |   |   DT_DIGITA = 04/03/2015: 10 (0.0)
|   |   |   |   |   |   |   |   DT_DIGITA = 04/12/2015: 10 (0.0)
|   |   |   |   |   |   |   |   DT_DIGITA = 04/11/2015: 10 (0.0)
|   |   |   |   |   |   |   |   DT_DIGITA = 2.0150429E7: 10 (0.0)
|   |   |   |   |   |   |   |   DT_DIGITA = 2.0150328E7: 10 (0.0)
|   |   |   |   |   |   |   |   DT_DIGITA = 2.0150325E7: 10 (0.0)
|   |   |   |   |   |   |   |   DT_DIGITA = 04/05/2015: 10 (0.0)
|   |   |   |   |   |   |   |   DT_DIGITA = 2.0150327E7: 10 (0.0)
|   |   |   |   |   |   |   |   DT_DIGITA = 2.0150329E7: 10 (0.0)
|   |   |   |   |   |   |   |   DT_DIGITA = 2.0150321E7: 10 (0.0)
|   |   |   |   |   |   |   |   DT_DIGITA = 2.0150426E7: 10 (0.0)
|   |   |   |   |   |   |   DT_ENCERRA = 2.0150316E7: 5 (10.44/2.24)
|   |   |   |   |   |   |   DT_ENCERRA = 2.0150122E7: 5 (2.0/1.0)
|   |   |   |   |   |   |   DT_ENCERRA = 2.0150219E7: 10 (8.0/2.0)
|   |   |   |   |   |   |   DT_ENCERRA = 2.015012E7: 5 (1.0)
|   |   |   |   |   |   |   DT_ENCERRA = 2.0150119E7: 10 (5.0/2.0)
|   |   |   |   |   |   |   DT_ENCERRA = 2.0150126E7: 5 (4.0/2.0)
|   |   |   |   |   |   |   DT_ENCERRA = 2.0150317E7: 10 (27.72/13.37)
|   |   |   |   |   |   |   DT_ENCERRA = 02/02/2015: 10 (5.0/2.0)
|   |   |   |   |   |   |   DT_ENCERRA = 02/11/2015: 10 (10.35/4.0)
|   |   |   |   |   |   |   DT_ENCERRA = 2.0150423E7: 10 (7.69/2.48)
|   |   |   |   |   |   |   DT_ENCERRA = 2.015032E7: 5 (4.2/1.86)
|   |   |   |   |   |   |   DT_ENCERRA = 2.0150228E7: 10 (7.59/0.62)
|   |   |   |   |   |   |   DT_ENCERRA = 03/02/2015: 5 (2.27/0.97)
|   |   |   |   |   |   |   DT_ENCERRA = 2.0150313E7: 5 (14.62/5.0)
|   |   |   |   |   |   |   DT_ENCERRA = 2.0150227E7: 10 (0.62)
|   |   |   |   |   |   |   DT_ENCERRA = 02/04/2015: 5 (12.0/3.0)
|   |   |   |   |   |   |   DT_ENCERRA = 2.015013E7: 10 (0.0)
|   |   |   |   |   |   |   DT_ENCERRA = 01/12/2015: 10 (0.0)
|   |   |   |   |   |   |   DT_ENCERRA = 2.0150121E7: 10 (2.0)
|   |   |   |   |   |   |   DT_ENCERRA = 2.0150114E7: 10 (0.62)
|   |   |   |   |   |   |   DT_ENCERRA = 02/03/2015: 10 (0.0)
|   |   |   |   |   |   |   DT_ENCERRA = 2.015022E7
|   |   |   |   |   |   |   |   NU_NOTIFIC <= 6067: 10 (2.72)
|   |   |   |   |   |   |   |   NU_NOTIFIC > 6067: 5 (3.55/1.0)
|   |   |   |   |   |   |   DT_ENCERRA = 2.0150117E7: 10 (0.0)
|   |   |   |   |   |   |   DT_ENCERRA = 04/01/2015
|   |   |   |   |   |   |   |   NU_NOTIFIC <= 18484: 5 (2.35)
|   |   |   |   |   |   |   |   NU_NOTIFIC > 18484: 10 (4.0/1.0)
|   |   |   |   |   |   |   DT_ENCERRA = 2.0150213E7: 10 (1.62/0.62)
|   |   |   |   |   |   |   DT_ENCERRA = 03/01/2015: 10 (0.86)
|   |   |   |   |   |   |   DT_ENCERRA = 02/10/2015: 5 (1.0)
|   |   |   |   |   |   |   DT_ENCERRA = 02/06/2015: 10 (0.0)
|   |   |   |   |   |   |   DT_ENCERRA = 2.0150226E7: 5 (0.62)
|   |   |   |   |   |   |   DT_ENCERRA = 2.0150314E7: 5 (0.86)
|   |   |   |   |   |   |   DT_ENCERRA = 2.0150329E7: 5 (2.58)
|   |   |   |   |   |   |   DT_ENCERRA = 2.0150414E7: 10 (35.87/9.31)
|   |   |   |   |   |   |   DT_ENCERRA = 2.0150319E7: 10 (4.92/0.86)
|   |   |   |   |   |   |   DT_ENCERRA = 03/03/2015
|   |   |   |   |   |   |   |   ID_BAIRRO <= 72: 10 (3.99/0.14)
|   |   |   |   |   |   |   |   ID_BAIRRO > 72: 5 (6.21/1.0)
|   |   |   |   |   |   |   DT_ENCERRA = 04/09/2015: 5 (0.69/0.35)
|   |   |   |   |   |   |   DT_ENCERRA = 2.015042E7: 5 (4.3/1.3)
|   |   |   |   |   |   |   DT_ENCERRA = 03/12/2015: 10 (1.0)
|   |   |   |   |   |   |   DT_ENCERRA = 02/12/2015: 5 (1.0)
|   |   |   |   |   |   |   DT_ENCERRA = 04/02/2015
|   |   |   |   |   |   |   |   NU_NOTIFIC <= 16926: 10 (3.0)
|   |   |   |   |   |   |   |   NU_NOTIFIC > 16926: 5 (5.0)
|   |   |   |   |   |   |   DT_ENCERRA = 04/06/2015
|   |   |   |   |   |   |   |   IDENT_MICR <= 4: 10 (23.0/2.0)
|   |   |   |   |   |   |   |   IDENT_MICR > 4: 5 (21.35/6.0)
|   |   |   |   |   |   |   DT_ENCERRA = 01/09/2015: 10 (0.0)
|   |   |   |   |   |   |   DT_ENCERRA = 04/11/2015: 5 (8.07)
|   |   |   |   |   |   |   DT_ENCERRA = 2.0150331E7
|   |   |   |   |   |   |   |   NU_NOTIFIC <= 13887: 5 (6.86)
|   |   |   |   |   |   |   |   NU_NOTIFIC > 13887: 10 (5.07/1.72)
|   |   |   |   |   |   |   DT_ENCERRA = 2.0150327E7: 5 (4.72/0.86)
|   |   |   |   |   |   |   DT_ENCERRA = 2.0150418E7: 10 (4.35/2.0)
|   |   |   |   |   |   |   DT_ENCERRA = 03/11/2015: 5 (3.72/0.86)
|   |   |   |   |   |   |   DT_ENCERRA = 2.0150324E7: 5 (22.5/5.86)
|   |   |   |   |   |   |   DT_ENCERRA = 2.0150315E7: 10 (0.0)
|   |   |   |   |   |   |   DT_ENCERRA = 2.0150417E7
|   |   |   |   |   |   |   |   ID_DISTRIT <= 176: 10 (4.31/1.0)
|   |   |   |   |   |   |   |   ID_DISTRIT > 176: 5 (5.38/0.38)
|   |   |   |   |   |   |   DT_ENCERRA = 05/04/2015
|   |   |   |   |   |   |   |   IDENT_MICR <= 4: 10 (27.14/2.86)
|   |   |   |   |   |   |   |   IDENT_MICR > 4: 5 (14.17/4.21)
|   |   |   |   |   |   |   DT_ENCERRA = 03/10/2015: 10 (0.0)
|   |   |   |   |   |   |   DT_ENCERRA = 2.0150425E7: 10 (12.35/3.35)
|   |   |   |   |   |   |   DT_ENCERRA = 03/07/2015: 5 (0.86)
|   |   |   |   |   |   |   DT_ENCERRA = 2.0150116E7: 10 (0.0)
|   |   |   |   |   |   |   DT_ENCERRA = 2.0150115E7: 5 (3.0/1.0)
|   |   |   |   |   |   |   DT_ENCERRA = 2.0150322E7: 8 (0.37)
|   |   |   |   |   |   |   DT_ENCERRA = 2.0150328E7
|   |   |   |   |   |   |   |   NU_NOTIFIC <= 17296: 10 (2.0)
|   |   |   |   |   |   |   |   NU_NOTIFIC > 17296: 5 (4.16/1.0)
|   |   |   |   |   |   |   DT_ENCERRA = 2.0150123E7: 10 (0.0)
|   |   |   |   |   |   |   DT_ENCERRA = 01/08/2015: 10 (0.0)
|   |   |   |   |   |   |   DT_ENCERRA = 2.0150221E7: 10 (0.86)
|   |   |   |   |   |   |   DT_ENCERRA = 04/10/2015: 11 (1.0)
|   |   |   |   |   |   |   DT_ENCERRA = 2.0150321E7: 10 (0.0)
|   |   |   |   |   |   |   DT_ENCERRA = 01/06/2015: 10 (0.0)
|   |   |   |   |   |   |   DT_ENCERRA = 03/08/2015: 5 (0.86)
|   |   |   |   |   |   |   DT_ENCERRA = 2.0150413E7: 5 (1.72)
|   |   |   |   |   |   |   DT_ENCERRA = 2.0150216E7: 10 (0.0)
|   |   |   |   |   |   |   DT_ENCERRA = 04/03/2015: 10 (0.0)
|   |   |   |   |   |   |   DT_ENCERRA = 2.0150125E7: 10 (0.0)
|   |   |   |   |   |   |   DT_ENCERRA = 2.0150222E7: 10 (1.86)
|   |   |   |   |   |   |   DT_ENCERRA = 02/07/2015: 10 (0.0)
|   |   |   |   |   |   |   DT_ENCERRA = 05/01/2015: 10 (0.0)
|   |   |   |   |   |   |   DT_ENCERRA = 2.0150217E7: 10 (0.0)
|   |   |   |   |   |   |   DT_ENCERRA = 2.0150127E7: 10 (0.0)
|   |   |   |   |   |   |   DT_ENCERRA = 2.0150218E7: 10 (0.0)
|   |   |   |   |   |   |   DT_ENCERRA = 2.0150113E7: 10 (0.0)
|   |   |   |   |   |   |   DT_ENCERRA = 05/03/2015: 10 (7.27/2.27)
|   |   |   |   |   |   |   DT_ENCERRA = 2.0150419E7: 5 (4.0/2.0)
|   |   |   |   |   |   |   DT_ENCERRA = 2.0150421E7: 10 (2.02/0.86)
|   |   |   |   |   |   |   DT_ENCERRA = 04/12/2015: 5 (1.0)
|   |   |   |   |   |   |   DT_ENCERRA = 2.015062E7: 10 (0.0)
|   |   |   |   |   |   |   DT_ENCERRA = 2.0150619E7: 10 (0.0)
|   |   |   |   |   |   |   DT_ENCERRA = 04/04/2015: 10 (0.0)
|   |   |   |   |   |   |   DT_ENCERRA = 04/05/2015: 10 (0.0)
|   |   |   |   |   |   ID_DISTRIT > 178: 5 (670.26/177.11)
|   |   |   |   ID_BAIRRO > 121
|   |   |   |   |   CS_FLXRET <= 0: 10 (1136.13/142.38)
|   |   |   |   |   CS_FLXRET > 0
|   |   |   |   |   |   NU_IDADE_N <= 4012
|   |   |   |   |   |   |   ID_UNIDADE <= 6985483: 5 (195.42/16.61)
|   |   |   |   |   |   |   ID_UNIDADE > 6985483: 10 (39.09/11.66)
|   |   |   |   |   |   NU_IDADE_N > 4012: 10 (482.68/176.36)
|   |   |   SEM_NOT > 201515
|   |   |   |   ID_BAIRRO <= 121
|   |   |   |   |   ID_DISTRIT <= 178: 10 (3448.14/910.27)
|   |   |   |   |   ID_DISTRIT > 178
|   |   |   |   |   |   DT_ENCERRA = 06/09/2015: 10 (12.43/2.22)
|   |   |   |   |   |   DT_ENCERRA = 2.0150529E7: 5 (130.21/50.76)
|   |   |   |   |   |   DT_ENCERRA = 2.0150615E7: 10 (13.89/6.13)
|   |   |   |   |   |   DT_ENCERRA = 06/11/2015: 10 (93.73/32.3)
|   |   |   |   |   |   DT_ENCERRA = 06/08/2015: 10 (67.95/24.79)
|   |   |   |   |   |   DT_ENCERRA = 2.0150616E7
|   |   |   |   |   |   |   CS_RACA <= 5: 10 (26.38/4.5)
|   |   |   |   |   |   |   CS_RACA > 5
|   |   |   |   |   |   |   |   DT_DIGITA = 06/09/2015: 5 (0.0)
|   |   |   |   |   |   |   |   DT_DIGITA = 06/12/2015: 5 (0.0)
|   |   |   |   |   |   |   |   DT_DIGITA = 2.0150613E7: 5 (0.0)
|   |   |   |   |   |   |   |   DT_DIGITA = 2.0150615E7: 5 (0.0)
|   |   |   |   |   |   |   |   DT_DIGITA = 06/10/2015: 5 (0.0)
|   |   |   |   |   |   |   |   DT_DIGITA = 2.0150616E7: 5 (0.62/0.11)
|   |   |   |   |   |   |   |   DT_DIGITA = 06/08/2015: 5 (0.0)
|   |   |   |   |   |   |   |   DT_DIGITA = 2.0150618E7: 10 (0.12)
|   |   |   |   |   |   |   |   DT_DIGITA = 06/11/2015: 5 (0.0)
|   |   |   |   |   |   |   |   DT_DIGITA = 2.0150319E7: 5 (0.0)
|   |   |   |   |   |   |   |   DT_DIGITA = 06/05/2015: 5 (0.0)
|   |   |   |   |   |   |   |   DT_DIGITA = 2.015053E7: 5 (0.0)
|   |   |   |   |   |   |   |   DT_DIGITA = 2.0150526E7: 5 (0.0)
|   |   |   |   |   |   |   |   DT_DIGITA = 06/04/2015: 5 (0.0)
|   |   |   |   |   |   |   |   DT_DIGITA = 06/02/2015: 5 (0.0)
|   |   |   |   |   |   |   |   DT_DIGITA = 06/07/2015: 5 (0.0)
|   |   |   |   |   |   |   |   DT_DIGITA = 06/06/2015: 5 (0.0)
|   |   |   |   |   |   |   |   DT_DIGITA = 2.0150531E7: 5 (0.0)
|   |   |   |   |   |   |   |   DT_DIGITA = 06/03/2015: 5 (0.0)
|   |   |   |   |   |   |   |   DT_DIGITA = 2.0150527E7: 5 (0.0)
|   |   |   |   |   |   |   |   DT_DIGITA = 2.0150617E7: 10 (1.0)
|   |   |   |   |   |   |   |   DT_DIGITA = 06/01/2015: 5 (0.0)
|   |   |   |   |   |   |   |   DT_DIGITA = 2.0150528E7: 5 (0.0)
|   |   |   |   |   |   |   |   DT_DIGITA = 2.0150529E7: 5 (0.0)
|   |   |   |   |   |   |   |   DT_DIGITA = 05/07/2015: 5 (0.0)
|   |   |   |   |   |   |   |   DT_DIGITA = 2.0150514E7: 5 (0.0)
|   |   |   |   |   |   |   |   DT_DIGITA = 2.0150525E7: 5 (0.0)
|   |   |   |   |   |   |   |   DT_DIGITA = 2.0150522E7: 5 (0.0)
|   |   |   |   |   |   |   |   DT_DIGITA = 2.0150521E7: 5 (0.0)
|   |   |   |   |   |   |   |   DT_DIGITA = 2.0150519E7: 5 (1.0)
|   |   |   |   |   |   |   |   DT_DIGITA = 2.0150524E7: 5 (0.0)
|   |   |   |   |   |   |   |   DT_DIGITA = 2.015052E7: 5 (0.0)
|   |   |   |   |   |   |   |   DT_DIGITA = 2.0150619E7: 5 (0.0)
|   |   |   |   |   |   |   |   DT_DIGITA = 2.0150614E7: 5 (0.0)
|   |   |   |   |   |   |   |   DT_DIGITA = 05/08/2015: 10 (3.0)
|   |   |   |   |   |   |   |   DT_DIGITA = 05/11/2015: 5 (5.0)
|   |   |   |   |   |   |   |   DT_DIGITA = 05/06/2015: 5 (0.0)
|   |   |   |   |   |   |   |   DT_DIGITA = 05/09/2015: 5 (0.0)
|   |   |   |   |   |   |   |   DT_DIGITA = 2.0150517E7: 5 (0.0)
|   |   |   |   |   |   |   |   DT_DIGITA = 2.0150523E7: 5 (0.0)
|   |   |   |   |   |   |   |   DT_DIGITA = 2.0150515E7: 5 (0.0)
|   |   |   |   |   |   |   |   DT_DIGITA = 05/10/2015: 5 (0.0)
|   |   |   |   |   |   |   |   DT_DIGITA = 05/12/2015
|   |   |   |   |   |   |   |   |   FX_NU_IDAD <= 6: 5 (6.0/1.0)
|   |   |   |   |   |   |   |   |   FX_NU_IDAD > 6: 10 (3.0)
|   |   |   |   |   |   |   |   DT_DIGITA = 2.0150513E7: 5 (0.0)
|   |   |   |   |   |   |   |   DT_DIGITA = 2.0150516E7: 5 (0.0)
|   |   |   |   |   |   |   |   DT_DIGITA = 2.0150518E7: 5 (7.0/2.0)
|   |   |   |   |   |   |   |   DT_DIGITA = 2.015042E7: 5 (0.0)
|   |   |   |   |   |   |   |   DT_DIGITA = 03/12/2015: 5 (0.0)
|   |   |   |   |   |   |   |   DT_DIGITA = 2.0150127E7: 5 (0.0)
|   |   |   |   |   |   |   |   DT_DIGITA = 04/06/2015: 5 (0.0)
|   |   |   |   |   |   |   |   DT_DIGITA = 2.0150414E7: 5 (0.0)
|   |   |   |   |   |   |   |   DT_DIGITA = 01/11/2015: 5 (0.0)
|   |   |   |   |   |   |   |   DT_DIGITA = 2.0150119E7: 5 (0.0)
|   |   |   |   |   |   |   |   DT_DIGITA = 02/02/2015: 5 (0.0)
|   |   |   |   |   |   |   |   DT_DIGITA = 03/04/2015: 5 (0.0)
|   |   |   |   |   |   |   |   DT_DIGITA = 03/06/2015: 5 (0.0)
|   |   |   |   |   |   |   |   DT_DIGITA = 2.0150128E7: 5 (0.0)
|   |   |   |   |   |   |   |   DT_DIGITA = 2.0150318E7: 5 (0.0)
|   |   |   |   |   |   |   |   DT_DIGITA = 2.0150116E7: 5 (0.0)
|   |   |   |   |   |   |   |   DT_DIGITA = 2.015012E7: 5 (0.0)
|   |   |   |   |   |   |   |   DT_DIGITA = 2.0150123E7: 5 (0.0)
|   |   |   |   |   |   |   |   DT_DIGITA = 2.0150122E7: 5 (0.0)
|   |   |   |   |   |   |   |   DT_DIGITA = 2.0150121E7: 5 (0.0)
|   |   |   |   |   |   |   |   DT_DIGITA = 2.0150215E7: 5 (0.0)
|   |   |   |   |   |   |   |   DT_DIGITA = 2.0150223E7: 5 (0.0)
|   |   |   |   |   |   |   |   DT_DIGITA = 2.0150224E7: 5 (0.0)
|   |   |   |   |   |   |   |   DT_DIGITA = 2.015022E7: 5 (0.0)
|   |   |   |   |   |   |   |   DT_DIGITA = 2.0150225E7: 5 (0.0)
|   |   |   |   |   |   |   |   DT_DIGITA = 2.0150115E7: 5 (0.0)
|   |   |   |   |   |   |   |   DT_DIGITA = 2.0150126E7: 5 (0.0)
|   |   |   |   |   |   |   |   DT_DIGITA = 2.0150213E7: 5 (0.0)
|   |   |   |   |   |   |   |   DT_DIGITA = 2.0150219E7: 5 (0.0)
|   |   |   |   |   |   |   |   DT_DIGITA = 2.0150226E7: 5 (0.0)
|   |   |   |   |   |   |   |   DT_DIGITA = 03/02/2015: 5 (0.0)
|   |   |   |   |   |   |   |   DT_DIGITA = 2.0150228E7: 5 (0.0)
|   |   |   |   |   |   |   |   DT_DIGITA = 2.0150227E7: 5 (0.0)
|   |   |   |   |   |   |   |   DT_DIGITA = 03/09/2015: 5 (0.0)
|   |   |   |   |   |   |   |   DT_DIGITA = 03/05/2015: 5 (0.0)
|   |   |   |   |   |   |   |   DT_DIGITA = 03/07/2015: 5 (0.0)
|   |   |   |   |   |   |   |   DT_DIGITA = 02/05/2015: 5 (0.0)
|   |   |   |   |   |   |   |   DT_DIGITA = 02/06/2015: 5 (0.0)
|   |   |   |   |   |   |   |   DT_DIGITA = 02/01/2015: 5 (0.0)
|   |   |   |   |   |   |   |   DT_DIGITA = 2.015013E7: 5 (0.0)
|   |   |   |   |   |   |   |   DT_DIGITA = 02/04/2015: 5 (0.0)
|   |   |   |   |   |   |   |   DT_DIGITA = 2.0150129E7: 5 (0.0)
|   |   |   |   |   |   |   |   DT_DIGITA = 01/05/2015: 5 (0.0)
|   |   |   |   |   |   |   |   DT_DIGITA = 01/07/2015: 5 (0.0)
|   |   |   |   |   |   |   |   DT_DIGITA = 01/09/2015: 5 (0.0)
|   |   |   |   |   |   |   |   DT_DIGITA = 02/09/2015: 5 (0.0)
|   |   |   |   |   |   |   |   DT_DIGITA = 2.0150125E7: 5 (0.0)
|   |   |   |   |   |   |   |   DT_DIGITA = 2.0150117E7: 5 (0.0)
|   |   |   |   |   |   |   |   DT_DIGITA = 03/03/2015: 5 (0.0)
|   |   |   |   |   |   |   |   DT_DIGITA = 2.0150216E7: 5 (0.0)
|   |   |   |   |   |   |   |   DT_DIGITA = 01/08/2015: 5 (0.0)
|   |   |   |   |   |   |   |   DT_DIGITA = 02/10/2015: 5 (0.0)
|   |   |   |   |   |   |   |   DT_DIGITA = 02/03/2015: 5 (0.0)
|   |   |   |   |   |   |   |   DT_DIGITA = 02/12/2015: 5 (0.0)
|   |   |   |   |   |   |   |   DT_DIGITA = 03/11/2015: 5 (0.0)
|   |   |   |   |   |   |   |   DT_DIGITA = 2.0150113E7: 5 (0.0)
|   |   |   |   |   |   |   |   DT_DIGITA = 2.0150324E7: 5 (0.0)
|   |   |   |   |   |   |   |   DT_DIGITA = 02/11/2015: 5 (0.0)
|   |   |   |   |   |   |   |   DT_DIGITA = 2.0150317E7: 5 (0.0)
|   |   |   |   |   |   |   |   DT_DIGITA = 2.0150313E7: 5 (0.0)
|   |   |   |   |   |   |   |   DT_DIGITA = 03/01/2015: 5 (0.0)
|   |   |   |   |   |   |   |   DT_DIGITA = 01/12/2015: 5 (0.0)
|   |   |   |   |   |   |   |   DT_DIGITA = 2.0150316E7: 5 (0.0)
|   |   |   |   |   |   |   |   DT_DIGITA = 2.0150315E7: 5 (0.0)
|   |   |   |   |   |   |   |   DT_DIGITA = 03/10/2015: 5 (0.0)
|   |   |   |   |   |   |   |   DT_DIGITA = 2.0150218E7: 5 (0.0)
|   |   |   |   |   |   |   |   DT_DIGITA = 02/07/2015: 5 (0.0)
|   |   |   |   |   |   |   |   DT_DIGITA = 01/04/2015: 5 (0.0)
|   |   |   |   |   |   |   |   DT_DIGITA = 2.0150217E7: 5 (0.0)
|   |   |   |   |   |   |   |   DT_DIGITA = 03/08/2015: 5 (0.0)
|   |   |   |   |   |   |   |   DT_DIGITA = 2.0150424E7: 5 (0.0)
|   |   |   |   |   |   |   |   DT_DIGITA = 2.0150314E7: 5 (0.0)
|   |   |   |   |   |   |   |   DT_DIGITA = 04/04/2015: 5 (0.0)
|   |   |   |   |   |   |   |   DT_DIGITA = 04/10/2015: 5 (0.0)
|   |   |   |   |   |   |   |   DT_DIGITA = 2.0150415E7: 5 (0.0)
|   |   |   |   |   |   |   |   DT_DIGITA = 2.0150114E7: 5 (0.0)
|   |   |   |   |   |   |   |   DT_DIGITA = 01/06/2015: 5 (0.0)
|   |   |   |   |   |   |   |   DT_DIGITA = 2.0150427E7: 5 (0.0)
|   |   |   |   |   |   |   |   DT_DIGITA = 2.0150425E7: 5 (0.0)
|   |   |   |   |   |   |   |   DT_DIGITA = 2.0150428E7: 5 (0.0)
|   |   |   |   |   |   |   |   DT_DIGITA = 2.0150418E7: 5 (0.0)
|   |   |   |   |   |   |   |   DT_DIGITA = 04/01/2015: 5 (0.0)
|   |   |   |   |   |   |   |   DT_DIGITA = 2.0150417E7: 5 (0.0)
|   |   |   |   |   |   |   |   DT_DIGITA = 2.0150331E7: 5 (0.0)
|   |   |   |   |   |   |   |   DT_DIGITA = 2.0150419E7: 5 (0.0)
|   |   |   |   |   |   |   |   DT_DIGITA = 2.015033E7: 5 (0.0)
|   |   |   |   |   |   |   |   DT_DIGITA = 2.0150421E7: 5 (0.0)
|   |   |   |   |   |   |   |   DT_DIGITA = 04/08/2015: 5 (0.0)
|   |   |   |   |   |   |   |   DT_DIGITA = 04/02/2015: 5 (0.0)
|   |   |   |   |   |   |   |   DT_DIGITA = 2.0150323E7: 5 (0.0)
|   |   |   |   |   |   |   |   DT_DIGITA = 04/09/2015: 5 (0.0)
|   |   |   |   |   |   |   |   DT_DIGITA = 04/07/2015: 5 (0.0)
|   |   |   |   |   |   |   |   DT_DIGITA = 2.0150326E7: 5 (0.0)
|   |   |   |   |   |   |   |   DT_DIGITA = 2.015032E7: 5 (0.0)
|   |   |   |   |   |   |   |   DT_DIGITA = 2.0150322E7: 5 (0.0)
|   |   |   |   |   |   |   |   DT_DIGITA = 05/01/2015: 5 (0.0)
|   |   |   |   |   |   |   |   DT_DIGITA = 2.015043E7: 5 (0.0)
|   |   |   |   |   |   |   |   DT_DIGITA = 05/04/2015: 5 (0.0)
|   |   |   |   |   |   |   |   DT_DIGITA = 05/05/2015: 5 (0.0)
|   |   |   |   |   |   |   |   DT_DIGITA = 05/02/2015: 5 (0.0)
|   |   |   |   |   |   |   |   DT_DIGITA = 05/03/2015: 5 (0.0)
|   |   |   |   |   |   |   |   DT_DIGITA = 2.0150416E7: 5 (0.0)
|   |   |   |   |   |   |   |   DT_DIGITA = 2.0150423E7: 5 (0.0)
|   |   |   |   |   |   |   |   DT_DIGITA = 2.0150422E7: 5 (0.0)
|   |   |   |   |   |   |   |   DT_DIGITA = 04/03/2015: 5 (0.0)
|   |   |   |   |   |   |   |   DT_DIGITA = 04/12/2015: 5 (0.0)
|   |   |   |   |   |   |   |   DT_DIGITA = 04/11/2015: 5 (0.0)
|   |   |   |   |   |   |   |   DT_DIGITA = 2.0150429E7: 5 (0.0)
|   |   |   |   |   |   |   |   DT_DIGITA = 2.0150328E7: 5 (0.0)
|   |   |   |   |   |   |   |   DT_DIGITA = 2.0150325E7: 5 (0.0)
|   |   |   |   |   |   |   |   DT_DIGITA = 04/05/2015: 5 (0.0)
|   |   |   |   |   |   |   |   DT_DIGITA = 2.0150327E7: 5 (0.0)
|   |   |   |   |   |   |   |   DT_DIGITA = 2.0150329E7: 5 (0.0)
|   |   |   |   |   |   |   |   DT_DIGITA = 2.0150321E7: 5 (0.0)
|   |   |   |   |   |   |   |   DT_DIGITA = 2.0150426E7: 5 (0.0)
|   |   |   |   |   |   DT_ENCERRA = 05/12/2015: 5 (6.5/0.37)
|   |   |   |   |   |   DT_ENCERRA = 2.0150618E7: 5 (15.52/4.52)
|   |   |   |   |   |   DT_ENCERRA = 2.0150526E7
|   |   |   |   |   |   |   SEM_NOT <= 201517: 5 (15.86/1.86)
|   |   |   |   |   |   |   SEM_NOT > 201517
|   |   |   |   |   |   |   |   CS_SEXO = F: 10 (14.13/1.0)
|   |   |   |   |   |   |   |   CS_SEXO = M: 5 (5.89/1.37)
|   |   |   |   |   |   |   |   CS_SEXO = I: 10 (0.0)
|   |   |   |   |   |   DT_ENCERRA = 06/04/2015: 10 (1.86)
|   |   |   |   |   |   DT_ENCERRA = 06/01/2015: 10 (11.21/4.25)
|   |   |   |   |   |   DT_ENCERRA = 06/12/2015
|   |   |   |   |   |   |   ID_UNIDADE <= 7103255: 10 (13.27/2.34)
|   |   |   |   |   |   |   ID_UNIDADE > 7103255: 5 (38.61/6.36)
|   |   |   |   |   |   DT_ENCERRA = 06/06/2015: 10 (5.71/1.0)
|   |   |   |   |   |   DT_ENCERRA = 06/05/2015: 10 (3.95)
|   |   |   |   |   |   DT_ENCERRA = 2.0150617E7
|   |   |   |   |   |   |   ID_UNIDADE <= 2516691
|   |   |   |   |   |   |   |   SEM_PRI_NO <= 22: 10 (6.13)
|   |   |   |   |   |   |   |   SEM_PRI_NO > 22
|   |   |   |   |   |   |   |   |   ID_BAIRRO <= 100: 5 (2.04/0.04)
|   |   |   |   |   |   |   |   |   ID_BAIRRO > 100: 10 (4.09)
|   |   |   |   |   |   |   ID_UNIDADE > 2516691
|   |   |   |   |   |   |   |   IDENT_MICR <= 4: 5 (55.94/2.38)
|   |   |   |   |   |   |   |   IDENT_MICR > 4: 10 (2.38)
|   |   |   |   |   |   DT_ENCERRA = 06/02/2015: 5 (18.05/7.79)
|   |   |   |   |   |   DT_ENCERRA = 2.0150522E7
|   |   |   |   |   |   |   DT_DIGITA = 06/09/2015: 5 (0.0)
|   |   |   |   |   |   |   DT_DIGITA = 06/12/2015: 5 (0.0)
|   |   |   |   |   |   |   DT_DIGITA = 2.0150613E7: 5 (0.0)
|   |   |   |   |   |   |   DT_DIGITA = 2.0150615E7: 5 (0.0)
|   |   |   |   |   |   |   DT_DIGITA = 06/10/2015: 5 (0.0)
|   |   |   |   |   |   |   DT_DIGITA = 2.0150616E7: 5 (0.0)
|   |   |   |   |   |   |   DT_DIGITA = 06/08/2015: 5 (0.0)
|   |   |   |   |   |   |   DT_DIGITA = 2.0150618E7: 5 (0.0)
|   |   |   |   |   |   |   DT_DIGITA = 06/11/2015: 5 (0.0)
|   |   |   |   |   |   |   DT_DIGITA = 2.0150319E7: 5 (0.0)
|   |   |   |   |   |   |   DT_DIGITA = 06/05/2015: 5 (0.0)
|   |   |   |   |   |   |   DT_DIGITA = 2.015053E7: 5 (0.0)
|   |   |   |   |   |   |   DT_DIGITA = 2.0150526E7: 5 (0.0)
|   |   |   |   |   |   |   DT_DIGITA = 06/04/2015: 5 (0.0)
|   |   |   |   |   |   |   DT_DIGITA = 06/02/2015: 5 (0.0)
|   |   |   |   |   |   |   DT_DIGITA = 06/07/2015: 5 (0.0)
|   |   |   |   |   |   |   DT_DIGITA = 06/06/2015: 5 (0.0)
|   |   |   |   |   |   |   DT_DIGITA = 2.0150531E7: 5 (0.0)
|   |   |   |   |   |   |   DT_DIGITA = 06/03/2015: 5 (0.0)
|   |   |   |   |   |   |   DT_DIGITA = 2.0150527E7: 5 (0.0)
|   |   |   |   |   |   |   DT_DIGITA = 2.0150617E7: 5 (0.0)
|   |   |   |   |   |   |   DT_DIGITA = 06/01/2015: 5 (0.0)
|   |   |   |   |   |   |   DT_DIGITA = 2.0150528E7: 10 (0.52/0.13)
|   |   |   |   |   |   |   DT_DIGITA = 2.0150529E7: 5 (0.0)
|   |   |   |   |   |   |   DT_DIGITA = 05/07/2015: 5 (0.0)
|   |   |   |   |   |   |   DT_DIGITA = 2.0150514E7: 5 (0.0)
|   |   |   |   |   |   |   DT_DIGITA = 2.0150525E7: 5 (0.0)
|   |   |   |   |   |   |   DT_DIGITA = 2.0150522E7: 10 (3.47)
|   |   |   |   |   |   |   DT_DIGITA = 2.0150521E7: 5 (0.0)
|   |   |   |   |   |   |   DT_DIGITA = 2.0150519E7: 5 (0.0)
|   |   |   |   |   |   |   DT_DIGITA = 2.0150524E7: 5 (0.0)
|   |   |   |   |   |   |   DT_DIGITA = 2.015052E7: 5 (0.0)
|   |   |   |   |   |   |   DT_DIGITA = 2.0150619E7: 5 (0.0)
|   |   |   |   |   |   |   DT_DIGITA = 2.0150614E7: 5 (0.0)
|   |   |   |   |   |   |   DT_DIGITA = 05/08/2015: 5 (0.0)
|   |   |   |   |   |   |   DT_DIGITA = 05/11/2015: 5 (0.0)
|   |   |   |   |   |   |   DT_DIGITA = 05/06/2015: 5 (0.0)
|   |   |   |   |   |   |   DT_DIGITA = 05/09/2015: 5 (0.0)
|   |   |   |   |   |   |   DT_DIGITA = 2.0150517E7: 5 (0.0)
|   |   |   |   |   |   |   DT_DIGITA = 2.0150523E7: 5 (0.0)
|   |   |   |   |   |   |   DT_DIGITA = 2.0150515E7: 5 (0.0)
|   |   |   |   |   |   |   DT_DIGITA = 05/10/2015: 5 (0.0)
|   |   |   |   |   |   |   DT_DIGITA = 05/12/2015: 5 (0.0)
|   |   |   |   |   |   |   DT_DIGITA = 2.0150513E7: 5 (0.0)
|   |   |   |   |   |   |   DT_DIGITA = 2.0150516E7: 5 (0.0)
|   |   |   |   |   |   |   DT_DIGITA = 2.0150518E7: 5 (0.0)
|   |   |   |   |   |   |   DT_DIGITA = 2.015042E7: 5 (0.0)
|   |   |   |   |   |   |   DT_DIGITA = 03/12/2015: 5 (0.0)
|   |   |   |   |   |   |   DT_DIGITA = 2.0150127E7: 5 (0.0)
|   |   |   |   |   |   |   DT_DIGITA = 04/06/2015: 5 (0.0)
|   |   |   |   |   |   |   DT_DIGITA = 2.0150414E7: 5 (0.0)
|   |   |   |   |   |   |   DT_DIGITA = 01/11/2015: 5 (0.0)
|   |   |   |   |   |   |   DT_DIGITA = 2.0150119E7: 5 (0.0)
|   |   |   |   |   |   |   DT_DIGITA = 02/02/2015: 5 (0.0)
|   |   |   |   |   |   |   DT_DIGITA = 03/04/2015: 5 (0.0)
|   |   |   |   |   |   |   DT_DIGITA = 03/06/2015: 5 (0.0)
|   |   |   |   |   |   |   DT_DIGITA = 2.0150128E7: 5 (0.0)
|   |   |   |   |   |   |   DT_DIGITA = 2.0150318E7: 5 (0.0)
|   |   |   |   |   |   |   DT_DIGITA = 2.0150116E7: 5 (0.0)
|   |   |   |   |   |   |   DT_DIGITA = 2.015012E7: 5 (0.0)
|   |   |   |   |   |   |   DT_DIGITA = 2.0150123E7: 5 (0.0)
|   |   |   |   |   |   |   DT_DIGITA = 2.0150122E7: 5 (0.0)
|   |   |   |   |   |   |   DT_DIGITA = 2.0150121E7: 5 (0.0)
|   |   |   |   |   |   |   DT_DIGITA = 2.0150215E7: 5 (0.0)
|   |   |   |   |   |   |   DT_DIGITA = 2.0150223E7: 5 (0.0)
|   |   |   |   |   |   |   DT_DIGITA = 2.0150224E7: 5 (0.0)
|   |   |   |   |   |   |   DT_DIGITA = 2.015022E7: 5 (0.0)
|   |   |   |   |   |   |   DT_DIGITA = 2.0150225E7: 5 (0.0)
|   |   |   |   |   |   |   DT_DIGITA = 2.0150115E7: 5 (0.0)
|   |   |   |   |   |   |   DT_DIGITA = 2.0150126E7: 5 (0.0)
|   |   |   |   |   |   |   DT_DIGITA = 2.0150213E7: 5 (0.0)
|   |   |   |   |   |   |   DT_DIGITA = 2.0150219E7: 5 (0.0)
|   |   |   |   |   |   |   DT_DIGITA = 2.0150226E7: 5 (0.0)
|   |   |   |   |   |   |   DT_DIGITA = 03/02/2015: 5 (0.0)
|   |   |   |   |   |   |   DT_DIGITA = 2.0150228E7: 5 (0.0)
|   |   |   |   |   |   |   DT_DIGITA = 2.0150227E7: 5 (0.0)
|   |   |   |   |   |   |   DT_DIGITA = 03/09/2015: 5 (0.0)
|   |   |   |   |   |   |   DT_DIGITA = 03/05/2015: 5 (0.0)
|   |   |   |   |   |   |   DT_DIGITA = 03/07/2015: 5 (0.0)
|   |   |   |   |   |   |   DT_DIGITA = 02/05/2015: 5 (0.0)
|   |   |   |   |   |   |   DT_DIGITA = 02/06/2015: 5 (0.0)
|   |   |   |   |   |   |   DT_DIGITA = 02/01/2015: 5 (0.0)
|   |   |   |   |   |   |   DT_DIGITA = 2.015013E7: 5 (0.0)
|   |   |   |   |   |   |   DT_DIGITA = 02/04/2015: 5 (0.0)
|   |   |   |   |   |   |   DT_DIGITA = 2.0150129E7: 5 (0.0)
|   |   |   |   |   |   |   DT_DIGITA = 01/05/2015: 5 (0.0)
|   |   |   |   |   |   |   DT_DIGITA = 01/07/2015: 5 (0.0)
|   |   |   |   |   |   |   DT_DIGITA = 01/09/2015: 5 (0.0)
|   |   |   |   |   |   |   DT_DIGITA = 02/09/2015: 5 (0.0)
|   |   |   |   |   |   |   DT_DIGITA = 2.0150125E7: 5 (0.0)
|   |   |   |   |   |   |   DT_DIGITA = 2.0150117E7: 5 (0.0)
|   |   |   |   |   |   |   DT_DIGITA = 03/03/2015: 5 (0.0)
|   |   |   |   |   |   |   DT_DIGITA = 2.0150216E7: 5 (0.0)
|   |   |   |   |   |   |   DT_DIGITA = 01/08/2015: 5 (0.0)
|   |   |   |   |   |   |   DT_DIGITA = 02/10/2015: 5 (0.0)
|   |   |   |   |   |   |   DT_DIGITA = 02/03/2015: 5 (0.0)
|   |   |   |   |   |   |   DT_DIGITA = 02/12/2015: 5 (0.0)
|   |   |   |   |   |   |   DT_DIGITA = 03/11/2015: 5 (0.0)
|   |   |   |   |   |   |   DT_DIGITA = 2.0150113E7: 5 (0.0)
|   |   |   |   |   |   |   DT_DIGITA = 2.0150324E7: 5 (0.0)
|   |   |   |   |   |   |   DT_DIGITA = 02/11/2015: 5 (0.0)
|   |   |   |   |   |   |   DT_DIGITA = 2.0150317E7: 5 (0.0)
|   |   |   |   |   |   |   DT_DIGITA = 2.0150313E7: 5 (0.0)
|   |   |   |   |   |   |   DT_DIGITA = 03/01/2015: 5 (0.0)
|   |   |   |   |   |   |   DT_DIGITA = 01/12/2015: 5 (0.0)
|   |   |   |   |   |   |   DT_DIGITA = 2.0150316E7: 5 (0.0)
|   |   |   |   |   |   |   DT_DIGITA = 2.0150315E7: 5 (0.0)
|   |   |   |   |   |   |   DT_DIGITA = 03/10/2015: 5 (0.0)
|   |   |   |   |   |   |   DT_DIGITA = 2.0150218E7: 5 (0.0)
|   |   |   |   |   |   |   DT_DIGITA = 02/07/2015: 5 (0.0)
|   |   |   |   |   |   |   DT_DIGITA = 01/04/2015: 5 (0.0)
|   |   |   |   |   |   |   DT_DIGITA = 2.0150217E7: 5 (0.0)
|   |   |   |   |   |   |   DT_DIGITA = 03/08/2015: 5 (0.0)
|   |   |   |   |   |   |   DT_DIGITA = 2.0150424E7: 5 (0.0)
|   |   |   |   |   |   |   DT_DIGITA = 2.0150314E7: 5 (0.0)
|   |   |   |   |   |   |   DT_DIGITA = 04/04/2015: 5 (0.0)
|   |   |   |   |   |   |   DT_DIGITA = 04/10/2015: 5 (0.0)
|   |   |   |   |   |   |   DT_DIGITA = 2.0150415E7: 5 (0.0)
|   |   |   |   |   |   |   DT_DIGITA = 2.0150114E7: 5 (0.0)
|   |   |   |   |   |   |   DT_DIGITA = 01/06/2015: 5 (0.0)
|   |   |   |   |   |   |   DT_DIGITA = 2.0150427E7: 5 (0.0)
|   |   |   |   |   |   |   DT_DIGITA = 2.0150425E7: 5 (0.0)
|   |   |   |   |   |   |   DT_DIGITA = 2.0150428E7: 5 (0.0)
|   |   |   |   |   |   |   DT_DIGITA = 2.0150418E7: 5 (0.0)
|   |   |   |   |   |   |   DT_DIGITA = 04/01/2015: 5 (0.0)
|   |   |   |   |   |   |   DT_DIGITA = 2.0150417E7: 5 (0.0)
|   |   |   |   |   |   |   DT_DIGITA = 2.0150331E7: 5 (0.0)
|   |   |   |   |   |   |   DT_DIGITA = 2.0150419E7: 5 (0.0)
|   |   |   |   |   |   |   DT_DIGITA = 2.015033E7: 5 (0.0)
|   |   |   |   |   |   |   DT_DIGITA = 2.0150421E7: 5 (0.0)
|   |   |   |   |   |   |   DT_DIGITA = 04/08/2015: 5 (0.0)
|   |   |   |   |   |   |   DT_DIGITA = 04/02/2015: 5 (0.0)
|   |   |   |   |   |   |   DT_DIGITA = 2.0150323E7: 5 (0.0)
|   |   |   |   |   |   |   DT_DIGITA = 04/09/2015: 5 (0.0)
|   |   |   |   |   |   |   DT_DIGITA = 04/07/2015: 5 (0.0)
|   |   |   |   |   |   |   DT_DIGITA = 2.0150326E7: 5 (0.0)
|   |   |   |   |   |   |   DT_DIGITA = 2.015032E7: 5 (0.0)
|   |   |   |   |   |   |   DT_DIGITA = 2.0150322E7: 5 (0.0)
|   |   |   |   |   |   |   DT_DIGITA = 05/01/2015: 5 (0.0)
|   |   |   |   |   |   |   DT_DIGITA = 2.015043E7: 10 (0.11)
|   |   |   |   |   |   |   DT_DIGITA = 05/04/2015: 5 (0.0)
|   |   |   |   |   |   |   DT_DIGITA = 05/05/2015: 5 (0.0)
|   |   |   |   |   |   |   DT_DIGITA = 05/02/2015: 5 (0.0)
|   |   |   |   |   |   |   DT_DIGITA = 05/03/2015: 5 (4.0)
|   |   |   |   |   |   |   DT_DIGITA = 2.0150416E7: 5 (0.0)
|   |   |   |   |   |   |   DT_DIGITA = 2.0150423E7: 5 (0.0)
|   |   |   |   |   |   |   DT_DIGITA = 2.0150422E7: 10 (0.11)
|   |   |   |   |   |   |   DT_DIGITA = 04/03/2015: 5 (0.0)
|   |   |   |   |   |   |   DT_DIGITA = 04/12/2015: 5 (0.0)
|   |   |   |   |   |   |   DT_DIGITA = 04/11/2015: 5 (0.0)
|   |   |   |   |   |   |   DT_DIGITA = 2.0150429E7: 5 (0.0)
|   |   |   |   |   |   |   DT_DIGITA = 2.0150328E7: 5 (0.0)
|   |   |   |   |   |   |   DT_DIGITA = 2.0150325E7: 5 (0.0)
|   |   |   |   |   |   |   DT_DIGITA = 04/05/2015: 5 (0.0)
|   |   |   |   |   |   |   DT_DIGITA = 2.0150327E7: 5 (0.0)
|   |   |   |   |   |   |   DT_DIGITA = 2.0150329E7: 5 (0.0)
|   |   |   |   |   |   |   DT_DIGITA = 2.0150321E7: 5 (0.0)
|   |   |   |   |   |   |   DT_DIGITA = 2.0150426E7: 5 (0.0)
|   |   |   |   |   |   DT_ENCERRA = 2.0150528E7: 5 (42.77/11.8)
|   |   |   |   |   |   DT_ENCERRA = 2.0150525E7: 10 (4.36/0.13)
|   |   |   |   |   |   DT_ENCERRA = 06/10/2015
|   |   |   |   |   |   |   DT_DIGITA = 06/09/2015: 5 (0.0)
|   |   |   |   |   |   |   DT_DIGITA = 06/12/2015: 5 (0.0)
|   |   |   |   |   |   |   DT_DIGITA = 2.0150613E7: 5 (0.0)
|   |   |   |   |   |   |   DT_DIGITA = 2.0150615E7: 5 (0.0)
|   |   |   |   |   |   |   DT_DIGITA = 06/10/2015: 10 (10.34)
|   |   |   |   |   |   |   DT_DIGITA = 2.0150616E7: 5 (0.0)
|   |   |   |   |   |   |   DT_DIGITA = 06/08/2015: 10 (0.23)
|   |   |   |   |   |   |   DT_DIGITA = 2.0150618E7: 5 (0.0)
|   |   |   |   |   |   |   DT_DIGITA = 06/11/2015
|   |   |   |   |   |   |   |   NU_NOTIFIC <= 47715: 10 (9.16/3.52)
|   |   |   |   |   |   |   |   NU_NOTIFIC > 47715: 5 (5.0/1.0)
|   |   |   |   |   |   |   DT_DIGITA = 2.0150319E7: 5 (0.0)
|   |   |   |   |   |   |   DT_DIGITA = 06/05/2015: 10 (0.11)
|   |   |   |   |   |   |   DT_DIGITA = 2.015053E7: 5 (0.0)
|   |   |   |   |   |   |   DT_DIGITA = 2.0150526E7: 5 (37.79/11.26)
|   |   |   |   |   |   |   DT_DIGITA = 06/04/2015: 5 (0.0)
|   |   |   |   |   |   |   DT_DIGITA = 06/02/2015: 5 (0.0)
|   |   |   |   |   |   |   DT_DIGITA = 06/07/2015: 5 (0.0)
|   |   |   |   |   |   |   DT_DIGITA = 06/06/2015: 5 (0.0)
|   |   |   |   |   |   |   DT_DIGITA = 2.0150531E7: 5 (0.0)
|   |   |   |   |   |   |   DT_DIGITA = 06/03/2015: 10 (1.24/0.68)
|   |   |   |   |   |   |   DT_DIGITA = 2.0150527E7: 5 (0.23/0.11)
|   |   |   |   |   |   |   DT_DIGITA = 2.0150617E7: 10 (0.13)
|   |   |   |   |   |   |   DT_DIGITA = 06/01/2015: 5 (0.0)
|   |   |   |   |   |   |   DT_DIGITA = 2.0150528E7: 5 (0.0)
|   |   |   |   |   |   |   DT_DIGITA = 2.0150529E7: 5 (0.0)
|   |   |   |   |   |   |   DT_DIGITA = 05/07/2015: 5 (0.0)
|   |   |   |   |   |   |   DT_DIGITA = 2.0150514E7: 5 (0.26)
|   |   |   |   |   |   |   DT_DIGITA = 2.0150525E7: 5 (0.0)
|   |   |   |   |   |   |   DT_DIGITA = 2.0150522E7: 5 (16.26/2.0)
|   |   |   |   |   |   |   DT_DIGITA = 2.0150521E7: 5 (7.04/1.24)
|   |   |   |   |   |   |   DT_DIGITA = 2.0150519E7: 10 (1.0)
|   |   |   |   |   |   |   DT_DIGITA = 2.0150524E7: 5 (0.0)
|   |   |   |   |   |   |   DT_DIGITA = 2.015052E7: 5 (12.64/3.26)
|   |   |   |   |   |   |   DT_DIGITA = 2.0150619E7: 5 (0.0)
|   |   |   |   |   |   |   DT_DIGITA = 2.0150614E7: 5 (0.0)
|   |   |   |   |   |   |   DT_DIGITA = 05/08/2015: 5 (0.0)
|   |   |   |   |   |   |   DT_DIGITA = 05/11/2015: 5 (0.0)
|   |   |   |   |   |   |   DT_DIGITA = 05/06/2015: 5 (0.0)
|   |   |   |   |   |   |   DT_DIGITA = 05/09/2015: 5 (0.0)
|   |   |   |   |   |   |   DT_DIGITA = 2.0150517E7: 5 (0.0)
|   |   |   |   |   |   |   DT_DIGITA = 2.0150523E7: 5 (0.0)
|   |   |   |   |   |   |   DT_DIGITA = 2.0150515E7: 5 (0.0)
|   |   |   |   |   |   |   DT_DIGITA = 05/10/2015: 5 (0.0)
|   |   |   |   |   |   |   DT_DIGITA = 05/12/2015: 5 (0.0)
|   |   |   |   |   |   |   DT_DIGITA = 2.0150513E7: 5 (0.34/0.11)
|   |   |   |   |   |   |   DT_DIGITA = 2.0150516E7: 5 (0.0)
|   |   |   |   |   |   |   DT_DIGITA = 2.0150518E7: 10 (0.11)
|   |   |   |   |   |   |   DT_DIGITA = 2.015042E7: 5 (0.0)
|   |   |   |   |   |   |   DT_DIGITA = 03/12/2015: 5 (0.0)
|   |   |   |   |   |   |   DT_DIGITA = 2.0150127E7: 5 (0.0)
|   |   |   |   |   |   |   DT_DIGITA = 04/06/2015: 5 (0.0)
|   |   |   |   |   |   |   DT_DIGITA = 2.0150414E7: 5 (0.0)
|   |   |   |   |   |   |   DT_DIGITA = 01/11/2015: 5 (0.0)
|   |   |   |   |   |   |   DT_DIGITA = 2.0150119E7: 5 (0.0)
|   |   |   |   |   |   |   DT_DIGITA = 02/02/2015: 5 (0.0)
|   |   |   |   |   |   |   DT_DIGITA = 03/04/2015: 5 (0.0)
|   |   |   |   |   |   |   DT_DIGITA = 03/06/2015: 5 (0.0)
|   |   |   |   |   |   |   DT_DIGITA = 2.0150128E7: 5 (0.0)
|   |   |   |   |   |   |   DT_DIGITA = 2.0150318E7: 5 (0.0)
|   |   |   |   |   |   |   DT_DIGITA = 2.0150116E7: 5 (0.0)
|   |   |   |   |   |   |   DT_DIGITA = 2.015012E7: 5 (0.0)
|   |   |   |   |   |   |   DT_DIGITA = 2.0150123E7: 5 (0.0)
|   |   |   |   |   |   |   DT_DIGITA = 2.0150122E7: 5 (0.0)
|   |   |   |   |   |   |   DT_DIGITA = 2.0150121E7: 5 (0.0)
|   |   |   |   |   |   |   DT_DIGITA = 2.0150215E7: 5 (0.0)
|   |   |   |   |   |   |   DT_DIGITA = 2.0150223E7: 5 (0.0)
|   |   |   |   |   |   |   DT_DIGITA = 2.0150224E7: 5 (0.0)
|   |   |   |   |   |   |   DT_DIGITA = 2.015022E7: 5 (0.0)
|   |   |   |   |   |   |   DT_DIGITA = 2.0150225E7: 5 (0.0)
|   |   |   |   |   |   |   DT_DIGITA = 2.0150115E7: 5 (0.0)
|   |   |   |   |   |   |   DT_DIGITA = 2.0150126E7: 5 (0.0)
|   |   |   |   |   |   |   DT_DIGITA = 2.0150213E7: 5 (0.0)
|   |   |   |   |   |   |   DT_DIGITA = 2.0150219E7: 5 (0.0)
|   |   |   |   |   |   |   DT_DIGITA = 2.0150226E7: 5 (0.0)
|   |   |   |   |   |   |   DT_DIGITA = 03/02/2015: 5 (0.0)
|   |   |   |   |   |   |   DT_DIGITA = 2.0150228E7: 5 (0.0)
|   |   |   |   |   |   |   DT_DIGITA = 2.0150227E7: 5 (0.0)
|   |   |   |   |   |   |   DT_DIGITA = 03/09/2015: 5 (0.0)
|   |   |   |   |   |   |   DT_DIGITA = 03/05/2015: 5 (0.0)
|   |   |   |   |   |   |   DT_DIGITA = 03/07/2015: 5 (0.0)
|   |   |   |   |   |   |   DT_DIGITA = 02/05/2015: 5 (0.0)
|   |   |   |   |   |   |   DT_DIGITA = 02/06/2015: 5 (0.0)
|   |   |   |   |   |   |   DT_DIGITA = 02/01/2015: 5 (0.0)
|   |   |   |   |   |   |   DT_DIGITA = 2.015013E7: 5 (0.0)
|   |   |   |   |   |   |   DT_DIGITA = 02/04/2015: 5 (0.0)
|   |   |   |   |   |   |   DT_DIGITA = 2.0150129E7: 5 (0.0)
|   |   |   |   |   |   |   DT_DIGITA = 01/05/2015: 5 (0.0)
|   |   |   |   |   |   |   DT_DIGITA = 01/07/2015: 5 (0.0)
|   |   |   |   |   |   |   DT_DIGITA = 01/09/2015: 5 (0.0)
|   |   |   |   |   |   |   DT_DIGITA = 02/09/2015: 5 (0.0)
|   |   |   |   |   |   |   DT_DIGITA = 2.0150125E7: 5 (0.0)
|   |   |   |   |   |   |   DT_DIGITA = 2.0150117E7: 5 (0.0)
|   |   |   |   |   |   |   DT_DIGITA = 03/03/2015: 5 (0.0)
|   |   |   |   |   |   |   DT_DIGITA = 2.0150216E7: 5 (0.0)
|   |   |   |   |   |   |   DT_DIGITA = 01/08/2015: 5 (0.0)
|   |   |   |   |   |   |   DT_DIGITA = 02/10/2015: 5 (0.0)
|   |   |   |   |   |   |   DT_DIGITA = 02/03/2015: 5 (0.0)
|   |   |   |   |   |   |   DT_DIGITA = 02/12/2015: 5 (0.0)
|   |   |   |   |   |   |   DT_DIGITA = 03/11/2015: 5 (0.0)
|   |   |   |   |   |   |   DT_DIGITA = 2.0150113E7: 5 (0.0)
|   |   |   |   |   |   |   DT_DIGITA = 2.0150324E7: 5 (0.0)
|   |   |   |   |   |   |   DT_DIGITA = 02/11/2015: 5 (0.0)
|   |   |   |   |   |   |   DT_DIGITA = 2.0150317E7: 5 (0.0)
|   |   |   |   |   |   |   DT_DIGITA = 2.0150313E7: 5 (0.0)
|   |   |   |   |   |   |   DT_DIGITA = 03/01/2015: 5 (0.0)
|   |   |   |   |   |   |   DT_DIGITA = 01/12/2015: 5 (0.0)
|   |   |   |   |   |   |   DT_DIGITA = 2.0150316E7: 5 (0.0)
|   |   |   |   |   |   |   DT_DIGITA = 2.0150315E7: 5 (0.0)
|   |   |   |   |   |   |   DT_DIGITA = 03/10/2015: 5 (0.0)
|   |   |   |   |   |   |   DT_DIGITA = 2.0150218E7: 5 (0.0)
|   |   |   |   |   |   |   DT_DIGITA = 02/07/2015: 5 (0.0)
|   |   |   |   |   |   |   DT_DIGITA = 01/04/2015: 5 (0.0)
|   |   |   |   |   |   |   DT_DIGITA = 2.0150217E7: 5 (0.0)
|   |   |   |   |   |   |   DT_DIGITA = 03/08/2015: 5 (0.0)
|   |   |   |   |   |   |   DT_DIGITA = 2.0150424E7: 5 (0.0)
|   |   |   |   |   |   |   DT_DIGITA = 2.0150314E7: 5 (0.0)
|   |   |   |   |   |   |   DT_DIGITA = 04/04/2015: 5 (0.0)
|   |   |   |   |   |   |   DT_DIGITA = 04/10/2015: 5 (0.0)
|   |   |   |   |   |   |   DT_DIGITA = 2.0150415E7: 5 (0.0)
|   |   |   |   |   |   |   DT_DIGITA = 2.0150114E7: 5 (0.0)
|   |   |   |   |   |   |   DT_DIGITA = 01/06/2015: 5 (0.0)
|   |   |   |   |   |   |   DT_DIGITA = 2.0150427E7: 5 (0.0)
|   |   |   |   |   |   |   DT_DIGITA = 2.0150425E7: 5 (0.0)
|   |   |   |   |   |   |   DT_DIGITA = 2.0150428E7: 5 (0.0)
|   |   |   |   |   |   |   DT_DIGITA = 2.0150418E7: 5 (0.0)
|   |   |   |   |   |   |   DT_DIGITA = 04/01/2015: 5 (0.0)
|   |   |   |   |   |   |   DT_DIGITA = 2.0150417E7: 5 (0.0)
|   |   |   |   |   |   |   DT_DIGITA = 2.0150331E7: 5 (0.0)
|   |   |   |   |   |   |   DT_DIGITA = 2.0150419E7: 5 (0.0)
|   |   |   |   |   |   |   DT_DIGITA = 2.015033E7: 5 (0.0)
|   |   |   |   |   |   |   DT_DIGITA = 2.0150421E7: 5 (0.0)
|   |   |   |   |   |   |   DT_DIGITA = 04/08/2015: 5 (0.0)
|   |   |   |   |   |   |   DT_DIGITA = 04/02/2015: 5 (0.0)
|   |   |   |   |   |   |   DT_DIGITA = 2.0150323E7: 5 (0.0)
|   |   |   |   |   |   |   DT_DIGITA = 04/09/2015: 5 (0.0)
|   |   |   |   |   |   |   DT_DIGITA = 04/07/2015: 5 (0.0)
|   |   |   |   |   |   |   DT_DIGITA = 2.0150326E7: 5 (0.0)
|   |   |   |   |   |   |   DT_DIGITA = 2.015032E7: 5 (0.0)
|   |   |   |   |   |   |   DT_DIGITA = 2.0150322E7: 5 (0.0)
|   |   |   |   |   |   |   DT_DIGITA = 05/01/2015: 5 (1.0)
|   |   |   |   |   |   |   DT_DIGITA = 2.015043E7: 5 (0.0)
|   |   |   |   |   |   |   DT_DIGITA = 05/04/2015: 5 (0.0)
|   |   |   |   |   |   |   DT_DIGITA = 05/05/2015: 5 (0.0)
|   |   |   |   |   |   |   DT_DIGITA = 05/02/2015: 5 (0.0)
|   |   |   |   |   |   |   DT_DIGITA = 05/03/2015: 5 (0.0)
|   |   |   |   |   |   |   DT_DIGITA = 2.0150416E7: 5 (0.0)
|   |   |   |   |   |   |   DT_DIGITA = 2.0150423E7: 5 (0.0)
|   |   |   |   |   |   |   DT_DIGITA = 2.0150422E7: 5 (0.0)
|   |   |   |   |   |   |   DT_DIGITA = 04/03/2015: 5 (0.0)
|   |   |   |   |   |   |   DT_DIGITA = 04/12/2015: 5 (0.0)
|   |   |   |   |   |   |   DT_DIGITA = 04/11/2015: 5 (0.0)
|   |   |   |   |   |   |   DT_DIGITA = 2.0150429E7: 5 (0.0)
|   |   |   |   |   |   |   DT_DIGITA = 2.0150328E7: 5 (0.0)
|   |   |   |   |   |   |   DT_DIGITA = 2.0150325E7: 5 (0.0)
|   |   |   |   |   |   |   DT_DIGITA = 04/05/2015: 5 (0.0)
|   |   |   |   |   |   |   DT_DIGITA = 2.0150327E7: 5 (0.0)
|   |   |   |   |   |   |   DT_DIGITA = 2.0150329E7: 5 (0.0)
|   |   |   |   |   |   |   DT_DIGITA = 2.0150321E7: 5 (0.0)
|   |   |   |   |   |   |   DT_DIGITA = 2.0150426E7: 5 (0.0)
|   |   |   |   |   |   DT_ENCERRA = 2.015053E7: 5 (35.61/1.37)
|   |   |   |   |   |   DT_ENCERRA = 2.0150527E7: 5 (97.34/38.79)
|   |   |   |   |   |   DT_ENCERRA = 06/03/2015: 10 (5.85/0.36)
|   |   |   |   |   |   DT_ENCERRA = 2.0150521E7: 10 (5.59/1.0)
|   |   |   |   |   |   DT_ENCERRA = 06/07/2015: 10 (5.66)
|   |   |   |   |   |   DT_ENCERRA = 2.0150424E7: 5 (0.0)
|   |   |   |   |   |   DT_ENCERRA = 2.0150613E7
|   |   |   |   |   |   |   SEM_PRI_NO <= 18: 10 (21.13/7.13)
|   |   |   |   |   |   |   SEM_PRI_NO > 18: 5 (15.13)
|   |   |   |   |   |   DT_ENCERRA = 2.0150614E7
|   |   |   |   |   |   |   ID_UNIDADE <= 7006810: 10 (2.0)
|   |   |   |   |   |   |   ID_UNIDADE > 7006810: 5 (4.13/0.13)
|   |   |   |   |   |   DT_ENCERRA = 05/08/2015: 10 (0.51)
|   |   |   |   |   |   DT_ENCERRA = 2.0150519E7
|   |   |   |   |   |   |   FX_NU_IDAD <= 7: 5 (14.39/4.13)
|   |   |   |   |   |   |   FX_NU_IDAD > 7: 10 (4.0)
|   |   |   |   |   |   DT_ENCERRA = 2.0150531E7: 10 (1.79)
|   |   |   |   |   |   DT_ENCERRA = 2.0150524E7: 10 (1.38)
|   |   |   |   |   |   DT_ENCERRA = 2.015052E7: 5 (4.76/1.52)
|   |   |   |   |   |   DT_ENCERRA = 2.0150429E7
|   |   |   |   |   |   |   DT_NOTIFIC = 2.0150529E7: 10 (0.0)
|   |   |   |   |   |   |   DT_NOTIFIC = 2.0150528E7: 10 (0.0)
|   |   |   |   |   |   |   DT_NOTIFIC = 06/05/2015: 10 (0.0)
|   |   |   |   |   |   |   DT_NOTIFIC = 2.0150522E7: 10 (0.0)
|   |   |   |   |   |   |   DT_NOTIFIC = 2.0150526E7: 10 (0.0)
|   |   |   |   |   |   |   DT_NOTIFIC = 2.015052E7: 10 (0.0)
|   |   |   |   |   |   |   DT_NOTIFIC = 06/08/2015: 10 (0.0)
|   |   |   |   |   |   |   DT_NOTIFIC = 06/11/2015: 10 (0.0)
|   |   |   |   |   |   |   DT_NOTIFIC = 2.0150525E7: 10 (0.0)
|   |   |   |   |   |   |   DT_NOTIFIC = 2.0150616E7: 10 (0.0)
|   |   |   |   |   |   |   DT_NOTIFIC = 2.0150615E7: 10 (0.0)
|   |   |   |   |   |   |   DT_NOTIFIC = 2.0150613E7: 10 (0.0)
|   |   |   |   |   |   |   DT_NOTIFIC = 2.0150524E7: 10 (0.0)
|   |   |   |   |   |   |   DT_NOTIFIC = 2.0150518E7: 10 (0.0)
|   |   |   |   |   |   |   DT_NOTIFIC = 05/04/2015: 10 (0.0)
|   |   |   |   |   |   |   DT_NOTIFIC = 2.0150519E7: 10 (0.0)
|   |   |   |   |   |   |   DT_NOTIFIC = 05/06/2015: 10 (0.0)
|   |   |   |   |   |   |   DT_NOTIFIC = 2.0150313E7: 10 (0.0)
|   |   |   |   |   |   |   DT_NOTIFIC = 06/10/2015: 10 (0.0)
|   |   |   |   |   |   |   DT_NOTIFIC = 2.0150515E7: 10 (0.0)
|   |   |   |   |   |   |   DT_NOTIFIC = 05/01/2015: 10 (0.0)
|   |   |   |   |   |   |   DT_NOTIFIC = 05/08/2015: 10 (0.0)
|   |   |   |   |   |   |   DT_NOTIFIC = 2.0150513E7: 10 (0.0)
|   |   |   |   |   |   |   DT_NOTIFIC = 06/07/2015: 10 (0.0)
|   |   |   |   |   |   |   DT_NOTIFIC = 2.0150516E7: 10 (0.0)
|   |   |   |   |   |   |   DT_NOTIFIC = 05/07/2015: 10 (0.0)
|   |   |   |   |   |   |   DT_NOTIFIC = 2.0150527E7: 10 (0.0)
|   |   |   |   |   |   |   DT_NOTIFIC = 06/01/2015: 10 (0.0)
|   |   |   |   |   |   |   DT_NOTIFIC = 05/11/2015: 10 (0.0)
|   |   |   |   |   |   |   DT_NOTIFIC = 05/09/2015: 10 (0.0)
|   |   |   |   |   |   |   DT_NOTIFIC = 2.015043E7: 10 (0.0)
|   |   |   |   |   |   |   DT_NOTIFIC = 2.0150614E7: 10 (0.0)
|   |   |   |   |   |   |   DT_NOTIFIC = 06/09/2015: 10 (0.0)
|   |   |   |   |   |   |   DT_NOTIFIC = 06/06/2015: 10 (0.0)
|   |   |   |   |   |   |   DT_NOTIFIC = 2.0150523E7: 10 (0.0)
|   |   |   |   |   |   |   DT_NOTIFIC = 2.0150618E7: 10 (0.0)
|   |   |   |   |   |   |   DT_NOTIFIC = 2.0150531E7: 10 (0.0)
|   |   |   |   |   |   |   DT_NOTIFIC = 2.0150517E7: 10 (0.0)
|   |   |   |   |   |   |   DT_NOTIFIC = 06/02/2015: 10 (0.0)
|   |   |   |   |   |   |   DT_NOTIFIC = 2.0150514E7: 10 (0.0)
|   |   |   |   |   |   |   DT_NOTIFIC = 05/12/2015: 10 (0.0)
|   |   |   |   |   |   |   DT_NOTIFIC = 03/01/2015: 10 (0.0)
|   |   |   |   |   |   |   DT_NOTIFIC = 2.0150521E7: 10 (0.0)
|   |   |   |   |   |   |   DT_NOTIFIC = 06/04/2015: 10 (0.0)
|   |   |   |   |   |   |   DT_NOTIFIC = 2.015053E7: 10 (0.0)
|   |   |   |   |   |   |   DT_NOTIFIC = 2.0150423E7: 10 (0.0)
|   |   |   |   |   |   |   DT_NOTIFIC = 2.015042E7: 10 (0.37)
|   |   |   |   |   |   |   DT_NOTIFIC = 05/05/2015: 10 (0.0)
|   |   |   |   |   |   |   DT_NOTIFIC = 03/09/2015: 10 (0.0)
|   |   |   |   |   |   |   DT_NOTIFIC = 06/03/2015: 10 (0.0)
|   |   |   |   |   |   |   DT_NOTIFIC = 05/02/2015: 10 (0.0)
|   |   |   |   |   |   |   DT_NOTIFIC = 2.0150415E7: 10 (0.0)
|   |   |   |   |   |   |   DT_NOTIFIC = 2.0150426E7: 10 (3.0)
|   |   |   |   |   |   |   DT_NOTIFIC = 2.0150617E7: 10 (0.0)
|   |   |   |   |   |   |   DT_NOTIFIC = 2.0150427E7: 10 (0.0)
|   |   |   |   |   |   |   DT_NOTIFIC = 04/06/2015: 10 (0.0)
|   |   |   |   |   |   |   DT_NOTIFIC = 06/12/2015: 10 (0.0)
|   |   |   |   |   |   |   DT_NOTIFIC = 05/03/2015: 10 (0.0)
|   |   |   |   |   |   |   DT_NOTIFIC = 2.0150429E7: 10 (0.0)
|   |   |   |   |   |   |   DT_NOTIFIC = 04/11/2015: 10 (0.0)
|   |   |   |   |   |   |   DT_NOTIFIC = 05/10/2015: 10 (0.0)
|   |   |   |   |   |   |   DT_NOTIFIC = 04/12/2015: 10 (0.0)
|   |   |   |   |   |   |   DT_NOTIFIC = 2.0150422E7: 10 (0.0)
|   |   |   |   |   |   |   DT_NOTIFIC = 2.0150329E7: 10 (0.0)
|   |   |   |   |   |   |   DT_NOTIFIC = 2.0150419E7: 10 (0.13)
|   |   |   |   |   |   |   DT_NOTIFIC = 2.0150322E7: 10 (0.0)
|   |   |   |   |   |   |   DT_NOTIFIC = 2.0150424E7: 5 (1.0)
|   |   |   |   |   |   |   DT_NOTIFIC = 2.0150428E7: 10 (0.0)
|   |   |   |   |   |   |   DT_NOTIFIC = 2.0150413E7: 10 (0.0)
|   |   |   |   |   |   |   DT_NOTIFIC = 2.0150421E7: 10 (0.0)
|   |   |   |   |   |   |   DT_NOTIFIC = 2.0150417E7: 10 (0.0)
|   |   |   |   |   |   |   DT_NOTIFIC = 2.0150226E7: 10 (0.0)
|   |   |   |   |   |   |   DT_NOTIFIC = 2.0150416E7: 10 (0.0)
|   |   |   |   |   |   |   DT_NOTIFIC = 03/05/2015: 10 (0.0)
|   |   |   |   |   |   |   DT_NOTIFIC = 2.0150323E7: 10 (0.0)
|   |   |   |   |   |   |   DT_NOTIFIC = 2.0150331E7: 10 (0.0)
|   |   |   |   |   |   |   DT_NOTIFIC = 2.0150425E7: 5 (6.26/2.0)
|   |   |   |   |   |   |   DT_NOTIFIC = 2.0150414E7: 10 (0.0)
|   |   |   |   |   |   |   DT_NOTIFIC = 2.0150321E7: 10 (0.0)
|   |   |   |   |   |   |   DT_NOTIFIC = 2.0150328E7: 10 (0.0)
|   |   |   |   |   |   |   DT_NOTIFIC = 04/10/2015: 10 (0.0)
|   |   |   |   |   |   |   DT_NOTIFIC = 04/07/2015: 10 (0.0)
|   |   |   |   |   |   |   DT_NOTIFIC = 2.015033E7: 10 (0.0)
|   |   |   |   |   |   |   DT_NOTIFIC = 04/02/2015: 10 (0.0)
|   |   |   |   |   |   |   DT_NOTIFIC = 2.0150326E7: 10 (0.0)
|   |   |   |   |   |   |   DT_NOTIFIC = 03/11/2015: 10 (0.0)
|   |   |   |   |   |   |   DT_NOTIFIC = 2.0150327E7: 10 (0.0)
|   |   |   |   |   |   |   DT_NOTIFIC = 2.0150325E7: 10 (0.0)
|   |   |   |   |   |   |   DT_NOTIFIC = 04/08/2015: 10 (0.0)
|   |   |   |   |   |   |   DT_NOTIFIC = 2.0150418E7: 10 (0.0)
|   |   |   |   |   |   |   DT_NOTIFIC = 03/12/2015: 10 (0.0)
|   |   |   |   |   |   |   DT_NOTIFIC = 2.0150317E7: 10 (0.0)
|   |   |   |   |   |   |   DT_NOTIFIC = 03/10/2015: 10 (0.0)
|   |   |   |   |   |   |   DT_NOTIFIC = 04/05/2015: 10 (0.0)
|   |   |   |   |   |   |   DT_NOTIFIC = 2.0150318E7: 10 (0.0)
|   |   |   |   |   |   |   DT_NOTIFIC = 2.0150319E7: 10 (0.0)
|   |   |   |   |   |   |   DT_NOTIFIC = 2.0150219E7: 10 (0.0)
|   |   |   |   |   |   |   DT_NOTIFIC = 03/08/2015: 10 (0.0)
|   |   |   |   |   |   |   DT_NOTIFIC = 2.0150113E7: 10 (0.0)
|   |   |   |   |   |   |   DT_NOTIFIC = 2.0150213E7: 10 (0.0)
|   |   |   |   |   |   |   DT_NOTIFIC = 04/09/2015: 10 (0.0)
|   |   |   |   |   |   |   DT_NOTIFIC = 03/03/2015: 10 (0.0)
|   |   |   |   |   |   |   DT_NOTIFIC = 2.0150315E7: 10 (0.0)
|   |   |   |   |   |   |   DT_NOTIFIC = 2.0150316E7: 10 (0.0)
|   |   |   |   |   |   |   DT_NOTIFIC = 2.0150324E7: 10 (0.0)
|   |   |   |   |   |   |   DT_NOTIFIC = 03/06/2015: 10 (0.0)
|   |   |   |   |   |   |   DT_NOTIFIC = 04/01/2015: 10 (0.0)
|   |   |   |   |   |   |   DT_NOTIFIC = 2.015032E7: 10 (0.0)
|   |   |   |   |   |   |   DT_NOTIFIC = 2.0150131E7: 10 (0.0)
|   |   |   |   |   |   |   DT_NOTIFIC = 2.0150126E7: 10 (0.0)
|   |   |   |   |   |   |   DT_NOTIFIC = 01/10/2015: 10 (0.0)
|   |   |   |   |   |   |   DT_NOTIFIC = 2.0150115E7: 10 (0.0)
|   |   |   |   |   |   |   DT_NOTIFIC = 2.0150123E7: 10 (0.0)
|   |   |   |   |   |   |   DT_NOTIFIC = 2.0150217E7: 10 (0.0)
|   |   |   |   |   |   |   DT_NOTIFIC = 03/04/2015: 10 (0.0)
|   |   |   |   |   |   |   DT_NOTIFIC = 2.0150114E7: 10 (0.0)
|   |   |   |   |   |   |   DT_NOTIFIC = 01/12/2015: 10 (0.0)
|   |   |   |   |   |   |   DT_NOTIFIC = 2.0150121E7: 10 (0.0)
|   |   |   |   |   |   |   DT_NOTIFIC = 2.0150224E7: 10 (0.0)
|   |   |   |   |   |   |   DT_NOTIFIC = 01/05/2015: 10 (0.0)
|   |   |   |   |   |   |   DT_NOTIFIC = 2.015013E7: 10 (0.0)
|   |   |   |   |   |   |   DT_NOTIFIC = 2.0150128E7: 10 (0.0)
|   |   |   |   |   |   |   DT_NOTIFIC = 02/08/2015: 10 (0.0)
|   |   |   |   |   |   |   DT_NOTIFIC = 02/03/2015: 10 (0.0)
|   |   |   |   |   |   |   DT_NOTIFIC = 2.0150222E7: 10 (0.0)
|   |   |   |   |   |   |   DT_NOTIFIC = 2.0150122E7: 10 (0.0)
|   |   |   |   |   |   |   DT_NOTIFIC = 2.0150218E7: 10 (0.0)
|   |   |   |   |   |   |   DT_NOTIFIC = 2.0150119E7: 10 (0.0)
|   |   |   |   |   |   |   DT_NOTIFIC = 2.0150118E7: 10 (0.0)
|   |   |   |   |   |   |   DT_NOTIFIC = 2.0150116E7: 10 (0.0)
|   |   |   |   |   |   |   DT_NOTIFIC = 2.015012E7: 10 (0.0)
|   |   |   |   |   |   |   DT_NOTIFIC = 2.0150124E7: 10 (0.0)
|   |   |   |   |   |   |   DT_NOTIFIC = 2.015022E7: 10 (0.0)
|   |   |   |   |   |   |   DT_NOTIFIC = 2.0150216E7: 10 (0.0)
|   |   |   |   |   |   |   DT_NOTIFIC = 2.0150221E7: 10 (0.0)
|   |   |   |   |   |   |   DT_NOTIFIC = 2.0150225E7: 10 (0.0)
|   |   |   |   |   |   |   DT_NOTIFIC = 2.0150223E7: 10 (0.0)
|   |   |   |   |   |   |   DT_NOTIFIC = 02/05/2015: 10 (0.0)
|   |   |   |   |   |   |   DT_NOTIFIC = 03/07/2015: 10 (0.0)
|   |   |   |   |   |   |   DT_NOTIFIC = 2.0150127E7: 10 (0.0)
|   |   |   |   |   |   |   DT_NOTIFIC = 02/06/2015: 10 (0.0)
|   |   |   |   |   |   |   DT_NOTIFIC = 2.0150129E7: 10 (0.0)
|   |   |   |   |   |   |   DT_NOTIFIC = 2.0150125E7: 10 (0.0)
|   |   |   |   |   |   |   DT_NOTIFIC = 01/07/2015: 10 (0.0)
|   |   |   |   |   |   |   DT_NOTIFIC = 01/04/2015: 10 (0.0)
|   |   |   |   |   |   |   DT_NOTIFIC = 01/06/2015: 10 (0.0)
|   |   |   |   |   |   |   DT_NOTIFIC = 01/08/2015: 10 (0.0)
|   |   |   |   |   |   |   DT_NOTIFIC = 01/11/2015: 10 (0.0)
|   |   |   |   |   |   |   DT_NOTIFIC = 2.0150214E7: 10 (0.0)
|   |   |   |   |   |   |   DT_NOTIFIC = 03/02/2015: 10 (0.0)
|   |   |   |   |   |   |   DT_NOTIFIC = 02/07/2015: 10 (0.0)
|   |   |   |   |   |   |   DT_NOTIFIC = 02/04/2015: 10 (0.0)
|   |   |   |   |   |   |   DT_NOTIFIC = 02/01/2015: 10 (0.0)
|   |   |   |   |   |   |   DT_NOTIFIC = 02/12/2015: 10 (0.0)
|   |   |   |   |   |   |   DT_NOTIFIC = 01/09/2015: 10 (0.0)
|   |   |   |   |   |   |   DT_NOTIFIC = 2.0150227E7: 10 (0.0)
|   |   |   |   |   |   |   DT_NOTIFIC = 02/10/2015: 10 (0.0)
|   |   |   |   |   |   |   DT_NOTIFIC = 02/09/2015: 10 (0.0)
|   |   |   |   |   |   |   DT_NOTIFIC = 02/11/2015: 10 (0.0)
|   |   |   |   |   |   |   DT_NOTIFIC = 2.0150215E7: 10 (0.0)
|   |   |   |   |   |   |   DT_NOTIFIC = 02/02/2015: 10 (0.0)
|   |   |   |   |   |   |   DT_NOTIFIC = 2.0150314E7: 10 (0.0)
|   |   |   |   |   |   |   DT_NOTIFIC = 2.0150228E7: 10 (0.0)
|   |   |   |   |   |   |   DT_NOTIFIC = 2.0150117E7: 10 (0.0)
|   |   |   |   |   |   |   DT_NOTIFIC = 04/04/2015: 10 (0.0)
|   |   |   |   |   |   |   DT_NOTIFIC = 04/03/2015: 10 (0.0)
|   |   |   |   |   |   DT_ENCERRA = 2.0150422E7: 5 (0.0)
|   |   |   |   |   |   DT_ENCERRA = 05/11/2015: 5 (18.52/0.26)
|   |   |   |   |   |   DT_ENCERRA = 05/09/2015: 10 (1.13/0.13)
|   |   |   |   |   |   DT_ENCERRA = 05/06/2015: 5 (23.0/10.0)
|   |   |   |   |   |   DT_ENCERRA = 05/07/2015: 10 (7.39)
|   |   |   |   |   |   DT_ENCERRA = 2.0150416E7: 5 (0.0)
|   |   |   |   |   |   DT_ENCERRA = 05/05/2015: 5 (0.74/0.37)
|   |   |   |   |   |   DT_ENCERRA = 2.0150523E7: 10 (3.0/1.0)
|   |   |   |   |   |   DT_ENCERRA = 2.0150517E7: 10 (1.13)
|   |   |   |   |   |   DT_ENCERRA = 05/10/2015: 10 (0.39)
|   |   |   |   |   |   DT_ENCERRA = 2.0150514E7: 10 (7.5/1.0)
|   |   |   |   |   |   DT_ENCERRA = 2.0150513E7
|   |   |   |   |   |   |   SEM_PRI_NO <= 15: 10 (2.0)
|   |   |   |   |   |   |   SEM_PRI_NO > 15: 5 (6.5/1.13)
|   |   |   |   |   |   DT_ENCERRA = 2.0150415E7: 5 (0.0)
|   |   |   |   |   |   DT_ENCERRA = 2.0150323E7: 5 (0.0)
|   |   |   |   |   |   DT_ENCERRA = 2.0150428E7: 5 (3.0/1.0)
|   |   |   |   |   |   DT_ENCERRA = 2.015033E7: 5 (0.0)
|   |   |   |   |   |   DT_ENCERRA = 2.0150515E7
|   |   |   |   |   |   |   ID_BAIRRO <= 101: 10 (2.61/0.24)
|   |   |   |   |   |   |   ID_BAIRRO > 101: 5 (2.11/0.11)
|   |   |   |   |   |   DT_ENCERRA = 2.0150518E7: 10 (1.11)
|   |   |   |   |   |   DT_ENCERRA = 2.0150427E7
|   |   |   |   |   |   |   FX_NU_IDAD <= 5: 10 (2.0)
|   |   |   |   |   |   |   FX_NU_IDAD > 5: 5 (7.13/1.0)
|   |   |   |   |   |   DT_ENCERRA = 2.0150318E7: 5 (0.0)
|   |   |   |   |   |   DT_ENCERRA = 2.0150516E7: 5 (2.0)
|   |   |   |   |   |   DT_ENCERRA = 02/09/2015: 5 (0.0)
|   |   |   |   |   |   DT_ENCERRA = 2.0150326E7: 5 (0.0)
|   |   |   |   |   |   DT_ENCERRA = 05/02/2015: 5 (0.0)
|   |   |   |   |   |   DT_ENCERRA = 04/07/2015: 5 (0.0)
|   |   |   |   |   |   DT_ENCERRA = 04/08/2015: 5 (0.0)
|   |   |   |   |   |   DT_ENCERRA = 2.015043E7: 10 (2.24/1.0)
|   |   |   |   |   |   DT_ENCERRA = 01/11/2015: 5 (0.0)
|   |   |   |   |   |   DT_ENCERRA = 02/05/2015: 5 (0.0)
|   |   |   |   |   |   DT_ENCERRA = 2.0150225E7: 5 (0.0)
|   |   |   |   |   |   DT_ENCERRA = 2.0150224E7: 5 (0.0)
|   |   |   |   |   |   DT_ENCERRA = 2.0150325E7: 5 (0.0)
|   |   |   |   |   |   DT_ENCERRA = 2.0150128E7: 5 (0.0)
|   |   |   |   |   |   DT_ENCERRA = 03/09/2015: 5 (0.0)
|   |   |   |   |   |   DT_ENCERRA = 2.0150124E7: 5 (0.0)
|   |   |   |   |   |   DT_ENCERRA = 03/04/2015: 5 (0.0)
|   |   |   |   |   |   DT_ENCERRA = 03/05/2015: 5 (0.0)
|   |   |   |   |   |   DT_ENCERRA = 2.0150215E7: 5 (0.0)
|   |   |   |   |   |   DT_ENCERRA = 2.0150223E7: 5 (0.0)
|   |   |   |   |   |   DT_ENCERRA = 2.0150426E7: 5 (0.0)
|   |   |   |   |   |   DT_ENCERRA = 01/07/2015: 5 (0.0)
|   |   |   |   |   |   DT_ENCERRA = 03/06/2015: 5 (0.0)
|   |   |   |   |   |   DT_ENCERRA = 2.0150129E7: 5 (0.0)
|   |   |   |   |   |   DT_ENCERRA = 2.0150316E7: 5 (0.0)
|   |   |   |   |   |   DT_ENCERRA = 2.0150122E7: 5 (0.0)
|   |   |   |   |   |   DT_ENCERRA = 2.0150219E7: 5 (0.0)
|   |   |   |   |   |   DT_ENCERRA = 2.015012E7: 5 (0.0)
|   |   |   |   |   |   DT_ENCERRA = 2.0150119E7: 5 (0.0)
|   |   |   |   |   |   DT_ENCERRA = 2.0150126E7: 5 (0.0)
|   |   |   |   |   |   DT_ENCERRA = 2.0150317E7: 5 (0.0)
|   |   |   |   |   |   DT_ENCERRA = 02/02/2015: 5 (0.0)
|   |   |   |   |   |   DT_ENCERRA = 02/11/2015: 5 (0.0)
|   |   |   |   |   |   DT_ENCERRA = 2.0150423E7: 5 (0.24)
|   |   |   |   |   |   DT_ENCERRA = 2.015032E7: 5 (0.0)
|   |   |   |   |   |   DT_ENCERRA = 2.0150228E7: 5 (0.0)
|   |   |   |   |   |   DT_ENCERRA = 03/02/2015: 5 (0.0)
|   |   |   |   |   |   DT_ENCERRA = 2.0150313E7: 5 (0.0)
|   |   |   |   |   |   DT_ENCERRA = 2.0150227E7: 5 (0.0)
|   |   |   |   |   |   DT_ENCERRA = 02/04/2015: 5 (0.0)
|   |   |   |   |   |   DT_ENCERRA = 2.015013E7: 5 (0.0)
|   |   |   |   |   |   DT_ENCERRA = 01/12/2015: 5 (0.0)
|   |   |   |   |   |   DT_ENCERRA = 2.0150121E7: 5 (0.0)
|   |   |   |   |   |   DT_ENCERRA = 2.0150114E7: 5 (0.0)
|   |   |   |   |   |   DT_ENCERRA = 02/03/2015: 5 (0.0)
|   |   |   |   |   |   DT_ENCERRA = 2.015022E7: 5 (0.0)
|   |   |   |   |   |   DT_ENCERRA = 2.0150117E7: 5 (0.0)
|   |   |   |   |   |   DT_ENCERRA = 04/01/2015: 5 (0.0)
|   |   |   |   |   |   DT_ENCERRA = 2.0150213E7: 5 (0.0)
|   |   |   |   |   |   DT_ENCERRA = 03/01/2015: 5 (0.0)
|   |   |   |   |   |   DT_ENCERRA = 02/10/2015: 5 (0.0)
|   |   |   |   |   |   DT_ENCERRA = 02/06/2015: 5 (0.0)
|   |   |   |   |   |   DT_ENCERRA = 2.0150226E7: 5 (0.0)
|   |   |   |   |   |   DT_ENCERRA = 2.0150314E7: 5 (0.0)
|   |   |   |   |   |   DT_ENCERRA = 2.0150329E7: 5 (0.0)
|   |   |   |   |   |   DT_ENCERRA = 2.0150414E7: 5 (0.0)
|   |   |   |   |   |   DT_ENCERRA = 2.0150319E7: 5 (0.0)
|   |   |   |   |   |   DT_ENCERRA = 03/03/2015: 5 (0.0)
|   |   |   |   |   |   DT_ENCERRA = 04/09/2015: 5 (0.0)
|   |   |   |   |   |   DT_ENCERRA = 2.015042E7: 5 (0.0)
|   |   |   |   |   |   DT_ENCERRA = 03/12/2015: 5 (0.0)
|   |   |   |   |   |   DT_ENCERRA = 02/12/2015: 5 (0.0)
|   |   |   |   |   |   DT_ENCERRA = 04/02/2015: 5 (0.0)
|   |   |   |   |   |   DT_ENCERRA = 04/06/2015: 5 (0.0)
|   |   |   |   |   |   DT_ENCERRA = 01/09/2015: 5 (0.0)
|   |   |   |   |   |   DT_ENCERRA = 04/11/2015: 5 (0.0)
|   |   |   |   |   |   DT_ENCERRA = 2.0150331E7: 5 (0.0)
|   |   |   |   |   |   DT_ENCERRA = 2.0150327E7: 5 (0.0)
|   |   |   |   |   |   DT_ENCERRA = 2.0150418E7: 5 (0.0)
|   |   |   |   |   |   DT_ENCERRA = 03/11/2015: 5 (0.0)
|   |   |   |   |   |   DT_ENCERRA = 2.0150324E7: 5 (0.0)
|   |   |   |   |   |   DT_ENCERRA = 2.0150315E7: 5 (0.0)
|   |   |   |   |   |   DT_ENCERRA = 2.0150417E7: 5 (0.0)
|   |   |   |   |   |   DT_ENCERRA = 05/04/2015: 10 (1.13/0.13)
|   |   |   |   |   |   DT_ENCERRA = 03/10/2015: 5 (0.0)
|   |   |   |   |   |   DT_ENCERRA = 2.0150425E7: 5 (0.0)
|   |   |   |   |   |   DT_ENCERRA = 03/07/2015: 5 (0.0)
|   |   |   |   |   |   DT_ENCERRA = 2.0150116E7: 5 (0.0)
|   |   |   |   |   |   DT_ENCERRA = 2.0150115E7: 5 (0.0)
|   |   |   |   |   |   DT_ENCERRA = 2.0150322E7: 5 (0.0)
|   |   |   |   |   |   DT_ENCERRA = 2.0150328E7: 5 (0.0)
|   |   |   |   |   |   DT_ENCERRA = 2.0150123E7: 5 (0.0)
|   |   |   |   |   |   DT_ENCERRA = 01/08/2015: 5 (0.0)
|   |   |   |   |   |   DT_ENCERRA = 2.0150221E7: 5 (0.0)
|   |   |   |   |   |   DT_ENCERRA = 04/10/2015: 5 (0.0)
|   |   |   |   |   |   DT_ENCERRA = 2.0150321E7: 5 (0.0)
|   |   |   |   |   |   DT_ENCERRA = 01/06/2015: 5 (0.0)
|   |   |   |   |   |   DT_ENCERRA = 03/08/2015: 5 (0.0)
|   |   |   |   |   |   DT_ENCERRA = 2.0150413E7: 5 (0.0)
|   |   |   |   |   |   DT_ENCERRA = 2.0150216E7: 5 (0.0)
|   |   |   |   |   |   DT_ENCERRA = 04/03/2015: 5 (0.0)
|   |   |   |   |   |   DT_ENCERRA = 2.0150125E7: 5 (0.0)
|   |   |   |   |   |   DT_ENCERRA = 2.0150222E7: 5 (0.0)
|   |   |   |   |   |   DT_ENCERRA = 02/07/2015: 5 (0.0)
|   |   |   |   |   |   DT_ENCERRA = 05/01/2015: 11 (0.11)
|   |   |   |   |   |   DT_ENCERRA = 2.0150217E7: 5 (0.0)
|   |   |   |   |   |   DT_ENCERRA = 2.0150127E7: 5 (0.0)
|   |   |   |   |   |   DT_ENCERRA = 2.0150218E7: 5 (0.0)
|   |   |   |   |   |   DT_ENCERRA = 2.0150113E7: 5 (0.0)
|   |   |   |   |   |   DT_ENCERRA = 05/03/2015: 10 (0.13)
|   |   |   |   |   |   DT_ENCERRA = 2.0150419E7: 5 (0.0)
|   |   |   |   |   |   DT_ENCERRA = 2.0150421E7: 5 (0.0)
|   |   |   |   |   |   DT_ENCERRA = 04/12/2015: 5 (0.0)
|   |   |   |   |   |   DT_ENCERRA = 2.015062E7: 8 (4.17)
|   |   |   |   |   |   DT_ENCERRA = 2.0150619E7: 8 (1.27)
|   |   |   |   |   |   DT_ENCERRA = 04/04/2015: 5 (0.0)
|   |   |   |   |   |   DT_ENCERRA = 04/05/2015: 5 (0.0)
|   |   |   |   ID_BAIRRO > 121
|   |   |   |   |   ID_UNIDADE <= 7381158
|   |   |   |   |   |   ID_UNIDADE <= 7006810
|   |   |   |   |   |   |   CS_FLXRET <= 0: 10 (1707.53/143.88)
|   |   |   |   |   |   |   CS_FLXRET > 0
|   |   |   |   |   |   |   |   NU_IDADE_N <= 4014: 5 (119.07/47.15)
|   |   |   |   |   |   |   |   NU_IDADE_N > 4014: 10 (292.66/49.58)
|   |   |   |   |   |   ID_UNIDADE > 7006810
|   |   |   |   |   |   |   DT_ENCERRA = 06/09/2015: 5 (0.0)
|   |   |   |   |   |   |   DT_ENCERRA = 2.0150529E7: 5 (3.6/1.35)
|   |   |   |   |   |   |   DT_ENCERRA = 2.0150615E7: 5 (42.0/15.0)
|   |   |   |   |   |   |   DT_ENCERRA = 06/11/2015: 10 (63.31/30.85)
|   |   |   |   |   |   |   DT_ENCERRA = 06/08/2015: 5 (0.45)
|   |   |   |   |   |   |   DT_ENCERRA = 2.0150616E7: 10 (34.9/11.0)
|   |   |   |   |   |   |   DT_ENCERRA = 05/12/2015: 5 (0.45)
|   |   |   |   |   |   |   DT_ENCERRA = 2.0150618E7: 5 (16.0/7.0)
|   |   |   |   |   |   |   DT_ENCERRA = 2.0150526E7: 10 (6.47/3.03)
|   |   |   |   |   |   |   DT_ENCERRA = 06/04/2015: 5 (0.0)
|   |   |   |   |   |   |   DT_ENCERRA = 06/01/2015: 5 (0.0)
|   |   |   |   |   |   |   DT_ENCERRA = 06/12/2015: 5 (90.11/19.4)
|   |   |   |   |   |   |   DT_ENCERRA = 06/06/2015: 10 (1.0)
|   |   |   |   |   |   |   DT_ENCERRA = 06/05/2015: 5 (0.0)
|   |   |   |   |   |   |   DT_ENCERRA = 2.0150617E7: 5 (2.0)
|   |   |   |   |   |   |   DT_ENCERRA = 06/02/2015: 10 (0.45)
|   |   |   |   |   |   |   DT_ENCERRA = 2.0150522E7: 5 (0.0)
|   |   |   |   |   |   |   DT_ENCERRA = 2.0150528E7: 5 (0.9)
|   |   |   |   |   |   |   DT_ENCERRA = 2.0150525E7: 5 (0.0)
|   |   |   |   |   |   |   DT_ENCERRA = 06/10/2015
|   |   |   |   |   |   |   |   DT_DIGITA = 06/09/2015: 10 (0.0)
|   |   |   |   |   |   |   |   DT_DIGITA = 06/12/2015: 10 (0.0)
|   |   |   |   |   |   |   |   DT_DIGITA = 2.0150613E7: 10 (0.0)
|   |   |   |   |   |   |   |   DT_DIGITA = 2.0150615E7: 10 (0.0)
|   |   |   |   |   |   |   |   DT_DIGITA = 06/10/2015: 10 (0.0)
|   |   |   |   |   |   |   |   DT_DIGITA = 2.0150616E7: 10 (0.0)
|   |   |   |   |   |   |   |   DT_DIGITA = 06/08/2015: 10 (0.0)
|   |   |   |   |   |   |   |   DT_DIGITA = 2.0150618E7: 10 (0.0)
|   |   |   |   |   |   |   |   DT_DIGITA = 06/11/2015
|   |   |   |   |   |   |   |   |   FX_NU_IDAD <= 3: 5 (4.0)
|   |   |   |   |   |   |   |   |   FX_NU_IDAD > 3: 10 (28.15/5.8)
|   |   |   |   |   |   |   |   DT_DIGITA = 2.0150319E7: 10 (0.0)
|   |   |   |   |   |   |   |   DT_DIGITA = 06/05/2015: 10 (0.0)
|   |   |   |   |   |   |   |   DT_DIGITA = 2.015053E7: 10 (0.0)
|   |   |   |   |   |   |   |   DT_DIGITA = 2.0150526E7: 5 (2.7/0.9)
|   |   |   |   |   |   |   |   DT_DIGITA = 06/04/2015: 10 (0.0)
|   |   |   |   |   |   |   |   DT_DIGITA = 06/02/2015: 10 (0.0)
|   |   |   |   |   |   |   |   DT_DIGITA = 06/07/2015: 10 (0.0)
|   |   |   |   |   |   |   |   DT_DIGITA = 06/06/2015: 10 (0.0)
|   |   |   |   |   |   |   |   DT_DIGITA = 2.0150531E7: 10 (0.0)
|   |   |   |   |   |   |   |   DT_DIGITA = 06/03/2015: 10 (0.0)
|   |   |   |   |   |   |   |   DT_DIGITA = 2.0150527E7: 10 (0.0)
|   |   |   |   |   |   |   |   DT_DIGITA = 2.0150617E7: 10 (0.0)
|   |   |   |   |   |   |   |   DT_DIGITA = 06/01/2015: 10 (0.0)
|   |   |   |   |   |   |   |   DT_DIGITA = 2.0150528E7: 10 (0.0)
|   |   |   |   |   |   |   |   DT_DIGITA = 2.0150529E7: 10 (0.0)
|   |   |   |   |   |   |   |   DT_DIGITA = 05/07/2015: 10 (0.0)
|   |   |   |   |   |   |   |   DT_DIGITA = 2.0150514E7: 10 (0.0)
|   |   |   |   |   |   |   |   DT_DIGITA = 2.0150525E7: 10 (0.0)
|   |   |   |   |   |   |   |   DT_DIGITA = 2.0150522E7: 5 (1.9)
|   |   |   |   |   |   |   |   DT_DIGITA = 2.0150521E7: 5 (5.4/0.45)
|   |   |   |   |   |   |   |   DT_DIGITA = 2.0150519E7: 10 (0.0)
|   |   |   |   |   |   |   |   DT_DIGITA = 2.0150524E7: 10 (0.0)
|   |   |   |   |   |   |   |   DT_DIGITA = 2.015052E7: 5 (1.8/0.9)
|   |   |   |   |   |   |   |   DT_DIGITA = 2.0150619E7: 10 (0.0)
|   |   |   |   |   |   |   |   DT_DIGITA = 2.0150614E7: 10 (0.0)
|   |   |   |   |   |   |   |   DT_DIGITA = 05/08/2015: 10 (0.0)
|   |   |   |   |   |   |   |   DT_DIGITA = 05/11/2015: 10 (0.0)
|   |   |   |   |   |   |   |   DT_DIGITA = 05/06/2015: 10 (0.0)
|   |   |   |   |   |   |   |   DT_DIGITA = 05/09/2015: 10 (0.0)
|   |   |   |   |   |   |   |   DT_DIGITA = 2.0150517E7: 10 (0.0)
|   |   |   |   |   |   |   |   DT_DIGITA = 2.0150523E7: 10 (0.0)
|   |   |   |   |   |   |   |   DT_DIGITA = 2.0150515E7: 10 (0.0)
|   |   |   |   |   |   |   |   DT_DIGITA = 05/10/2015: 10 (0.0)
|   |   |   |   |   |   |   |   DT_DIGITA = 05/12/2015: 10 (0.0)
|   |   |   |   |   |   |   |   DT_DIGITA = 2.0150513E7: 10 (0.0)
|   |   |   |   |   |   |   |   DT_DIGITA = 2.0150516E7: 10 (0.0)
|   |   |   |   |   |   |   |   DT_DIGITA = 2.0150518E7: 10 (0.0)
|   |   |   |   |   |   |   |   DT_DIGITA = 2.015042E7: 10 (0.0)
|   |   |   |   |   |   |   |   DT_DIGITA = 03/12/2015: 10 (0.0)
|   |   |   |   |   |   |   |   DT_DIGITA = 2.0150127E7: 10 (0.0)
|   |   |   |   |   |   |   |   DT_DIGITA = 04/06/2015: 10 (0.0)
|   |   |   |   |   |   |   |   DT_DIGITA = 2.0150414E7: 10 (0.0)
|   |   |   |   |   |   |   |   DT_DIGITA = 01/11/2015: 10 (0.0)
|   |   |   |   |   |   |   |   DT_DIGITA = 2.0150119E7: 10 (0.0)
|   |   |   |   |   |   |   |   DT_DIGITA = 02/02/2015: 10 (0.0)
|   |   |   |   |   |   |   |   DT_DIGITA = 03/04/2015: 10 (0.0)
|   |   |   |   |   |   |   |   DT_DIGITA = 03/06/2015: 10 (0.0)
|   |   |   |   |   |   |   |   DT_DIGITA = 2.0150128E7: 10 (0.0)
|   |   |   |   |   |   |   |   DT_DIGITA = 2.0150318E7: 10 (0.0)
|   |   |   |   |   |   |   |   DT_DIGITA = 2.0150116E7: 10 (0.0)
|   |   |   |   |   |   |   |   DT_DIGITA = 2.015012E7: 10 (0.0)
|   |   |   |   |   |   |   |   DT_DIGITA = 2.0150123E7: 10 (0.0)
|   |   |   |   |   |   |   |   DT_DIGITA = 2.0150122E7: 10 (0.0)
|   |   |   |   |   |   |   |   DT_DIGITA = 2.0150121E7: 10 (0.0)
|   |   |   |   |   |   |   |   DT_DIGITA = 2.0150215E7: 10 (0.0)
|   |   |   |   |   |   |   |   DT_DIGITA = 2.0150223E7: 10 (0.0)
|   |   |   |   |   |   |   |   DT_DIGITA = 2.0150224E7: 10 (0.0)
|   |   |   |   |   |   |   |   DT_DIGITA = 2.015022E7: 10 (0.0)
|   |   |   |   |   |   |   |   DT_DIGITA = 2.0150225E7: 10 (0.0)
|   |   |   |   |   |   |   |   DT_DIGITA = 2.0150115E7: 10 (0.0)
|   |   |   |   |   |   |   |   DT_DIGITA = 2.0150126E7: 10 (0.0)
|   |   |   |   |   |   |   |   DT_DIGITA = 2.0150213E7: 10 (0.0)
|   |   |   |   |   |   |   |   DT_DIGITA = 2.0150219E7: 10 (0.0)
|   |   |   |   |   |   |   |   DT_DIGITA = 2.0150226E7: 10 (0.0)
|   |   |   |   |   |   |   |   DT_DIGITA = 03/02/2015: 10 (0.0)
|   |   |   |   |   |   |   |   DT_DIGITA = 2.0150228E7: 10 (0.0)
|   |   |   |   |   |   |   |   DT_DIGITA = 2.0150227E7: 10 (0.0)
|   |   |   |   |   |   |   |   DT_DIGITA = 03/09/2015: 10 (0.0)
|   |   |   |   |   |   |   |   DT_DIGITA = 03/05/2015: 10 (0.0)
|   |   |   |   |   |   |   |   DT_DIGITA = 03/07/2015: 10 (0.0)
|   |   |   |   |   |   |   |   DT_DIGITA = 02/05/2015: 10 (0.0)
|   |   |   |   |   |   |   |   DT_DIGITA = 02/06/2015: 10 (0.0)
|   |   |   |   |   |   |   |   DT_DIGITA = 02/01/2015: 10 (0.0)
|   |   |   |   |   |   |   |   DT_DIGITA = 2.015013E7: 10 (0.0)
|   |   |   |   |   |   |   |   DT_DIGITA = 02/04/2015: 10 (0.0)
|   |   |   |   |   |   |   |   DT_DIGITA = 2.0150129E7: 10 (0.0)
|   |   |   |   |   |   |   |   DT_DIGITA = 01/05/2015: 10 (0.0)
|   |   |   |   |   |   |   |   DT_DIGITA = 01/07/2015: 10 (0.0)
|   |   |   |   |   |   |   |   DT_DIGITA = 01/09/2015: 10 (0.0)
|   |   |   |   |   |   |   |   DT_DIGITA = 02/09/2015: 10 (0.0)
|   |   |   |   |   |   |   |   DT_DIGITA = 2.0150125E7: 10 (0.0)
|   |   |   |   |   |   |   |   DT_DIGITA = 2.0150117E7: 10 (0.0)
|   |   |   |   |   |   |   |   DT_DIGITA = 03/03/2015: 10 (0.0)
|   |   |   |   |   |   |   |   DT_DIGITA = 2.0150216E7: 10 (0.0)
|   |   |   |   |   |   |   |   DT_DIGITA = 01/08/2015: 10 (0.0)
|   |   |   |   |   |   |   |   DT_DIGITA = 02/10/2015: 10 (0.0)
|   |   |   |   |   |   |   |   DT_DIGITA = 02/03/2015: 10 (0.0)
|   |   |   |   |   |   |   |   DT_DIGITA = 02/12/2015: 10 (0.0)
|   |   |   |   |   |   |   |   DT_DIGITA = 03/11/2015: 10 (0.0)
|   |   |   |   |   |   |   |   DT_DIGITA = 2.0150113E7: 10 (0.0)
|   |   |   |   |   |   |   |   DT_DIGITA = 2.0150324E7: 10 (0.0)
|   |   |   |   |   |   |   |   DT_DIGITA = 02/11/2015: 10 (0.0)
|   |   |   |   |   |   |   |   DT_DIGITA = 2.0150317E7: 10 (0.0)
|   |   |   |   |   |   |   |   DT_DIGITA = 2.0150313E7: 10 (0.0)
|   |   |   |   |   |   |   |   DT_DIGITA = 03/01/2015: 10 (0.0)
|   |   |   |   |   |   |   |   DT_DIGITA = 01/12/2015: 10 (0.0)
|   |   |   |   |   |   |   |   DT_DIGITA = 2.0150316E7: 10 (0.0)
|   |   |   |   |   |   |   |   DT_DIGITA = 2.0150315E7: 10 (0.0)
|   |   |   |   |   |   |   |   DT_DIGITA = 03/10/2015: 10 (0.0)
|   |   |   |   |   |   |   |   DT_DIGITA = 2.0150218E7: 10 (0.0)
|   |   |   |   |   |   |   |   DT_DIGITA = 02/07/2015: 10 (0.0)
|   |   |   |   |   |   |   |   DT_DIGITA = 01/04/2015: 10 (0.0)
|   |   |   |   |   |   |   |   DT_DIGITA = 2.0150217E7: 10 (0.0)
|   |   |   |   |   |   |   |   DT_DIGITA = 03/08/2015: 10 (0.0)
|   |   |   |   |   |   |   |   DT_DIGITA = 2.0150424E7: 10 (0.0)
|   |   |   |   |   |   |   |   DT_DIGITA = 2.0150314E7: 10 (0.0)
|   |   |   |   |   |   |   |   DT_DIGITA = 04/04/2015: 10 (0.0)
|   |   |   |   |   |   |   |   DT_DIGITA = 04/10/2015: 10 (0.0)
|   |   |   |   |   |   |   |   DT_DIGITA = 2.0150415E7: 10 (0.0)
|   |   |   |   |   |   |   |   DT_DIGITA = 2.0150114E7: 10 (0.0)
|   |   |   |   |   |   |   |   DT_DIGITA = 01/06/2015: 10 (0.0)
|   |   |   |   |   |   |   |   DT_DIGITA = 2.0150427E7: 10 (0.0)
|   |   |   |   |   |   |   |   DT_DIGITA = 2.0150425E7: 10 (0.0)
|   |   |   |   |   |   |   |   DT_DIGITA = 2.0150428E7: 10 (0.0)
|   |   |   |   |   |   |   |   DT_DIGITA = 2.0150418E7: 10 (0.0)
|   |   |   |   |   |   |   |   DT_DIGITA = 04/01/2015: 10 (0.0)
|   |   |   |   |   |   |   |   DT_DIGITA = 2.0150417E7: 10 (0.0)
|   |   |   |   |   |   |   |   DT_DIGITA = 2.0150331E7: 10 (0.0)
|   |   |   |   |   |   |   |   DT_DIGITA = 2.0150419E7: 10 (0.0)
|   |   |   |   |   |   |   |   DT_DIGITA = 2.015033E7: 10 (0.0)
|   |   |   |   |   |   |   |   DT_DIGITA = 2.0150421E7: 10 (0.0)
|   |   |   |   |   |   |   |   DT_DIGITA = 04/08/2015: 10 (0.0)
|   |   |   |   |   |   |   |   DT_DIGITA = 04/02/2015: 10 (0.0)
|   |   |   |   |   |   |   |   DT_DIGITA = 2.0150323E7: 10 (0.0)
|   |   |   |   |   |   |   |   DT_DIGITA = 04/09/2015: 10 (0.0)
|   |   |   |   |   |   |   |   DT_DIGITA = 04/07/2015: 10 (0.0)
|   |   |   |   |   |   |   |   DT_DIGITA = 2.0150326E7: 10 (0.0)
|   |   |   |   |   |   |   |   DT_DIGITA = 2.015032E7: 10 (0.0)
|   |   |   |   |   |   |   |   DT_DIGITA = 2.0150322E7: 10 (0.0)
|   |   |   |   |   |   |   |   DT_DIGITA = 05/01/2015: 5 (1.0)
|   |   |   |   |   |   |   |   DT_DIGITA = 2.015043E7: 5 (5.0/1.0)
|   |   |   |   |   |   |   |   DT_DIGITA = 05/04/2015: 10 (0.0)
|   |   |   |   |   |   |   |   DT_DIGITA = 05/05/2015: 10 (0.0)
|   |   |   |   |   |   |   |   DT_DIGITA = 05/02/2015: 10 (0.0)
|   |   |   |   |   |   |   |   DT_DIGITA = 05/03/2015: 10 (0.0)
|   |   |   |   |   |   |   |   DT_DIGITA = 2.0150416E7: 10 (0.0)
|   |   |   |   |   |   |   |   DT_DIGITA = 2.0150423E7: 10 (0.0)
|   |   |   |   |   |   |   |   DT_DIGITA = 2.0150422E7: 10 (0.0)
|   |   |   |   |   |   |   |   DT_DIGITA = 04/03/2015: 10 (0.0)
|   |   |   |   |   |   |   |   DT_DIGITA = 04/12/2015: 10 (0.0)
|   |   |   |   |   |   |   |   DT_DIGITA = 04/11/2015: 10 (0.0)
|   |   |   |   |   |   |   |   DT_DIGITA = 2.0150429E7: 10 (0.0)
|   |   |   |   |   |   |   |   DT_DIGITA = 2.0150328E7: 10 (0.0)
|   |   |   |   |   |   |   |   DT_DIGITA = 2.0150325E7: 10 (0.0)
|   |   |   |   |   |   |   |   DT_DIGITA = 04/05/2015: 10 (0.0)
|   |   |   |   |   |   |   |   DT_DIGITA = 2.0150327E7: 10 (0.0)
|   |   |   |   |   |   |   |   DT_DIGITA = 2.0150329E7: 10 (0.0)
|   |   |   |   |   |   |   |   DT_DIGITA = 2.0150321E7: 10 (0.0)
|   |   |   |   |   |   |   |   DT_DIGITA = 2.0150426E7: 10 (0.0)
|   |   |   |   |   |   |   DT_ENCERRA = 2.015053E7: 5 (0.0)
|   |   |   |   |   |   |   DT_ENCERRA = 2.0150527E7: 5 (5.4/1.35)
|   |   |   |   |   |   |   DT_ENCERRA = 06/03/2015: 5 (0.0)
|   |   |   |   |   |   |   DT_ENCERRA = 2.0150521E7: 5 (0.0)
|   |   |   |   |   |   |   DT_ENCERRA = 06/07/2015: 5 (0.0)
|   |   |   |   |   |   |   DT_ENCERRA = 2.0150424E7: 5 (0.0)
|   |   |   |   |   |   |   DT_ENCERRA = 2.0150613E7: 5 (22.9/1.0)
|   |   |   |   |   |   |   DT_ENCERRA = 2.0150614E7: 10 (0.45)
|   |   |   |   |   |   |   DT_ENCERRA = 05/08/2015: 10 (0.86)
|   |   |   |   |   |   |   DT_ENCERRA = 2.0150519E7: 10 (0.45)
|   |   |   |   |   |   |   DT_ENCERRA = 2.0150531E7: 5 (0.0)
|   |   |   |   |   |   |   DT_ENCERRA = 2.0150524E7: 5 (0.0)
|   |   |   |   |   |   |   DT_ENCERRA = 2.015052E7: 5 (1.0)
|   |   |   |   |   |   |   DT_ENCERRA = 2.0150429E7: 5 (0.0)
|   |   |   |   |   |   |   DT_ENCERRA = 2.0150422E7: 5 (0.0)
|   |   |   |   |   |   |   DT_ENCERRA = 05/11/2015: 5 (0.0)
|   |   |   |   |   |   |   DT_ENCERRA = 05/09/2015: 5 (0.0)
|   |   |   |   |   |   |   DT_ENCERRA = 05/06/2015: 5 (0.0)
|   |   |   |   |   |   |   DT_ENCERRA = 05/07/2015: 11 (0.86)
|   |   |   |   |   |   |   DT_ENCERRA = 2.0150416E7: 5 (0.0)
|   |   |   |   |   |   |   DT_ENCERRA = 05/05/2015: 5 (0.0)
|   |   |   |   |   |   |   DT_ENCERRA = 2.0150523E7: 5 (0.0)
|   |   |   |   |   |   |   DT_ENCERRA = 2.0150517E7: 5 (0.0)
|   |   |   |   |   |   |   DT_ENCERRA = 05/10/2015: 5 (0.0)
|   |   |   |   |   |   |   DT_ENCERRA = 2.0150514E7: 5 (0.0)
|   |   |   |   |   |   |   DT_ENCERRA = 2.0150513E7: 5 (0.0)
|   |   |   |   |   |   |   DT_ENCERRA = 2.0150415E7: 5 (0.0)
|   |   |   |   |   |   |   DT_ENCERRA = 2.0150323E7: 5 (0.0)
|   |   |   |   |   |   |   DT_ENCERRA = 2.0150428E7: 5 (0.0)
|   |   |   |   |   |   |   DT_ENCERRA = 2.015033E7: 5 (0.0)
|   |   |   |   |   |   |   DT_ENCERRA = 2.0150515E7: 5 (0.0)
|   |   |   |   |   |   |   DT_ENCERRA = 2.0150518E7: 5 (0.0)
|   |   |   |   |   |   |   DT_ENCERRA = 2.0150427E7: 5 (0.0)
|   |   |   |   |   |   |   DT_ENCERRA = 2.0150318E7: 5 (0.0)
|   |   |   |   |   |   |   DT_ENCERRA = 2.0150516E7: 5 (0.0)
|   |   |   |   |   |   |   DT_ENCERRA = 02/09/2015: 5 (0.0)
|   |   |   |   |   |   |   DT_ENCERRA = 2.0150326E7: 5 (0.0)
|   |   |   |   |   |   |   DT_ENCERRA = 05/02/2015: 5 (0.0)
|   |   |   |   |   |   |   DT_ENCERRA = 04/07/2015: 5 (0.0)
|   |   |   |   |   |   |   DT_ENCERRA = 04/08/2015: 5 (0.0)
|   |   |   |   |   |   |   DT_ENCERRA = 2.015043E7: 5 (0.0)
|   |   |   |   |   |   |   DT_ENCERRA = 01/11/2015: 5 (0.0)
|   |   |   |   |   |   |   DT_ENCERRA = 02/05/2015: 5 (0.0)
|   |   |   |   |   |   |   DT_ENCERRA = 2.0150225E7: 5 (0.0)
|   |   |   |   |   |   |   DT_ENCERRA = 2.0150224E7: 5 (0.0)
|   |   |   |   |   |   |   DT_ENCERRA = 2.0150325E7: 5 (0.0)
|   |   |   |   |   |   |   DT_ENCERRA = 2.0150128E7: 5 (0.0)
|   |   |   |   |   |   |   DT_ENCERRA = 03/09/2015: 5 (0.0)
|   |   |   |   |   |   |   DT_ENCERRA = 2.0150124E7: 5 (0.0)
|   |   |   |   |   |   |   DT_ENCERRA = 03/04/2015: 5 (0.0)
|   |   |   |   |   |   |   DT_ENCERRA = 03/05/2015: 5 (0.0)
|   |   |   |   |   |   |   DT_ENCERRA = 2.0150215E7: 5 (0.0)
|   |   |   |   |   |   |   DT_ENCERRA = 2.0150223E7: 5 (0.0)
|   |   |   |   |   |   |   DT_ENCERRA = 2.0150426E7: 5 (0.0)
|   |   |   |   |   |   |   DT_ENCERRA = 01/07/2015: 5 (0.0)
|   |   |   |   |   |   |   DT_ENCERRA = 03/06/2015: 5 (0.0)
|   |   |   |   |   |   |   DT_ENCERRA = 2.0150129E7: 5 (0.0)
|   |   |   |   |   |   |   DT_ENCERRA = 2.0150316E7: 5 (0.0)
|   |   |   |   |   |   |   DT_ENCERRA = 2.0150122E7: 5 (0.0)
|   |   |   |   |   |   |   DT_ENCERRA = 2.0150219E7: 5 (0.0)
|   |   |   |   |   |   |   DT_ENCERRA = 2.015012E7: 5 (0.0)
|   |   |   |   |   |   |   DT_ENCERRA = 2.0150119E7: 5 (0.0)
|   |   |   |   |   |   |   DT_ENCERRA = 2.0150126E7: 5 (0.0)
|   |   |   |   |   |   |   DT_ENCERRA = 2.0150317E7: 5 (0.0)
|   |   |   |   |   |   |   DT_ENCERRA = 02/02/2015: 5 (0.0)
|   |   |   |   |   |   |   DT_ENCERRA = 02/11/2015: 5 (0.0)
|   |   |   |   |   |   |   DT_ENCERRA = 2.0150423E7: 5 (0.0)
|   |   |   |   |   |   |   DT_ENCERRA = 2.015032E7: 5 (0.0)
|   |   |   |   |   |   |   DT_ENCERRA = 2.0150228E7: 5 (0.0)
|   |   |   |   |   |   |   DT_ENCERRA = 03/02/2015: 5 (0.0)
|   |   |   |   |   |   |   DT_ENCERRA = 2.0150313E7: 5 (0.0)
|   |   |   |   |   |   |   DT_ENCERRA = 2.0150227E7: 5 (0.0)
|   |   |   |   |   |   |   DT_ENCERRA = 02/04/2015: 5 (0.0)
|   |   |   |   |   |   |   DT_ENCERRA = 2.015013E7: 5 (0.0)
|   |   |   |   |   |   |   DT_ENCERRA = 01/12/2015: 5 (0.0)
|   |   |   |   |   |   |   DT_ENCERRA = 2.0150121E7: 5 (0.0)
|   |   |   |   |   |   |   DT_ENCERRA = 2.0150114E7: 5 (0.0)
|   |   |   |   |   |   |   DT_ENCERRA = 02/03/2015: 5 (0.0)
|   |   |   |   |   |   |   DT_ENCERRA = 2.015022E7: 5 (0.0)
|   |   |   |   |   |   |   DT_ENCERRA = 2.0150117E7: 5 (0.0)
|   |   |   |   |   |   |   DT_ENCERRA = 04/01/2015: 5 (0.0)
|   |   |   |   |   |   |   DT_ENCERRA = 2.0150213E7: 5 (0.0)
|   |   |   |   |   |   |   DT_ENCERRA = 03/01/2015: 5 (0.0)
|   |   |   |   |   |   |   DT_ENCERRA = 02/10/2015: 5 (0.0)
|   |   |   |   |   |   |   DT_ENCERRA = 02/06/2015: 5 (0.0)
|   |   |   |   |   |   |   DT_ENCERRA = 2.0150226E7: 5 (0.0)
|   |   |   |   |   |   |   DT_ENCERRA = 2.0150314E7: 5 (0.0)
|   |   |   |   |   |   |   DT_ENCERRA = 2.0150329E7: 5 (0.0)
|   |   |   |   |   |   |   DT_ENCERRA = 2.0150414E7: 5 (0.0)
|   |   |   |   |   |   |   DT_ENCERRA = 2.0150319E7: 5 (0.0)
|   |   |   |   |   |   |   DT_ENCERRA = 03/03/2015: 5 (0.0)
|   |   |   |   |   |   |   DT_ENCERRA = 04/09/2015: 5 (0.0)
|   |   |   |   |   |   |   DT_ENCERRA = 2.015042E7: 5 (0.0)
|   |   |   |   |   |   |   DT_ENCERRA = 03/12/2015: 5 (0.0)
|   |   |   |   |   |   |   DT_ENCERRA = 02/12/2015: 5 (0.0)
|   |   |   |   |   |   |   DT_ENCERRA = 04/02/2015: 5 (0.0)
|   |   |   |   |   |   |   DT_ENCERRA = 04/06/2015: 5 (0.0)
|   |   |   |   |   |   |   DT_ENCERRA = 01/09/2015: 5 (0.0)
|   |   |   |   |   |   |   DT_ENCERRA = 04/11/2015: 5 (0.0)
|   |   |   |   |   |   |   DT_ENCERRA = 2.0150331E7: 5 (0.0)
|   |   |   |   |   |   |   DT_ENCERRA = 2.0150327E7: 5 (0.0)
|   |   |   |   |   |   |   DT_ENCERRA = 2.0150418E7: 5 (0.0)
|   |   |   |   |   |   |   DT_ENCERRA = 03/11/2015: 5 (0.0)
|   |   |   |   |   |   |   DT_ENCERRA = 2.0150324E7: 5 (0.0)
|   |   |   |   |   |   |   DT_ENCERRA = 2.0150315E7: 5 (0.0)
|   |   |   |   |   |   |   DT_ENCERRA = 2.0150417E7: 5 (0.0)
|   |   |   |   |   |   |   DT_ENCERRA = 05/04/2015: 5 (0.0)
|   |   |   |   |   |   |   DT_ENCERRA = 03/10/2015: 5 (0.0)
|   |   |   |   |   |   |   DT_ENCERRA = 2.0150425E7: 5 (0.0)
|   |   |   |   |   |   |   DT_ENCERRA = 03/07/2015: 5 (0.0)
|   |   |   |   |   |   |   DT_ENCERRA = 2.0150116E7: 5 (0.0)
|   |   |   |   |   |   |   DT_ENCERRA = 2.0150115E7: 5 (0.0)
|   |   |   |   |   |   |   DT_ENCERRA = 2.0150322E7: 5 (0.0)
|   |   |   |   |   |   |   DT_ENCERRA = 2.0150328E7: 5 (0.0)
|   |   |   |   |   |   |   DT_ENCERRA = 2.0150123E7: 5 (0.0)
|   |   |   |   |   |   |   DT_ENCERRA = 01/08/2015: 5 (0.0)
|   |   |   |   |   |   |   DT_ENCERRA = 2.0150221E7: 5 (0.0)
|   |   |   |   |   |   |   DT_ENCERRA = 04/10/2015: 5 (0.0)
|   |   |   |   |   |   |   DT_ENCERRA = 2.0150321E7: 5 (0.0)
|   |   |   |   |   |   |   DT_ENCERRA = 01/06/2015: 5 (0.0)
|   |   |   |   |   |   |   DT_ENCERRA = 03/08/2015: 5 (0.0)
|   |   |   |   |   |   |   DT_ENCERRA = 2.0150413E7: 5 (0.0)
|   |   |   |   |   |   |   DT_ENCERRA = 2.0150216E7: 5 (0.0)
|   |   |   |   |   |   |   DT_ENCERRA = 04/03/2015: 5 (0.0)
|   |   |   |   |   |   |   DT_ENCERRA = 2.0150125E7: 5 (0.0)
|   |   |   |   |   |   |   DT_ENCERRA = 2.0150222E7: 5 (0.0)
|   |   |   |   |   |   |   DT_ENCERRA = 02/07/2015: 5 (0.0)
|   |   |   |   |   |   |   DT_ENCERRA = 05/01/2015: 5 (0.0)
|   |   |   |   |   |   |   DT_ENCERRA = 2.0150217E7: 5 (0.0)
|   |   |   |   |   |   |   DT_ENCERRA = 2.0150127E7: 5 (0.0)
|   |   |   |   |   |   |   DT_ENCERRA = 2.0150218E7: 5 (0.0)
|   |   |   |   |   |   |   DT_ENCERRA = 2.0150113E7: 5 (0.0)
|   |   |   |   |   |   |   DT_ENCERRA = 05/03/2015: 5 (0.0)
|   |   |   |   |   |   |   DT_ENCERRA = 2.0150419E7: 5 (0.0)
|   |   |   |   |   |   |   DT_ENCERRA = 2.0150421E7: 5 (0.0)
|   |   |   |   |   |   |   DT_ENCERRA = 04/12/2015: 5 (0.0)
|   |   |   |   |   |   |   DT_ENCERRA = 2.015062E7: 5 (0.0)
|   |   |   |   |   |   |   DT_ENCERRA = 2.0150619E7: 8 (0.27)
|   |   |   |   |   |   |   DT_ENCERRA = 04/04/2015: 5 (0.0)
|   |   |   |   |   |   |   DT_ENCERRA = 04/05/2015: 5 (0.0)
|   |   |   |   |   ID_UNIDADE > 7381158: 10 (1246.24/24.95)
CRITERIO > 2: 10 (4774.97/81.97)

Number of Leaves  : 	1489

Size of the tree : 	1557


Time taken to build model: 8.6 seconds

=== Stratified cross-validation ===
=== Summary ===

Correctly Classified Instances       17770               85.3096 %
Incorrectly Classified Instances      3060               14.6904 %
Kappa statistic                          0.6115
Mean absolute error                      0.0883
Root mean squared error                  0.2126
Relative absolute error                 53.098  %
Root relative squared error             73.7322 %
Total Number of Instances            20830     
Ignored Class Unknown Instances               4170     

=== Detailed Accuracy By Class ===

               TP Rate   FP Rate   Precision   Recall  F-Measure   ROC Area  Class
                 0.657     0.054      0.804     0.657     0.723      0.892    5
                 0.177     0          0.775     0.177     0.288      0.944    8
                 0.949     0.379      0.866     0.949     0.906      0.854    10
                 0.102     0.001      0.673     0.102     0.177      0.879    11
                 0.016     0          1         0.016     0.032      0.834    12
Weighted Avg.    0.853     0.287      0.847     0.853     0.841      0.865

=== Confusion Matrix ===

